4.088568985462188721e-01,3.632299005985260010e-01,-4.017310589551925659e-02,3.629373610019683838e-01,3.872572481632232666e-01,2.753682136535644531e-01,8.720371127128601074e-02,2.659133672714233398e-01,-1.086473092436790466e-01,1.739176064729690552e-01,-3.169418573379516602e-01,-1.319214999675750732e-01,-2.022018432617187500e-01,-1.792763769626617432e-01,2.272376865148544312e-01,1.091232337057590485e-02,-2.057151049375534058e-01,-1.466762721538543701e-01,2.386451214551925659e-01,-1.913202852010726929e-01,2.747349441051483154e-01,2.831259071826934814e-01,-4.561510086059570312e-01,-1.750810444355010986e-01,4.448258280754089355e-01,3.206445574760437012e-01,1.855576783418655396e-01,2.356142997741699219e-01,1.355312168598175049e-01,4.261756837368011475e-01
-4.258471354842185974e-02,-6.522005051374435425e-02,2.391303628683090210e-01,1.261830329895019531e-02,3.542830646038055420e-01,-1.177571043372154236e-01,2.381522804498672485e-01,-2.131717503070831299e-01,-2.843358516693115234e-01,2.487034350633621216e-01,4.158785194158554077e-02,-1.926661729812622070e-01,-2.654753923416137695e-01,2.780430912971496582e-01,8.039089292287826538e-02,2.857481837272644043e-01,1.632673442363739014e-01,-1.043867021799087524e-01,1.447339653968811035e-01,1.266225241124629974e-02,1.922124177217483521e-01,-3.468228876590728760e-01,-2.566073536872863770e-01,4.130803942680358887e-01,-3.459822833538055420e-01,1.470320522785186768e-01,-4.022623226046562195e-02,-4.318013489246368408e-01,-2.347528636455535889e-01,-1.466919034719467163e-01
4.042239487171173096e-01,-1.607592254877090454e-01,2.863067388534545898e-01,-2.719044387340545654e-01,6.088004112243652344e-01,1.741009950637817383e-01,1.980434209108352661e-01,2.274242341518402100e-01,-3.386032581329345703e-01,2.616285383701324463e-01,2.957675158977508545e-01,1.763684153556823730e-01,1.506855040788650513e-01,-2.967408597469329834e-01,2.879465818405151367e-01,-1.220071874558925629e-02,-1.050416752696037292e-01,-2.649216055870056152e-01,-3.847309201955795288e-02,-5.895470455288887024e-02,1.113929077982902527e-01,2.973448038101196289e-01,-3.324174508452415466e-02,-1.133153140544891357e-01,5.207370966672897339e-02,2.860550768673419952e-02,7.826624810695648193e-02,1.704833954572677612e-01,4.716557562351226807e-01,-1.035738214850425720e-01
4.036423563957214355e-01,-1.437587738037109375e-01,-6.548176705837249756e-02,-1.074972227215766907e-01,-1.153530646115541458e-02,2.848563194274902344e-01,1.817354708909988403e-01,-2.952877581119537354e-01,7.140888273715972900e-02,1.482703257352113724e-02,-1.106080785393714905e-02,2.553887367248535156e-01,3.187282681465148926e-01,1.947006583213806152e-01,-1.773039549589157104e-01,3.217107057571411133e-01,3.145970404148101807e-01,-1.516503393650054932e-01,-2.995295822620391846e-01,-2.549436688423156738e-02,-6.955835968255996704e-02,1.584073603153228760e-01,-3.176733851432800293e-01,-4.313697293400764465e-02,3.847543299198150635e-01,4.004893898963928223e-01,-1.202641353011131287e-01,5.396778881549835205e-02,-3.180792555212974548e-02,-3.581542372703552246e-01
