Layer 1 weights:
Weights: [[ 6.7051522e-02 -2.4615811e-01  1.5061718e-01  2.2430870e-01
   2.0569994e+00  3.9756536e-01  2.3884408e-02 -1.7414199e-01
  -2.0159864e-01 -1.1300699e+00 -2.0441726e-01  2.1137017e-01
   8.2498416e-02 -2.5810257e-01  2.9509807e-01 -3.2418364e-01
  -4.2031357e-01  2.6341205e-02  2.4207696e-01  9.4483936e-01
  -5.6383711e-01 -3.4113038e-01 -1.6198007e+00  1.5384510e-01
   1.2401228e+00 -1.1713222e+00 -3.8772017e-01 -3.2007822e-01
  -1.6459280e-01 -3.2431623e-01]
 [ 1.4433908e-01 -5.4566711e-02 -2.5332132e-01 -3.7116730e-01
  -5.0133789e-01 -2.7197966e-01 -3.0662423e-01  2.7869809e-02
  -2.0198387e-01 -1.3705364e-01 -3.3677322e-01  9.3972284e-01
   9.4672345e-02 -2.7354655e-01 -1.6313881e+00 -3.9573276e-01
  -1.4934596e-01  1.3945358e-02 -3.5927781e-01 -2.6239580e-01
  -6.4632863e-01 -3.0161139e-01 -1.6095229e+00 -2.8210685e-01
   1.4631648e+00  3.6065206e-03 -2.2024214e-03  3.5861567e-01
   3.0913112e-01  3.0212283e-01]
 [-1.0067904e-01  2.9757753e-01  3.6520463e-01 -2.7564651e-01
  -1.1734110e+00 -1.3907696e+00  6.0156509e-02  7.5979806e-02
  -7.2071671e-01  9.0283978e-01  5.5246860e-02 -2.3431020e+00
   2.7673995e-01  8.4049769e-02 -1.0852594e+00  5.8900625e-01
   1.8852696e-01  3.1551576e-01  7.6659471e-02  2.7609640e-01
  -1.3829060e+00  3.0262855e-01  4.4359580e-01 -3.9089522e-01
   1.5971702e-01  1.3721131e+00 -5.5785209e-02 -2.4461390e-01
  -3.6604786e-01  5.3187752e-01]
 [-2.0760216e-01 -3.7218371e-01 -7.1913332e-01 -1.1958107e-01
  -4.4153312e-01  6.2770808e-01  5.7879589e-02 -3.6040615e-02
   2.1676772e+00  3.5267928e-01 -6.1050981e-02  1.2479602e+00
  -8.6530477e-01 -2.5640113e-02  2.3656383e+00 -5.2427107e-01
  -5.7230778e-02 -4.7058529e-01 -1.6807923e-01 -2.4062192e+00
   8.4352791e-01 -2.6386434e-01  2.8460052e+00 -8.8376105e-02
  -2.8931468e+00 -7.2034919e-01 -4.7108710e-02 -3.0749646e-01
  -1.9848964e-01 -5.7938045e-01]]
Biases: [-0.47727302  0.         -0.01226594  0.          0.1373841  -0.79423773
 -0.4156893  -0.10018618 -1.9798493  -0.54463524  0.          0.11354011
 -0.00845887 -0.02946963  0.1226549  -0.01615578 -0.04796003 -0.30532014
  0.          2.7099004  -1.2626221   0.          0.01234044  0.
  0.03430614 -0.80741155  0.          0.          0.         -0.01857275]

Layer 2 weights:
Weights: [[-5.31805083e-02 -8.97059366e-02 -2.11826950e-01 -7.49827847e-02
   1.14973433e-01 -1.30749866e-01 -1.65219724e-01  6.16469532e-02
  -2.62014180e-01  2.01297820e-01  7.40190782e-03 -3.47927883e-02
   2.09738165e-01 -3.30328315e-01  8.03265646e-02  1.89099669e-01
  -1.58189461e-01 -3.17610979e-01 -1.91278175e-01 -6.69146776e-02]
 [ 6.40863478e-02 -2.37772763e-01  1.17419899e-01  1.71424925e-01
  -1.60882235e-01 -8.02124143e-02  2.98918724e-01 -2.04370156e-01
   1.88721955e-01  3.24656844e-01  2.29999602e-01 -1.86588481e-01
   2.19812393e-01  1.80747688e-01  2.12580919e-01  3.31153512e-01
   3.32695067e-01  1.44814134e-01 -1.92835301e-01  4.67553735e-03]
 [ 1.46128416e+00  1.28976512e+00 -1.20651402e-01 -4.48469877e+00
  -4.60051149e-01  1.74182773e-01 -3.82462358e+00  1.04801003e-02
  -4.64672558e-02  1.29516268e+00 -7.92190433e-01 -3.71321261e-01
  -2.07222295e+00 -3.41859199e-02  9.04254854e-01 -1.54761863e+00
   7.39989579e-01 -1.60760593e+00  9.35019910e-01 -8.42444122e-01]
 [ 2.01968849e-02 -1.31416619e-01  2.81860232e-02  2.31203198e-01
   2.90341973e-01  1.15795761e-01  8.98570120e-02  1.03504956e-02
   4.85291779e-02  4.57448661e-02  2.66300201e-01 -1.29692465e-01
   1.54533148e-01  3.07994127e-01  1.22322977e-01  2.50984609e-01
   2.82623351e-01 -2.48148471e-01  6.65782690e-02 -7.02574849e-03]
 [-1.60262573e+00 -1.33068419e+00 -3.38124323e+00  1.97428558e-02
  -1.55622606e+01  4.14236575e-01 -2.76060343e-01  2.21258581e-01
  -3.37446183e-01 -2.07291293e+00 -5.81249237e-01  9.75367576e-02
  -1.41462600e+00 -1.99915782e-01  5.61795533e-01  7.73870766e-01
  -4.24152327e+00  3.40337723e-01  1.28539765e+00 -2.68788308e-01]
 [-3.41700196e-01 -8.84041376e-03  6.73498094e-01  8.35468769e-01
  -1.99935019e+00  1.85469002e-01 -2.34838152e+00 -2.82479525e-01
  -3.43592197e-01 -6.24557734e-01 -2.26851493e-01 -7.14852154e-01
   4.42544758e-01 -1.71626478e-01 -8.86360228e-01  8.78725722e-02
  -1.77800968e-01  4.80137646e-01  8.44116807e-01 -1.76450968e-01]
 [ 2.31217995e-01 -7.20117331e-01  2.06023589e-01  2.02796757e-02
  -3.22371602e-01  2.88652387e-02  1.55952513e-01 -1.02638677e-01
  -1.53062271e-03  1.20991372e-01  1.07351728e-01 -3.77597839e-01
  -1.42560542e-01 -4.21565711e-01  1.23542286e-01  7.20236031e-03
   6.74831644e-02 -5.62785640e-02  2.65273690e-01  2.06342280e-01]
 [ 3.25850546e-01  6.33395463e-02  1.80768952e-01 -7.62834847e-02
   2.00439915e-01 -6.47012666e-02  3.63377929e-02 -3.67299646e-01
  -4.12462950e-01 -2.05399662e-01 -1.58195440e-02 -6.36515841e-02
   1.20917454e-01 -3.66625160e-01  5.02278702e-03 -7.85840377e-02
   6.75664991e-02  3.19772623e-02 -5.63197844e-02  2.60156870e-01]
 [-3.14592153e-01  2.20091805e-01 -1.93989933e-01 -2.56115496e-01
  -2.65724033e-01  9.82458234e-01  9.31853950e-02  5.56855500e-02
  -5.14540374e-02 -1.07497148e-01 -5.18637896e-01 -3.82071063e-02
  -9.94152799e-02 -3.34792659e-02 -2.67839339e-02 -3.71702701e-01
  -2.92383105e-01 -5.60707152e-01  3.40975858e-02  4.17480439e-01]
 [-2.10730419e+01 -4.44654465e+01 -2.98988891e+00 -4.01858121e-01
  -4.88998079e+00 -6.04377612e-02  1.47795513e-01 -9.69796106e-02
  -3.81638765e-01  2.28356589e-02 -6.34734333e-01 -4.68476892e-01
  -1.50287743e+01  1.70274526e-01 -1.04645334e-01 -2.22794741e-01
  -1.86003014e-01 -5.49681067e-01 -6.69668198e+00 -1.18935697e-01]
 [-2.57433712e-01  2.38459110e-01  9.73131359e-02  9.77208912e-02
   1.62302732e-01 -2.13504016e-01 -1.61879957e-02  8.55673552e-02
  -2.91842133e-01  1.47682190e-01 -1.17302462e-01  1.15138263e-01
  -3.14801335e-01 -6.00874722e-02 -3.14329475e-01  6.38046265e-02
  -2.94669628e-01 -2.62749404e-01 -2.62973815e-01  3.08538496e-01]
 [ 4.14052343e+00 -5.86921024e+00  4.17772341e+00  4.75110388e+00
   1.31102943e+00  2.23835850e+00 -4.16145563e+00  6.74224734e-01
  -3.54725093e-01  6.32887936e+00 -5.38366079e-01  7.80413449e-02
   1.50418901e+00 -3.18183929e-01 -1.45960736e+00  7.00863075e+00
   5.18407679e+00  4.40234327e+00 -7.63144135e-01 -7.40416050e+00]
 [-9.88757551e-01 -1.58009219e+00  4.09194767e-01 -1.38410926e+00
   1.01867117e-01 -2.44687274e-01  1.43562362e-01 -2.10700303e-01
  -5.20810485e-01  4.20802027e-01 -1.29042059e-01  2.91824285e-02
  -2.82465696e+00 -6.50456250e-02  1.63973331e+00 -9.16150987e-01
   4.53517705e-01 -3.77568293e+00 -1.35048870e-02 -1.38411999e-01]
 [-2.35819876e-01 -3.06573570e-01  8.03863704e-02 -2.58186668e-01
  -2.68006295e-01 -2.63467789e-01 -3.23938936e-01  3.21146965e-01
   8.79869163e-02  2.90369928e-01 -9.33649316e-02  6.95531303e-03
  -2.62981534e-01 -2.85239339e-01  2.76455462e-01  7.07736164e-02
  -7.59330913e-02 -1.22708045e-01 -2.76244015e-01  2.05829829e-01]
 [-1.75116348e+00  2.83392996e-01  1.33756876e+00 -9.98204291e-01
  -5.73809028e-01 -1.51051432e-02 -1.14591785e-01 -7.82924831e-01
  -4.73827988e-01 -2.02891064e+00 -4.96351808e-01 -3.46456856e-01
  -4.31390464e-01  3.87334116e-02  1.56817306e-02 -6.48484111e-01
  -1.38495326e-01 -2.38567209e+00 -6.42071068e-01 -3.83797139e-01]
 [-3.54511768e-01  5.92032433e-01 -7.88687050e-01 -1.66200304e+00
  -9.46217954e-01  6.85924649e-01  1.51927173e+00 -3.57139468e-01
  -4.50059980e-01 -8.79456401e-01  1.87438414e-01 -5.14513999e-02
  -2.64246732e-01 -3.86581331e-01  1.50969541e+00  4.81444389e-01
  -3.67263526e-01  1.25092030e+00 -1.13742533e+01 -1.36713106e-02]
 [-1.24402173e-01 -2.16276646e-02  3.23676169e-01  1.22230068e-01
  -2.90947199e-01 -6.89047053e-02  3.39361966e-01 -2.95368850e-01
  -9.17555615e-02  3.28792155e-01 -2.46836200e-01 -2.60442674e-01
   1.04507610e-01  1.19885139e-01 -3.87361310e-02  8.98532644e-02
   3.99012677e-02  1.10364869e-01  1.14179812e-02 -4.86648679e-02]
 [-1.44168258e-01  4.88908678e-01 -3.22267264e-01 -7.68905401e-01
   7.66144991e-02 -3.30106854e-01  5.64205110e-01  4.04742092e-01
  -5.09472609e-01  5.77666089e-02  5.00410199e-02  4.89859981e-03
   4.15542349e-02 -4.12099510e-01  4.21218097e-01  1.76635712e-01
   3.90066832e-01 -1.20091498e-01  4.54889797e-02  1.58987224e-01]
 [ 1.67966604e-01  3.40173900e-01 -1.12492964e-01 -2.92436600e-01
  -1.24352813e-01  9.78100896e-02  2.78351903e-02  2.62625694e-01
   2.41268575e-01  2.36122310e-02  1.55425668e-02  6.59756958e-02
  -2.46000692e-01 -1.43416867e-01  3.59390676e-02  3.10334086e-01
  -1.81280300e-01 -1.99781910e-01 -2.27669045e-01 -5.37306368e-02]
 [ 5.86450279e-01 -6.38620406e-02  3.38461936e-01 -4.67149258e+00
  -1.54343832e+00 -9.29423422e-02 -1.52549431e-01 -8.82012695e-02
  -2.78428625e-02 -9.00232029e+00  3.37572426e-01 -4.35973436e-01
  -3.28849226e-01 -1.63231447e-01 -7.25334942e-01 -8.75988305e-01
  -2.16088682e-01 -1.93302500e+00  2.30229282e+00 -2.64419734e-01]
 [ 9.10161734e-01  3.27165931e-01 -5.54676116e-01 -1.63358822e-01
  -5.12622356e-01  1.86281413e-01 -2.03158331e+00 -2.56599903e-01
  -4.95763309e-02 -1.05082810e+00 -2.23707408e-01 -6.82552680e-02
   4.09112900e-01 -3.20035845e-01 -2.04995704e+00 -1.83901004e-02
  -2.66722906e-02 -7.50792027e-01  7.46555090e-01 -1.87918127e-01]
 [-3.12353015e-01  2.30475724e-01  1.60940051e-01 -1.45613953e-01
   1.40265375e-01  5.34250736e-02 -3.07387412e-02  2.81102061e-01
  -9.80715603e-02  1.06567919e-01  1.80738091e-01 -2.88274944e-01
  -1.21639371e-02  1.15486979e-03  1.39957368e-02  1.35683239e-01
  -2.33248711e-01  9.95956063e-02  2.30731189e-01  2.61068583e-01]
 [ 1.70051789e+00  1.88569093e+00 -9.44623530e-01 -9.19029653e-01
   1.85225105e+00  2.45189756e-01 -1.09285784e+00 -2.20164990e+00
  -2.13438332e-01 -5.78497791e+00 -4.10280317e-01  7.44158477e-02
   2.40232611e+00 -6.87522218e-02 -4.25045282e-01 -3.66811097e-01
   1.79418445e-01 -7.08776236e-01 -8.91257823e-01 -6.69888616e-01]
 [ 1.07143909e-01 -1.72397420e-01  2.38126040e-01  4.88088131e-02
  -1.92879900e-01  2.83039451e-01  1.25383794e-01  3.07412863e-01
  -5.87542355e-02  2.85443187e-01  8.07213485e-02  9.46325064e-02
   9.25057828e-02  1.01316065e-01 -6.69788420e-02 -1.04284033e-01
   3.12970281e-01 -3.33472431e-01  1.70597553e-01  1.90285861e-01]
 [-6.81035185e+00 -1.29136336e+00 -6.28210545e+00 -6.09380119e-02
  -1.35758314e+01 -4.46519315e-01 -1.21601927e+00 -4.55622530e+00
   8.67050961e-02  7.86324561e-01  8.77232254e-02 -1.01646207e-01
  -1.92782640e+00 -2.39725977e-01 -1.17339277e+00 -3.73615599e+00
   2.10329270e+00 -1.85968149e+00 -6.96924865e-01 -8.48719478e-01]
 [-3.38445568e+00 -2.73203254e+00 -7.37196970e+00 -2.96056390e+00
  -2.34237289e+00  1.52584001e-01  2.60846066e+00 -6.22772038e-01
  -1.38420805e-01 -1.63997889e+00  8.47594664e-02 -3.29901993e-01
  -9.45225060e-01 -4.86341342e-02  1.83952773e+00  2.06098944e-01
   9.97721553e-01 -1.22375655e+00  8.02731991e-01  3.64330947e-01]
 [ 1.03263468e-01 -3.08591753e-01 -4.63549793e-02 -1.40887618e-01
   9.76588726e-02 -3.31836462e-01 -2.09738299e-01 -3.28277379e-01
  -3.00169975e-01  2.64686584e-01 -1.68397069e-01 -2.32597396e-01
  -2.63461351e-01 -2.89308488e-01 -1.63944766e-01 -2.54125714e-01
   1.24211073e-01  2.79217839e-01 -2.06130818e-01  2.86639214e-01]
 [ 2.55689919e-02 -2.10277691e-01 -2.91620612e-01  2.56706655e-01
   2.86139071e-01 -2.82900929e-02 -3.13295275e-01  6.97129965e-02
   8.58221352e-02 -2.38981158e-01 -1.57119647e-01  2.59889901e-01
  -9.27234888e-02 -1.28381997e-01 -1.66843623e-01 -2.18869105e-01
   3.16841006e-01 -3.08368504e-01 -3.40036720e-01  2.93760598e-01]
 [ 1.89795375e-01  1.22112632e-01 -3.16053808e-01 -1.07960135e-01
   4.36453521e-02 -1.14774942e-01  2.88189352e-02 -2.28136182e-01
   2.54677236e-02  1.57644033e-01 -4.98813391e-02  3.31428707e-01
   3.07863116e-01 -2.94970900e-01  2.24912524e-01 -2.93903172e-01
  -2.45981276e-01  2.40012288e-01  1.05908662e-01 -3.00000250e-01]
 [-2.98379213e-01  9.97755289e-01 -2.68097639e-01 -1.06532240e+00
  -2.02987306e-02 -3.80695790e-01  1.20333338e+00  4.94810306e-02
  -1.80851016e-02 -9.43552628e-02 -3.81019652e-01 -4.97053474e-01
  -1.15124547e+00  4.26375642e-02  1.39383435e+00 -1.87961531e+00
  -5.28230309e-01 -6.15656972e-01  7.05522895e-01  2.05778837e-01]]
Biases: [-1.1491251   1.0122848  -0.70907474 -0.88314235 -0.27938005 -0.02261608
  0.15859103  0.536862   -0.42259216 -1.1802295  -0.84509856 -0.35254127
 -4.769832   -0.2991949  -0.15277854 -1.4386675  -1.231133   -1.2042012
  0.185839    1.6528329 ]

Layer 3 weights:
Weights: [[-9.10266042e-01 -3.30651887e-02 -2.00817990e+00 -1.47978783e-01
   1.95244861e+00  5.74013412e-01  1.79287601e+00  7.83969998e-01
  -4.69583958e-01 -2.65626597e+00]
 [-1.50706366e-01  1.86840929e-02 -2.50133872e+00 -1.49951243e+00
  -6.28265095e+00 -1.56804407e+00 -1.61138344e+01  1.90012443e+00
   1.01642154e-01  1.63450754e+00]
 [ 3.63366008e-02  3.80493477e-02 -2.28260994e+00 -3.31283033e-01
   7.31067479e-01 -2.94834614e+00  1.88309193e+00  2.61145145e-01
  -3.19987029e-01 -4.39242959e-01]
 [-1.12809241e-01 -1.61886737e-01 -2.61899638e+00 -4.91307974e-02
  -1.35709792e-01 -4.18560076e+00 -1.12184632e+00 -7.34525561e-01
  -9.09421980e-01 -2.53909159e+00]
 [-1.09509981e+00 -1.92540716e-02 -1.01318561e-01  4.77244765e-01
  -1.83406591e+00 -6.24266490e-02 -2.73703003e+00 -2.55181861e+00
  -2.06174970e-01 -3.25084019e+00]
 [ 6.95698720e-04  9.20689583e-01 -3.09967548e-01 -1.54419339e+00
  -7.45587200e-02 -1.05837174e-01 -5.18786311e-02 -1.23891068e+00
  -3.52249026e-01 -4.61172253e-01]
 [ 2.15900853e-01 -7.62945235e-01  4.02625538e-02  4.08054590e-01
  -2.88886707e-02  5.14329147e+00 -3.66349840e+00 -3.91385603e+00
   8.27502366e-03  1.92078650e+00]
 [ 2.45451719e-01  4.20723222e-02 -2.72050083e-01 -4.06062484e-01
  -1.88112473e+00 -1.31601498e-01 -3.22605443e+00 -1.95127770e-01
  -4.65589821e-01 -8.93761873e-01]
 [ 1.07314713e-01 -1.14309035e-01 -1.34681821e-01 -3.36626351e-01
  -4.09539491e-01 -1.20042711e-01 -1.73760176e-01  1.98310629e-01
   3.67689788e-01  5.62475473e-02]
 [ 1.44831872e+00  3.50728422e-01  6.54237509e-01  5.27262747e-01
  -2.70097589e+00 -6.30043566e-01 -1.60641613e+01 -4.64482069e+00
  -3.95319045e-01  1.05199826e+00]
 [ 3.11802298e-01  6.17950857e-02  1.74174905e-01  1.87423125e-01
  -3.85047905e-02  1.56603798e-01  1.57274961e-01  1.48723513e-01
   3.58526111e-01  2.62260824e-01]
 [ 3.65294307e-01 -1.23277172e-01 -2.82588422e-01  1.91059738e-01
  -1.24206021e-01  2.19265953e-01  1.56325623e-01  2.36182615e-01
   1.06037505e-01  6.07913993e-02]
 [-3.94531965e+00  6.18343521e-03 -6.37534571e+00 -2.78435302e+00
  -3.30116510e+00 -4.41687346e+00 -1.04362345e+01 -9.93168712e-01
  -6.39378130e-01 -4.57296276e+00]
 [-7.14017777e-03 -6.16060346e-02 -3.20814967e-01  2.80262351e-01
  -5.46877133e-03  2.61021018e-01  5.96456766e-01 -2.71538287e-01
   2.49299467e-01  3.55708078e-02]
 [-2.58582687e+00 -5.52545309e-01 -1.34707701e+00  1.44529164e+00
  -7.98587054e-02 -7.17355967e+00 -1.35973966e+00  2.34633183e+00
  -8.09035525e-02 -5.40655017e-01]
 [ 2.00897884e+00  2.97853231e-01  1.54632628e+00  1.36483371e+00
   2.04633117e+00 -3.53280926e+00  4.60570526e+00 -1.52741849e+00
  -5.23982108e-01 -1.65507126e+00]
 [ 3.30401063e-01  1.45616591e-01 -1.02757244e+01 -7.15356350e-01
  -1.99713552e+00 -4.00520182e+00 -1.12068675e-01 -4.42704968e-02
  -8.08064759e-01 -1.06078017e+00]
 [-1.14398015e+00 -4.61103350e-01 -1.16710377e+00 -8.25794756e-01
   1.33301175e+00 -1.42510271e+00  2.73666763e+00  2.55113542e-01
  -7.85835739e-03 -3.85025549e+00]
 [ 1.11322021e+00  1.97741855e-03 -2.24622227e-02  1.97772756e-01
  -1.53443158e+00 -9.01316738e+00 -2.57069856e-01 -1.62578747e-01
  -6.73240423e-01 -4.02589172e-01]
 [-3.88517785e+00 -8.74462605e-01  7.58552611e-01 -1.94950879e-01
  -1.97575510e+00 -6.97347975e+00 -6.62192822e+00  2.06694055e+00
  -1.48602292e-01  3.52500415e+00]]
Biases: [-0.0708833   0.04538633 -0.41159916 -1.342832    0.18746637 -0.19390349
  0.13827148  0.6346193  -0.05933577 -0.2748683 ]

Layer 4 weights:
Weights: [[-1.25844911e-01]
 [ 5.82257450e-01]
 [-9.67494585e-03]
 [-1.04835825e-02]
 [-1.08362138e-01]
 [ 8.35273604e-05]
 [ 1.13000721e-01]
 [-7.72454888e-02]
 [ 1.78449735e-01]
 [ 2.01328859e-01]]
Biases: [0.9017415]

