7.370128296315670013e-03
7.370128296315670013e-03
-1.191918440543923051e-34
-1.191918440543923051e-34
-1.191918440543923051e-34
-1.191918440543923051e-34
-1.191918440543923051e-34
-1.191918440543923051e-34
-1.191918440543923051e-34
-1.706541515886783600e-03
7.370128296315670013e-03
7.370128296315670013e-03
7.370128296315670013e-03
-1.191918440543923051e-34
-1.191918440543923051e-34
-1.191918440543923051e-34
7.370128296315670013e-03
-1.191918440543923051e-34
-1.191918440543923051e-34
-1.191918440543923051e-34
-1.191918440543923051e-34
-1.191918440543923051e-34
7.370128296315670013e-03
-1.191918440543923051e-34
7.370128296315670013e-03
-1.191918440543923051e-34
-1.191918440543923051e-34
-1.191918440543923051e-34
-1.191918440543923051e-34
-1.191918440543923051e-34
7.370128296315670013e-03
-1.191918440543923051e-34
-1.706541515886783600e-03
-1.191918440543923051e-34
7.370128296315670013e-03
-1.191918440543923051e-34
-1.191918440543923051e-34
-1.191918440543923051e-34
-1.191918440543923051e-34
-1.191918440543923051e-34
7.370128296315670013e-03
-1.191918440543923051e-34
7.370128296315670013e-03
7.370128296315670013e-03
-1.191918440543923051e-34
-1.706541515886783600e-03
-1.191918440543923051e-34
7.370128296315670013e-03
-1.191918440543923051e-34
7.370128296315670013e-03
-1.706541515886783600e-03
-1.191918440543923051e-34
-1.191918440543923051e-34
7.370128296315670013e-03
-1.191918440543923051e-34
-1.191918440543923051e-34
-1.191918440543923051e-34
-1.191918440543923051e-34
7.370133418589830399e-03
7.370128296315670013e-03
7.370128296315670013e-03
-1.191918440543923051e-34
-1.191918440543923051e-34
-1.191918440543923051e-34
