-1.191918440543923051e-34
-1.191918440543923051e-34
1.147629991173744202e-01
-1.191918440543923051e-34
1.147629991173744202e-01
-1.191918440543923051e-34
-1.191918440543923051e-34
-1.191918440543923051e-34
-1.191918440543923051e-34
-1.191918440543923051e-34
-1.191918440543923051e-34
-1.191918440543923051e-34
3.972343355417251587e-02
-1.191918440543923051e-34
-1.191918440543923051e-34
-1.191918440543923051e-34
1.147629991173744202e-01
-1.191918440543923051e-34
-1.191918440543923051e-34
-1.191918440543923051e-34
-1.191918440543923051e-34
-1.191918440543923051e-34
-1.191918440543923051e-34
1.147629991173744202e-01
-1.191918440543923051e-34
-1.191918440543923051e-34
-1.191918440543923051e-34
-1.191918440543923051e-34
-1.191918440543923051e-34
-1.191918440543923051e-34
-1.191918440543923051e-34
3.972343355417251587e-02
-1.191918440543923051e-34
-1.191918440543923051e-34
-1.191918440543923051e-34
1.147629991173744202e-01
-1.191918440543923051e-34
-1.191918440543923051e-34
-1.191918440543923051e-34
-1.191918440543923051e-34
-1.191918440543923051e-34
-1.191918440543923051e-34
-1.191918440543923051e-34
-1.191918440543923051e-34
-1.191918440543923051e-34
1.147629991173744202e-01
1.147629991173744202e-01
-1.191918440543923051e-34
-1.191918440543923051e-34
3.972343355417251587e-02
-1.191918440543923051e-34
-1.191918440543923051e-34
-1.191918440543923051e-34
1.147629991173744202e-01
-1.191918440543923051e-34
3.972343355417251587e-02
-1.191918440543923051e-34
-1.191918440543923051e-34
3.977729380130767822e-02
-1.191918440543923051e-34
-1.191918440543923051e-34
3.972343355417251587e-02
-1.191918440543923051e-34
-1.191918440543923051e-34
