-1.123415753245353699e-01,-1.123415753245353699e-01,-1.191918440543923051e-34,1.191918440543923051e-34,-1.191918440543923051e-34,-1.191918440543923051e-34,1.191918440543923051e-34,1.191918440543923051e-34,1.191918440543923051e-34,2.290241122245788574e-01,-1.123415753245353699e-01,-1.123415753245353699e-01,-1.123415753245353699e-01,1.191918440543923051e-34,1.191918440543923051e-34,1.191918440543923051e-34,-1.123415753245353699e-01,-1.191918440543923051e-34,1.191918440543923051e-34,1.191918440543923051e-34,1.191918440543923051e-34,-1.191918440543923051e-34,-1.123415753245353699e-01,-1.191918440543923051e-34,-1.123415753245353699e-01,1.191918440543923051e-34,1.191918440543923051e-34,-1.191918440543923051e-34,1.191918440543923051e-34,1.191918440543923051e-34,-1.123415753245353699e-01,-1.191918440543923051e-34,2.290241122245788574e-01,-1.191918440543923051e-34,-1.123415753245353699e-01,1.191918440543923051e-34,1.191918440543923051e-34,1.191918440543923051e-34,-1.191918440543923051e-34,1.191918440543923051e-34,-1.123415753245353699e-01,-1.191918440543923051e-34,-1.123415753245353699e-01,-1.123415753245353699e-01,1.191918440543923051e-34,2.290241122245788574e-01,-1.191918440543923051e-34,-1.123415753245353699e-01,-1.191918440543923051e-34,-1.123415753245353699e-01,2.290241122245788574e-01,-1.191918440543923051e-34,-1.191918440543923051e-34,-1.123415753245353699e-01,1.191918440543923051e-34,1.191918440543923051e-34,-1.191918440543923051e-34,-1.191918440543923051e-34,-1.123414561152458191e-01,-1.123415753245353699e-01,-1.123415753245353699e-01,-1.191918440543923051e-34,1.191918440543923051e-34,1.191918440543923051e-34
-9.801518172025680542e-02,-9.801518172025680542e-02,1.191918440543923051e-34,-1.191918440543923051e-34,1.191918440543923051e-34,1.191918440543923051e-34,1.191918440543923051e-34,-1.191918440543923051e-34,-1.191918440543923051e-34,2.064755707979202271e-01,-9.801518172025680542e-02,-9.801518172025680542e-02,-9.801518172025680542e-02,1.191918440543923051e-34,-1.191918440543923051e-34,-1.191918440543923051e-34,-9.801518172025680542e-02,1.191918440543923051e-34,1.191918440543923051e-34,-1.191918440543923051e-34,-1.191918440543923051e-34,-1.191918440543923051e-34,-9.801518172025680542e-02,1.191918440543923051e-34,-9.801518172025680542e-02,-1.191918440543923051e-34,-1.191918440543923051e-34,1.191918440543923051e-34,-1.191918440543923051e-34,-1.191918440543923051e-34,-9.801518172025680542e-02,1.191918440543923051e-34,2.064755707979202271e-01,-1.191918440543923051e-34,-9.801518172025680542e-02,-1.191918440543923051e-34,-1.191918440543923051e-34,-1.191918440543923051e-34,-1.191918440543923051e-34,1.191918440543923051e-34,-9.801518172025680542e-02,1.191918440543923051e-34,-9.801518172025680542e-02,-9.801518172025680542e-02,-1.191918440543923051e-34,2.064755707979202271e-01,-1.191918440543923051e-34,-9.801518172025680542e-02,1.191918440543923051e-34,-9.801518172025680542e-02,2.064755707979202271e-01,1.191918440543923051e-34,1.191918440543923051e-34,-9.801518172025680542e-02,1.191918440543923051e-34,-1.191918440543923051e-34,1.191918440543923051e-34,1.191918440543923051e-34,-9.801600873470306396e-02,-9.801518172025680542e-02,-9.801518172025680542e-02,1.191918440543923051e-34,1.191918440543923051e-34,1.191918440543923051e-34
-8.681699633598327637e-02,-8.681699633598327637e-02,1.191918440543923051e-34,-1.191918440543923051e-34,-1.191918440543923051e-34,-1.191918440543923051e-34,-1.191918440543923051e-34,1.191918440543923051e-34,1.191918440543923051e-34,1.781390756368637085e-01,-8.681699633598327637e-02,-8.681699633598327637e-02,-8.681699633598327637e-02,-1.191918440543923051e-34,-1.191918440543923051e-34,-1.191918440543923051e-34,-8.681699633598327637e-02,-1.191918440543923051e-34,-1.191918440543923051e-34,-1.191918440543923051e-34,1.191918440543923051e-34,1.191918440543923051e-34,-8.681699633598327637e-02,1.191918440543923051e-34,-8.681699633598327637e-02,1.191918440543923051e-34,1.191918440543923051e-34,1.191918440543923051e-34,1.191918440543923051e-34,1.191918440543923051e-34,-8.681699633598327637e-02,-1.191918440543923051e-34,1.781390756368637085e-01,1.191918440543923051e-34,-8.681699633598327637e-02,1.191918440543923051e-34,1.191918440543923051e-34,-1.191918440543923051e-34,1.191918440543923051e-34,-1.191918440543923051e-34,-8.681699633598327637e-02,1.191918440543923051e-34,-8.681699633598327637e-02,-8.681699633598327637e-02,1.191918440543923051e-34,1.781390756368637085e-01,1.191918440543923051e-34,-8.681699633598327637e-02,-1.191918440543923051e-34,-8.681699633598327637e-02,1.781390756368637085e-01,1.191918440543923051e-34,-1.191918440543923051e-34,-8.681699633598327637e-02,-1.191918440543923051e-34,-1.191918440543923051e-34,-1.191918440543923051e-34,-1.191918440543923051e-34,-8.681699633598327637e-02,-8.681699633598327637e-02,-8.681699633598327637e-02,-1.191918440543923051e-34,-1.191918440543923051e-34,-1.191918440543923051e-34
-7.252223044633865356e-02,-7.252223044633865356e-02,-1.191918440543923051e-34,1.191918440543923051e-34,1.191918440543923051e-34,1.191918440543923051e-34,-1.191918440543923051e-34,-1.191918440543923051e-34,-1.191918440543923051e-34,1.562336981296539307e-01,-7.252223044633865356e-02,-7.252223044633865356e-02,-7.252223044633865356e-02,-1.191918440543923051e-34,1.191918440543923051e-34,1.191918440543923051e-34,-7.252223044633865356e-02,1.191918440543923051e-34,-1.191918440543923051e-34,1.191918440543923051e-34,-1.191918440543923051e-34,1.191918440543923051e-34,-7.252223044633865356e-02,-1.191918440543923051e-34,-7.252223044633865356e-02,-1.191918440543923051e-34,-1.191918440543923051e-34,-1.191918440543923051e-34,-1.191918440543923051e-34,-1.191918440543923051e-34,-7.252223044633865356e-02,1.191918440543923051e-34,1.562336981296539307e-01,1.191918440543923051e-34,-7.252223044633865356e-02,-1.191918440543923051e-34,-1.191918440543923051e-34,1.191918440543923051e-34,1.191918440543923051e-34,-1.191918440543923051e-34,-7.252223044633865356e-02,-1.191918440543923051e-34,-7.252223044633865356e-02,-7.252223044633865356e-02,-1.191918440543923051e-34,1.562336981296539307e-01,1.191918440543923051e-34,-7.252223044633865356e-02,1.191918440543923051e-34,-7.252223044633865356e-02,1.562336981296539307e-01,-1.191918440543923051e-34,1.191918440543923051e-34,-7.252223044633865356e-02,-1.191918440543923051e-34,1.191918440543923051e-34,1.191918440543923051e-34,1.191918440543923051e-34,-7.252223044633865356e-02,-7.252223044633865356e-02,-7.252223044633865356e-02,1.191918440543923051e-34,-1.191918440543923051e-34,-1.191918440543923051e-34
