-1.100686303595689842e-34,-6.994047760963439941e-02,1.100686303595689842e-34,-6.994047760963439941e-02,1.100686303595689842e-34,1.100686303595689842e-34,7.749720662832260132e-02,-6.994047760963439941e-02,1.100686303595689842e-34,1.100686303595689842e-34,-1.100686303595689842e-34,8.338103956644992159e-33,-6.994047760963439941e-02,-6.994047760963439941e-02,7.749720662832260132e-02,7.749720662832260132e-02,-1.100686303595689842e-34,-6.994047760963439941e-02,1.100686303595689842e-34,7.749720662832260132e-02,1.100686303595689842e-34,7.749720662832260132e-02,7.749720662832260132e-02,-6.994047760963439941e-02,-6.994047760963439941e-02,-6.994047760963439941e-02,1.100686303595689842e-34,-6.994047760963439941e-02,7.749720662832260132e-02,-1.100686303595689842e-34,7.749720662832260132e-02,-1.100686303595689842e-34,7.749720662832260132e-02,-1.100686303595689842e-34,-6.994047760963439941e-02,-6.994047760963439941e-02,7.749720662832260132e-02,7.749720662832260132e-02,1.100686303595689842e-34,7.749720662832260132e-02,1.100686303595689842e-34,-6.994047760963439941e-02,-6.994047760963439941e-02,7.749720662832260132e-02,-1.100686303595689842e-34,1.100686303595689842e-34,1.100686303595689842e-34,-6.994047760963439941e-02,-6.994047760963439941e-02,-6.994047760963439941e-02,1.100686303595689842e-34,7.749720662832260132e-02,7.749720662832260132e-02,1.100686303595689842e-34,-1.100686303595689842e-34,1.100686303595689842e-34,-6.994047760963439941e-02,-6.994047760963439941e-02,-1.100686303595689842e-34,-1.100686303595689842e-34,7.749720662832260132e-02,-6.994047760963439941e-02,-1.100686303595689842e-34,1.100686303595689842e-34
1.100686303595689842e-34,-7.291667163372039795e-02,1.100686303595689842e-34,-7.291667163372039795e-02,-1.100686303595689842e-34,1.100686303595689842e-34,8.050240576267242432e-02,-7.291667163372039795e-02,-1.100686303595689842e-34,1.100686303595689842e-34,-1.100686303595689842e-34,7.239064493084155495e-33,-7.291667163372039795e-02,-7.291667163372039795e-02,8.050240576267242432e-02,8.050240576267242432e-02,1.100686303595689842e-34,-7.291667163372039795e-02,-1.100686303595689842e-34,8.050240576267242432e-02,-1.100686303595689842e-34,8.050240576267242432e-02,8.050240576267242432e-02,-7.291667163372039795e-02,-7.291667163372039795e-02,-7.291667163372039795e-02,9.771262352899205663e-35,-7.291667163372039795e-02,8.050240576267242432e-02,-1.100686303595689842e-34,8.050240576267242432e-02,1.100686303595689842e-34,8.050240576267242432e-02,-1.100686303595689842e-34,-7.291667163372039795e-02,-7.291667163372039795e-02,8.050240576267242432e-02,8.050240576267242432e-02,1.100686303595689842e-34,8.050240576267242432e-02,-1.100686303595689842e-34,-7.291667163372039795e-02,-7.291667163372039795e-02,8.050240576267242432e-02,1.100686303595689842e-34,1.100686303595689842e-34,1.100686303595689842e-34,-7.291667163372039795e-02,-7.291667163372039795e-02,-7.291667163372039795e-02,1.100686303595689842e-34,8.050240576267242432e-02,8.050240576267242432e-02,-1.100686303595689842e-34,-1.100686303595689842e-34,-1.100686303595689842e-34,-7.291667163372039795e-02,-7.291667163372039795e-02,-1.100686303595689842e-34,-1.100686303595689842e-34,8.050240576267242432e-02,-7.291667163372039795e-02,-1.100686303595689842e-34,-1.100686303595689842e-34
1.100686303595689842e-34,-7.295375317335128784e-02,-1.100686303595689842e-34,-7.295375317335128784e-02,1.100686303595689842e-34,-1.100686303595689842e-34,9.058805555105209351e-02,-7.295375317335128784e-02,-1.100686303595689842e-34,-1.100686303595689842e-34,1.100686303595689842e-34,5.481198282111843774e-33,-7.295375317335128784e-02,-7.295375317335128784e-02,9.058805555105209351e-02,9.058805555105209351e-02,1.100686303595689842e-34,-7.295375317335128784e-02,1.100686303595689842e-34,9.058805555105209351e-02,1.100686303595689842e-34,9.058805555105209351e-02,9.058805555105209351e-02,-7.295375317335128784e-02,-7.295375317335128784e-02,-7.295375317335128784e-02,-6.008254468950588704e-36,-7.295375317335128784e-02,9.058805555105209351e-02,1.100686303595689842e-34,9.058805555105209351e-02,1.100686303595689842e-34,9.058805555105209351e-02,1.100686303595689842e-34,-7.295375317335128784e-02,-7.295375317335128784e-02,9.058805555105209351e-02,9.058805555105209351e-02,1.100686303595689842e-34,9.058805555105209351e-02,-1.100686303595689842e-34,-7.295375317335128784e-02,-7.295375317335128784e-02,9.058805555105209351e-02,-1.100686303595689842e-34,-1.100686303595689842e-34,-1.100686303595689842e-34,-7.295375317335128784e-02,-7.295375317335128784e-02,-7.295375317335128784e-02,-1.100686303595689842e-34,9.058805555105209351e-02,9.058805555105209351e-02,-1.100686303595689842e-34,1.100686303595689842e-34,1.100686303595689842e-34,-7.295375317335128784e-02,-7.295375317335128784e-02,1.100686303595689842e-34,1.100686303595689842e-34,9.058805555105209351e-02,-7.295375317335128784e-02,1.100686303595689842e-34,1.100686303595689842e-34
-1.100686303595689842e-34,-8.779022097587585449e-02,-1.100686303595689842e-34,-8.779022097587585449e-02,-1.100686303595689842e-34,-1.100686303595689842e-34,1.099223718047142029e-01,-8.779022097587585449e-02,1.100686303595689842e-34,-1.100686303595689842e-34,1.100686303595689842e-34,2.857205058250623436e-33,-8.779022097587585449e-02,-8.779022097587585449e-02,1.099223718047142029e-01,1.099223718047142029e-01,-1.100686303595689842e-34,-8.779022097587585449e-02,-1.100686303595689842e-34,1.099223718047142029e-01,-1.100686303595689842e-34,1.099223718047142029e-01,1.099223718047142029e-01,-8.779022097587585449e-02,-8.779022097587585449e-02,-8.779022097587585449e-02,-1.009748729001383389e-34,-8.779022097587585449e-02,1.099223718047142029e-01,1.100686303595689842e-34,1.099223718047142029e-01,-1.100686303595689842e-34,1.099223718047142029e-01,1.100686303595689842e-34,-8.779022097587585449e-02,-8.779022097587585449e-02,1.099223718047142029e-01,1.099223718047142029e-01,1.100686303595689842e-34,1.099223718047142029e-01,1.100686303595689842e-34,-8.779022097587585449e-02,-8.779022097587585449e-02,1.099223718047142029e-01,1.100686303595689842e-34,-1.100686303595689842e-34,-1.100686303595689842e-34,-8.779022097587585449e-02,-8.779022097587585449e-02,-8.779022097587585449e-02,-1.100686303595689842e-34,1.099223718047142029e-01,1.099223718047142029e-01,1.100686303595689842e-34,1.100686303595689842e-34,-1.100686303595689842e-34,-8.779022097587585449e-02,-8.779022097587585449e-02,1.100686303595689842e-34,1.100686303595689842e-34,1.099223718047142029e-01,-8.779022097587585449e-02,1.100686303595689842e-34,-1.100686303595689842e-34
