1.186382367246778946e-34
1.186382367246778946e-34
1.186382367246778946e-34
-1.186382367246778946e-34
1.186382367246778946e-34
-1.186382367246778946e-34
-1.186382367246778946e-34
1.181875094771385193e-01
-1.186382367246778946e-34
1.186382367246778946e-34
-1.186382367246778946e-34
1.186382367246778946e-34
-2.188035547733306885e-01
1.186382367246778946e-34
1.181875094771385193e-01
1.181875094771385193e-01
-2.188035547733306885e-01
-1.186382367246778946e-34
-1.186382367246778946e-34
1.181875094771385193e-01
1.186382367246778946e-34
-1.186382367246778946e-34
1.186382367246778946e-34
-1.186382367246778946e-34
1.186382367246778946e-34
1.186382367246778946e-34
1.186382367246778946e-34
-1.186382367246778946e-34
1.186382367246778946e-34
1.181875094771385193e-01
1.181875094771385193e-01
1.181875094771385193e-01
-1.186382367246778946e-34
1.186382367246778946e-34
1.181875094771385193e-01
1.181875094771385193e-01
1.181875094771385193e-01
1.186382367246778946e-34
-1.186382367246778946e-34
1.186382367246778946e-34
-2.188035547733306885e-01
1.186382367246778946e-34
1.186382367246778946e-34
-1.186382367246778946e-34
-1.186382367246778946e-34
-1.186382367246778946e-34
1.186382367246778946e-34
-1.186382367246778946e-34
1.186382367246778946e-34
1.181875094771385193e-01
1.181875094771385193e-01
1.181875094771385193e-01
-1.186382367246778946e-34
-1.186382367246778946e-34
1.181875094771385193e-01
1.181875094771385193e-01
1.186382367246778946e-34
-2.188035547733306885e-01
1.186382367246778946e-34
1.181875094771385193e-01
1.186382367246778946e-34
1.181875094771385193e-01
1.181875094771385193e-01
-2.188035547733306885e-01
