1.186382367246778946e-34,6.305682659149169922e-02,-7.020980119705200195e-02,-1.186382367246778946e-34,-7.020980119705200195e-02,-1.186382367246778946e-34,6.305682659149169922e-02,1.186382367246778946e-34,1.186382367246778946e-34,-7.020980119705200195e-02,1.186382367246778946e-34,6.305682659149169922e-02,-7.020980119705200195e-02,-7.020980119705200195e-02,6.305682659149169922e-02,1.666421314138354485e-34,1.186382367246778946e-34,1.186382367246778946e-34,-4.051737091097454838e-34,1.186382367246778946e-34,1.186382367246778946e-34,1.186382367246778946e-34,6.305682659149169922e-02,1.186382367246778946e-34,-7.020980119705200195e-02,-7.020980119705200195e-02,-7.020980119705200195e-02,-1.186382367246778946e-34,-7.020980119705200195e-02,6.305682659149169922e-02,6.305682659149169922e-02,-1.186382367246778946e-34,1.186382367246778946e-34,-7.020980119705200195e-02,-1.186382367246778946e-34,-4.048372238518226040e-34,-7.020980119705200195e-02,-7.020980119705200195e-02,-1.186382367246778946e-34,1.186382367246778946e-34,1.186382367246778946e-34,-7.020980119705200195e-02,-1.186382367246778946e-34,-1.186382367246778946e-34,-1.186382367246778946e-34,6.305682659149169922e-02,-1.186382367246778946e-34,1.186382367246778946e-34,1.186382367246778946e-34,1.186382367246778946e-34,-1.186382367246778946e-34,-7.020980119705200195e-02,2.361532794135954777e-34,6.305682659149169922e-02,1.186382367246778946e-34,-1.186382367246778946e-34,-7.020980119705200195e-02,-1.186382367246778946e-34,1.186382367246778946e-34,-7.020980119705200195e-02,-7.020980119705200195e-02,6.305682659149169922e-02,6.305682659149169922e-02,1.186382367246778946e-34
-1.186382367246778946e-34,6.041421741247177124e-02,-6.829108297824859619e-02,1.186382367246778946e-34,-6.829108297824859619e-02,1.186382367246778946e-34,6.041421741247177124e-02,-1.186382367246778946e-34,-1.186382367246778946e-34,-6.829108297824859619e-02,-1.186382367246778946e-34,6.041421741247177124e-02,-6.829108297824859619e-02,-6.829108297824859619e-02,6.041421741247177124e-02,1.671471692455193014e-34,1.186382367246778946e-34,-1.186382367246778946e-34,-4.097692032552394431e-34,1.186382367246778946e-34,-1.186382367246778946e-34,1.186382367246778946e-34,6.041421741247177124e-02,-1.186382367246778946e-34,-6.829108297824859619e-02,-6.829108297824859619e-02,-6.829108297824859619e-02,1.186382367246778946e-34,-6.829108297824859619e-02,6.041421741247177124e-02,6.041421741247177124e-02,1.186382367246778946e-34,-1.186382367246778946e-34,-6.829108297824859619e-02,1.186382367246778946e-34,-4.097596523636390120e-34,-6.829108297824859619e-02,-6.829108297824859619e-02,-1.186382367246778946e-34,-1.186382367246778946e-34,1.186382367246778946e-34,-6.829108297824859619e-02,1.186382367246778946e-34,-1.186382367246778946e-34,1.186382367246778946e-34,6.041421741247177124e-02,1.186382367246778946e-34,-1.186382367246778946e-34,-1.186382367246778946e-34,-1.186382367246778946e-34,1.186382367246778946e-34,-6.829108297824859619e-02,2.373437888680395968e-34,6.041421741247177124e-02,-1.186382367246778946e-34,1.186382367246778946e-34,-6.829108297824859619e-02,1.186382367246778946e-34,-1.186382367246778946e-34,-6.829108297824859619e-02,-6.829108297824859619e-02,6.041421741247177124e-02,6.041421741247177124e-02,-1.186382367246778946e-34
1.186382367246778946e-34,5.776655673980712891e-02,-6.644666194915771484e-02,1.186382367246778946e-34,-6.644666194915771484e-02,1.186382367246778946e-34,5.776655673980712891e-02,1.186382367246778946e-34,-1.186382367246778946e-34,-6.644666194915771484e-02,-1.186382367246778946e-34,5.776655673980712891e-02,-6.644666194915771484e-02,-6.644666194915771484e-02,5.776655673980712891e-02,1.673766776298551412e-34,-1.186382367246778946e-34,-1.186382367246778946e-34,-4.147862223280985819e-34,-1.186382367246778946e-34,1.186382367246778946e-34,-1.186382367246778946e-34,5.776655673980712891e-02,1.186382367246778946e-34,-6.644666194915771484e-02,-6.644666194915771484e-02,-6.644666194915771484e-02,-1.186382367246778946e-34,-6.644666194915771484e-02,5.776655673980712891e-02,5.776655673980712891e-02,1.186382367246778946e-34,-1.186382367246778946e-34,-6.644666194915771484e-02,-1.186382367246778946e-34,-4.149414702343536661e-34,-6.644666194915771484e-02,-6.644666194915771484e-02,1.186382367246778946e-34,1.186382367246778946e-34,-1.186382367246778946e-34,-6.644666194915771484e-02,-1.186382367246778946e-34,1.186382367246778946e-34,1.186382367246778946e-34,5.776655673980712891e-02,-1.186382367246778946e-34,1.186382367246778946e-34,-1.186382367246778946e-34,-1.186382367246778946e-34,-1.186382367246778946e-34,-6.644666194915771484e-02,2.384965539335627814e-34,5.776655673980712891e-02,-1.186382367246778946e-34,-1.186382367246778946e-34,-6.644666194915771484e-02,1.186382367246778946e-34,-1.186382367246778946e-34,-6.644666194915771484e-02,-6.644666194915771484e-02,5.776655673980712891e-02,5.776655673980712891e-02,1.186382367246778946e-34
-1.186382367246778946e-34,5.510752648115158081e-02,-6.454290449619293213e-02,-1.186382367246778946e-34,-6.454290449619293213e-02,-1.186382367246778946e-34,5.510752648115158081e-02,-1.186382367246778946e-34,1.186382367246778946e-34,-6.454290449619293213e-02,1.186382367246778946e-34,5.510752648115158081e-02,-6.454290449619293213e-02,-6.454290449619293213e-02,5.510752648115158081e-02,1.679091742748902335e-34,-1.186382367246778946e-34,1.186382367246778946e-34,-4.196372028239040727e-34,-1.186382367246778946e-34,-1.186382367246778946e-34,-1.186382367246778946e-34,5.510752648115158081e-02,-1.186382367246778946e-34,-6.454290449619293213e-02,-6.454290449619293213e-02,-6.454290449619293213e-02,1.186382367246778946e-34,-6.454290449619293213e-02,5.510752648115158081e-02,5.510752648115158081e-02,-1.186382367246778946e-34,1.186382367246778946e-34,-6.454290449619293213e-02,1.186382367246778946e-34,-4.194906333720359187e-34,-6.454290449619293213e-02,-6.454290449619293213e-02,1.186382367246778946e-34,-1.186382367246778946e-34,-1.186382367246778946e-34,-6.454290449619293213e-02,1.186382367246778946e-34,1.186382367246778946e-34,-1.186382367246778946e-34,5.510752648115158081e-02,1.186382367246778946e-34,-1.186382367246778946e-34,1.186382367246778946e-34,1.186382367246778946e-34,1.186382367246778946e-34,-6.454290449619293213e-02,2.396381839451768097e-34,5.510752648115158081e-02,1.186382367246778946e-34,1.186382367246778946e-34,-6.454290449619293213e-02,-1.186382367246778946e-34,1.186382367246778946e-34,-6.454290449619293213e-02,-6.454290449619293213e-02,5.510752648115158081e-02,5.510752648115158081e-02,-1.186382367246778946e-34
