7.722958922386169434e-02,1.100686303595689842e-34,1.100686303595689842e-34,1.100686303595689842e-34,7.722958922386169434e-02,-7.291667163372039795e-02,-7.291667163372039795e-02,-7.291667163372039795e-02,7.722958922386169434e-02,-1.100686303595689842e-34,-1.100686303595689842e-34,7.722958922386169434e-02,1.100686303595689842e-34,-7.291667163372039795e-02,-7.291667163372039795e-02,7.722958922386169434e-02,-7.291667163372039795e-02,-1.100686303595689842e-34,-1.100686303595689842e-34,-7.291667163372039795e-02,-7.291667163372039795e-02,1.100686303595689842e-34,7.722958922386169434e-02,-1.100686303595689842e-34,-7.291667163372039795e-02,-7.291667163372039795e-02,3.508318565298662850e-35,1.100686303595689842e-34,-1.100686303595689842e-34,1.100686303595689842e-34,-1.100686303595689842e-34,7.722958922386169434e-02,-1.100686303595689842e-34,7.722958922386169434e-02,7.722958922386169434e-02,7.722958922386169434e-02,7.722958922386169434e-02,-1.100686303595689842e-34,1.100686303595689842e-34,7.722958922386169434e-02,1.100686303595689842e-34,7.226801148269201980e-33,7.722958922386169434e-02,-7.291667163372039795e-02,-7.291667163372039795e-02,1.100686303595689842e-34,-7.291667163372039795e-02,-6.779055832177347498e-35,7.722958922386169434e-02,1.100686303595689842e-34,-7.291667163372039795e-02,-7.291667163372039795e-02,1.100686303595689842e-34,7.820668241144314269e-33,1.100686303595689842e-34,-1.100686303595689842e-34,-7.291667163372039795e-02,1.100686303595689842e-34,-7.291667163372039795e-02,-1.100686303595689842e-34,1.100686303595689842e-34,1.100686303595689842e-34,7.722958922386169434e-02,-7.291667163372039795e-02
7.722958922386169434e-02,1.100686303595689842e-34,1.100686303595689842e-34,-1.100686303595689842e-34,7.779450714588165283e-02,-7.293710112571716309e-02,-7.295673340559005737e-02,-7.293710112571716309e-02,7.779450714588165283e-02,-1.100686303595689842e-34,-1.100686303595689842e-34,7.780422270298004150e-02,-1.100686303595689842e-34,-7.295673340559005737e-02,-7.293710112571716309e-02,7.780422270298004150e-02,-7.293710112571716309e-02,1.100686303595689842e-34,-1.100686303595689842e-34,-7.295673340559005737e-02,-7.293710112571716309e-02,1.100686303595689842e-34,7.722958922386169434e-02,1.100686303595689842e-34,-7.295673340559005737e-02,-7.295673340559005737e-02,3.519412580220473682e-35,1.100686303595689842e-34,1.100686303595689842e-34,-1.100686303595689842e-34,-1.100686303595689842e-34,7.722958922386169434e-02,1.100686303595689842e-34,7.779450714588165283e-02,7.722958922386169434e-02,7.780630141496658325e-02,7.779450714588165283e-02,-1.100686303595689842e-34,-1.100686303595689842e-34,7.722958922386169434e-02,-1.100686303595689842e-34,6.202015458797901426e-33,7.780630141496658325e-02,-7.295673340559005737e-02,-7.295673340559005737e-02,1.100686303595689842e-34,-7.295673340559005737e-02,-6.780408683830124906e-35,7.779450714588165283e-02,-1.100686303595689842e-34,-7.293710112571716309e-02,-7.295673340559005737e-02,-1.100686303595689842e-34,6.567983584407342723e-33,-1.100686303595689842e-34,-1.100686303595689842e-34,-7.293710112571716309e-02,-1.100686303595689842e-34,-7.295673340559005737e-02,-1.100686303595689842e-34,-1.100686303595689842e-34,1.100686303595689842e-34,7.780630141496658325e-02,-7.293710112571716309e-02
8.946327120065689087e-02,1.100686303595689842e-34,-1.100686303595689842e-34,1.100686303595689842e-34,8.973562717437744141e-02,-7.531034946441650391e-02,-7.722958922386169434e-02,-7.531034946441650391e-02,8.973562717437744141e-02,1.100686303595689842e-34,1.100686303595689842e-34,8.973562717437744141e-02,1.100686303595689842e-34,-7.722958922386169434e-02,-7.531034946441650391e-02,8.973562717437744141e-02,-7.531034946441650391e-02,1.100686303595689842e-34,1.100686303595689842e-34,-7.722958922386169434e-02,-7.531034946441650391e-02,-1.100686303595689842e-34,8.946327120065689087e-02,1.100686303595689842e-34,-7.722958922386169434e-02,-7.722958922386169434e-02,3.641327071229461952e-35,-1.100686303595689842e-34,1.100686303595689842e-34,-1.100686303595689842e-34,1.100686303595689842e-34,8.946327120065689087e-02,-1.100686303595689842e-34,8.973562717437744141e-02,8.946327120065689087e-02,8.973562717437744141e-02,8.973562717437744141e-02,1.100686303595689842e-34,1.100686303595689842e-34,8.946327120065689087e-02,-1.100686303595689842e-34,4.390455237273920036e-33,8.973562717437744141e-02,-7.722958922386169434e-02,-7.722958922386169434e-02,1.100686303595689842e-34,-7.722958922386169434e-02,-6.785787948017579241e-35,8.973562717437744141e-02,1.100686303595689842e-34,-7.531034946441650391e-02,-7.722958922386169434e-02,-1.100686303595689842e-34,4.409494204995410142e-33,-1.100686303595689842e-34,1.100686303595689842e-34,-7.531034946441650391e-02,-1.100686303595689842e-34,-7.722958922386169434e-02,-1.100686303595689842e-34,1.100686303595689842e-34,1.100686303595689842e-34,8.973562717437744141e-02,-7.531034946441650391e-02
1.061030328273773193e-01,1.100686303595689842e-34,-1.100686303595689842e-34,-1.100686303595689842e-34,1.077159047126770020e-01,-1.016280055046081543e-01,-1.017124056816101074e-01,-1.016280055046081543e-01,1.077159047126770020e-01,1.100686303595689842e-34,1.100686303595689842e-34,1.077159047126770020e-01,-1.100686303595689842e-34,-1.017124056816101074e-01,-1.016280055046081543e-01,1.077159047126770020e-01,-1.016280055046081543e-01,-1.100686303595689842e-34,1.100686303595689842e-34,-1.017124056816101074e-01,-1.016280055046081543e-01,-1.100686303595689842e-34,1.061030328273773193e-01,-1.100686303595689842e-34,-1.017124056816101074e-01,-1.017124056816101074e-01,3.872888839862209324e-35,-1.100686303595689842e-34,-1.100686303595689842e-34,1.100686303595689842e-34,1.100686303595689842e-34,1.061030328273773193e-01,1.100686303595689842e-34,1.077159047126770020e-01,1.061030328273773193e-01,1.077159047126770020e-01,1.077159047126770020e-01,1.100686303595689842e-34,-1.100686303595689842e-34,1.061030328273773193e-01,1.100686303595689842e-34,1.958533749575230525e-33,1.077159047126770020e-01,-1.017124056816101074e-01,-1.017124056816101074e-01,1.100686303595689842e-34,-1.017124056816101074e-01,-6.790827994841099996e-35,1.077159047126770020e-01,-1.100686303595689842e-34,-1.016280055046081543e-01,-1.017124056816101074e-01,1.100686303595689842e-34,1.425503632142956463e-33,1.100686303595689842e-34,1.100686303595689842e-34,-1.016280055046081543e-01,1.100686303595689842e-34,-1.017124056816101074e-01,-1.100686303595689842e-34,-1.100686303595689842e-34,1.100686303595689842e-34,1.077159047126770020e-01,-1.016280055046081543e-01
