-1.100686303595689842e-34,-1.100686303595689842e-34,-1.100686303595689842e-34,-1.100686303595689842e-34,1.100686303595689842e-34,-1.100686303595689842e-34,1.100686303595689842e-34,7.531034946441650391e-02,-1.100686303595689842e-34,-1.100686303595689842e-34,1.100686303595689842e-34,1.100686303595689842e-34,-9.483297355473041534e-03,1.100686303595689842e-34,-1.100686303595689842e-34,-1.100686303595689842e-34,7.531034946441650391e-02,1.100686303595689842e-34,7.531034946441650391e-02,-1.100686303595689842e-34,-9.483790025115013123e-03,-9.483762085437774658e-03,-1.100686303595689842e-34,-1.100686303595689842e-34,7.531034946441650391e-02,-1.100686303595689842e-34,7.531034946441650391e-02,-1.100686303595689842e-34,-9.485019370913505554e-03,7.531034946441650391e-02,1.100686303595689842e-34,1.100686303595689842e-34,-9.482209570705890656e-03,-1.100686303595689842e-34,-1.100686303595689842e-34,-1.100686303595689842e-34,1.100686303595689842e-34,1.100686303595689842e-34,-1.100686303595689842e-34,1.100686303595689842e-34,-9.483790025115013123e-03,1.100686303595689842e-34,-1.100686303595689842e-34,1.100686303595689842e-34,-1.100686303595689842e-34,-9.479962289333343506e-03,-1.100686303595689842e-34,7.531034946441650391e-02,7.531034946441650391e-02,-1.100686303595689842e-34,-1.100686303595689842e-34,-1.100686303595689842e-34,-1.100686303595689842e-34,1.100686303595689842e-34,-9.483453817665576935e-03,-1.100686303595689842e-34,-9.479570202529430389e-03,-9.483453817665576935e-03,-1.100686303595689842e-34,-1.100686303595689842e-34,-1.100686303595689842e-34,1.100686303595689842e-34,-1.100686303595689842e-34,1.100686303595689842e-34
-1.100686303595689842e-34,-1.100686303595689842e-34,-1.100686303595689842e-34,1.100686303595689842e-34,-1.100686303595689842e-34,1.100686303595689842e-34,-1.100686303595689842e-34,-1.100686303595689842e-34,1.100686303595689842e-34,1.100686303595689842e-34,-1.100686303595689842e-34,-1.100686303595689842e-34,1.100686303595689842e-34,-1.100686303595689842e-34,-1.100686303595689842e-34,1.100686303595689842e-34,-1.100686303595689842e-34,1.100686303595689842e-34,-1.100686303595689842e-34,1.100686303595689842e-34,1.100686303595689842e-34,1.100686303595689842e-34,1.100686303595689842e-34,-1.100686303595689842e-34,-1.100686303595689842e-34,1.100686303595689842e-34,-1.100686303595689842e-34,-1.100686303595689842e-34,1.100686303595689842e-34,-1.100686303595689842e-34,-1.100686303595689842e-34,-1.100686303595689842e-34,1.100686303595689842e-34,-1.100686303595689842e-34,-1.100686303595689842e-34,-1.100686303595689842e-34,1.100686303595689842e-34,1.100686303595689842e-34,1.100686303595689842e-34,1.100686303595689842e-34,1.100686303595689842e-34,1.100686303595689842e-34,1.100686303595689842e-34,1.100686303595689842e-34,-1.100686303595689842e-34,1.100686303595689842e-34,1.100686303595689842e-34,-1.100686303595689842e-34,-1.100686303595689842e-34,1.100686303595689842e-34,-1.100686303595689842e-34,-1.100686303595689842e-34,1.100686303595689842e-34,-1.100686303595689842e-34,1.100686303595689842e-34,-1.100686303595689842e-34,1.100686303595689842e-34,1.100686303595689842e-34,-1.100686303595689842e-34,-1.100686303595689842e-34,-1.100686303595689842e-34,1.100686303595689842e-34,-1.100686303595689842e-34,-1.100686303595689842e-34
-1.100686303595689842e-34,-1.100686303595689842e-34,1.100686303595689842e-34,1.100686303595689842e-34,1.100686303595689842e-34,-1.100686303595689842e-34,1.100686303595689842e-34,1.100686303595689842e-34,-1.100686303595689842e-34,-1.100686303595689842e-34,-1.100686303595689842e-34,-1.100686303595689842e-34,1.100686303595689842e-34,-1.100686303595689842e-34,1.100686303595689842e-34,-1.100686303595689842e-34,1.100686303595689842e-34,-1.100686303595689842e-34,1.100686303595689842e-34,-1.100686303595689842e-34,1.100686303595689842e-34,1.100686303595689842e-34,-1.100686303595689842e-34,-1.100686303595689842e-34,1.100686303595689842e-34,-1.100686303595689842e-34,1.100686303595689842e-34,-1.100686303595689842e-34,-1.100686303595689842e-34,1.100686303595689842e-34,1.100686303595689842e-34,1.100686303595689842e-34,-1.100686303595689842e-34,-1.100686303595689842e-34,-1.100686303595689842e-34,1.100686303595689842e-34,1.100686303595689842e-34,1.100686303595689842e-34,1.100686303595689842e-34,-1.100686303595689842e-34,1.100686303595689842e-34,-1.100686303595689842e-34,-1.100686303595689842e-34,1.100686303595689842e-34,1.100686303595689842e-34,-1.100686303595689842e-34,-1.100686303595689842e-34,1.100686303595689842e-34,1.100686303595689842e-34,1.100686303595689842e-34,1.100686303595689842e-34,1.100686303595689842e-34,-1.100686303595689842e-34,-1.100686303595689842e-34,-1.100686303595689842e-34,-1.100686303595689842e-34,1.100686303595689842e-34,-1.100686303595689842e-34,-1.100686303595689842e-34,-1.100686303595689842e-34,-1.100686303595689842e-34,-1.100686303595689842e-34,-1.100686303595689842e-34,-1.100686303595689842e-34
1.100686303595689842e-34,-1.100686303595689842e-34,-1.100686303595689842e-34,1.100686303595689842e-34,1.100686303595689842e-34,1.100686303595689842e-34,1.100686303595689842e-34,1.100686303595689842e-34,1.100686303595689842e-34,-1.100686303595689842e-34,1.100686303595689842e-34,-1.100686303595689842e-34,-1.100686303595689842e-34,1.100686303595689842e-34,-1.100686303595689842e-34,-1.100686303595689842e-34,1.100686303595689842e-34,-1.100686303595689842e-34,1.100686303595689842e-34,1.100686303595689842e-34,1.100686303595689842e-34,-1.100686303595689842e-34,1.100686303595689842e-34,-1.100686303595689842e-34,1.100686303595689842e-34,1.100686303595689842e-34,1.100686303595689842e-34,1.100686303595689842e-34,-1.100686303595689842e-34,1.100686303595689842e-34,-1.100686303595689842e-34,-1.100686303595689842e-34,-1.100686303595689842e-34,-1.100686303595689842e-34,-1.100686303595689842e-34,1.100686303595689842e-34,-1.100686303595689842e-34,-1.100686303595689842e-34,1.100686303595689842e-34,-1.100686303595689842e-34,1.100686303595689842e-34,-1.100686303595689842e-34,-1.100686303595689842e-34,1.100686303595689842e-34,-1.100686303595689842e-34,-1.100686303595689842e-34,-1.100686303595689842e-34,1.100686303595689842e-34,-1.100686303595689842e-34,-1.100686303595689842e-34,-1.100686303595689842e-34,1.100686303595689842e-34,1.100686303595689842e-34,1.100686303595689842e-34,-1.100686303595689842e-34,1.100686303595689842e-34,-1.100686303595689842e-34,1.100686303595689842e-34,-1.100686303595689842e-34,1.100686303595689842e-34,-1.100686303595689842e-34,1.100686303595689842e-34,1.100686303595689842e-34,-1.100686303595689842e-34
-1.100686303595689842e-34,1.100686303595689842e-34,-1.100686303595689842e-34,-1.100686303595689842e-34,1.100686303595689842e-34,-1.100686303595689842e-34,-1.100686303595689842e-34,7.722958922386169434e-02,-1.100686303595689842e-34,1.100686303595689842e-34,-1.100686303595689842e-34,1.100686303595689842e-34,-9.713416919112205505e-03,-1.100686303595689842e-34,-1.100686303595689842e-34,-1.100686303595689842e-34,7.722958922386169434e-02,-1.100686303595689842e-34,7.722958922386169434e-02,-1.100686303595689842e-34,-9.713416919112205505e-03,-9.713416919112205505e-03,-1.100686303595689842e-34,1.100686303595689842e-34,7.722958922386169434e-02,-1.100686303595689842e-34,7.722958922386169434e-02,1.100686303595689842e-34,-9.713416919112205505e-03,7.722958922386169434e-02,-1.100686303595689842e-34,1.100686303595689842e-34,-9.713416919112205505e-03,1.100686303595689842e-34,1.100686303595689842e-34,-1.100686303595689842e-34,1.100686303595689842e-34,1.100686303595689842e-34,1.100686303595689842e-34,1.100686303595689842e-34,-9.713416919112205505e-03,1.100686303595689842e-34,-1.100686303595689842e-34,-1.100686303595689842e-34,-1.100686303595689842e-34,-9.713416919112205505e-03,1.100686303595689842e-34,7.722958922386169434e-02,7.722958922386169434e-02,-1.100686303595689842e-34,-1.100686303595689842e-34,1.100686303595689842e-34,-1.100686303595689842e-34,1.100686303595689842e-34,-9.713416919112205505e-03,-1.100686303595689842e-34,-9.713416919112205505e-03,-9.713416919112205505e-03,1.100686303595689842e-34,-1.100686303595689842e-34,-1.100686303595689842e-34,1.100686303595689842e-34,-1.100686303595689842e-34,-1.100686303595689842e-34
-1.100686303595689842e-34,-1.100686303595689842e-34,-1.100686303595689842e-34,1.100686303595689842e-34,-1.100686303595689842e-34,-1.100686303595689842e-34,-1.100686303595689842e-34,-1.424038130789995193e-02,-1.100686303595689842e-34,-1.100686303595689842e-34,-1.100686303595689842e-34,-1.100686303595689842e-34,7.291667163372039795e-02,-1.100686303595689842e-34,-1.100686303595689842e-34,-1.100686303595689842e-34,-1.412455644458532333e-02,-1.100686303595689842e-34,-1.418463885784149170e-02,-1.100686303595689842e-34,7.291667163372039795e-02,7.291667163372039795e-02,-1.100686303595689842e-34,1.100686303595689842e-34,-1.427150797098875046e-02,1.100686303595689842e-34,-1.415675785392522812e-02,-1.100686303595689842e-34,7.291667163372039795e-02,-1.427135802805423737e-02,-1.100686303595689842e-34,-1.100686303595689842e-34,7.291667163372039795e-02,-1.100686303595689842e-34,-1.100686303595689842e-34,-1.100686303595689842e-34,1.100686303595689842e-34,-1.100686303595689842e-34,1.100686303595689842e-34,-1.100686303595689842e-34,7.291667163372039795e-02,1.100686303595689842e-34,-1.100686303595689842e-34,-1.100686303595689842e-34,-1.100686303595689842e-34,7.291667163372039795e-02,1.100686303595689842e-34,-1.417189836502075195e-02,-1.415592338889837265e-02,-1.100686303595689842e-34,1.100686303595689842e-34,1.100686303595689842e-34,-1.100686303595689842e-34,-1.100686303595689842e-34,7.291667163372039795e-02,1.100686303595689842e-34,7.291667163372039795e-02,7.291667163372039795e-02,-1.100686303595689842e-34,-1.100686303595689842e-34,-1.100686303595689842e-34,1.100686303595689842e-34,-1.100686303595689842e-34,-1.100686303595689842e-34
-1.100686303595689842e-34,1.100686303595689842e-34,-1.100686303595689842e-34,1.100686303595689842e-34,1.100686303595689842e-34,-1.100686303595689842e-34,-1.100686303595689842e-34,-1.582768373191356659e-02,1.100686303595689842e-34,1.100686303595689842e-34,1.100686303595689842e-34,-1.100686303595689842e-34,7.291667163372039795e-02,-1.100686303595689842e-34,-1.100686303595689842e-34,-1.100686303595689842e-34,-1.562500372529029846e-02,-1.100686303595689842e-34,-1.582768373191356659e-02,-1.100686303595689842e-34,7.291667163372039795e-02,7.291667163372039795e-02,-1.100686303595689842e-34,1.100686303595689842e-34,-1.582768373191356659e-02,-1.100686303595689842e-34,-1.562799140810966492e-02,-1.100686303595689842e-34,7.291667163372039795e-02,-1.582768373191356659e-02,1.100686303595689842e-34,-1.100686303595689842e-34,7.291667163372039795e-02,1.100686303595689842e-34,-1.100686303595689842e-34,-1.100686303595689842e-34,-1.100686303595689842e-34,-1.100686303595689842e-34,-1.100686303595689842e-34,-1.100686303595689842e-34,7.291667163372039795e-02,1.100686303595689842e-34,1.100686303595689842e-34,-1.100686303595689842e-34,-1.100686303595689842e-34,7.291667163372039795e-02,-1.100686303595689842e-34,-1.562506146728992462e-02,-1.562799140810966492e-02,1.100686303595689842e-34,-1.100686303595689842e-34,-1.100686303595689842e-34,-1.100686303595689842e-34,-1.100686303595689842e-34,7.291667163372039795e-02,-1.100686303595689842e-34,7.291667163372039795e-02,7.291667163372039795e-02,1.100686303595689842e-34,-1.100686303595689842e-34,-1.100686303595689842e-34,-1.100686303595689842e-34,1.100686303595689842e-34,-1.100686303595689842e-34
-1.100686303595689842e-34,-1.100686303595689842e-34,-1.100686303595689842e-34,-1.100686303595689842e-34,-1.100686303595689842e-34,-1.100686303595689842e-34,-1.100686303595689842e-34,-1.424038130789995193e-02,-1.100686303595689842e-34,-1.100686303595689842e-34,-1.100686303595689842e-34,-1.100686303595689842e-34,7.291667163372039795e-02,-1.100686303595689842e-34,-1.100686303595689842e-34,-1.100686303595689842e-34,-1.412455644458532333e-02,-1.100686303595689842e-34,-1.418463885784149170e-02,-1.100686303595689842e-34,7.291667163372039795e-02,7.291667163372039795e-02,-1.100686303595689842e-34,-1.100686303595689842e-34,-1.427150797098875046e-02,-1.100686303595689842e-34,-1.415675785392522812e-02,-1.100686303595689842e-34,7.291667163372039795e-02,-1.427135802805423737e-02,1.100686303595689842e-34,-1.100686303595689842e-34,7.291667163372039795e-02,-1.100686303595689842e-34,-1.100686303595689842e-34,-1.100686303595689842e-34,1.100686303595689842e-34,-1.100686303595689842e-34,-1.100686303595689842e-34,-1.100686303595689842e-34,7.291667163372039795e-02,1.100686303595689842e-34,-1.100686303595689842e-34,-1.100686303595689842e-34,-1.100686303595689842e-34,7.291667163372039795e-02,-1.100686303595689842e-34,-1.417189836502075195e-02,-1.415592338889837265e-02,-1.100686303595689842e-34,-1.100686303595689842e-34,-1.100686303595689842e-34,-1.100686303595689842e-34,-1.100686303595689842e-34,7.291667163372039795e-02,1.100686303595689842e-34,7.291667163372039795e-02,7.291667163372039795e-02,1.100686303595689842e-34,-1.100686303595689842e-34,-1.100686303595689842e-34,1.100686303595689842e-34,1.100686303595689842e-34,-1.100686303595689842e-34
1.100686303595689842e-34,-1.100686303595689842e-34,-1.100686303595689842e-34,-1.100686303595689842e-34,-1.100686303595689842e-34,-1.100686303595689842e-34,-1.100686303595689842e-34,7.722958922386169434e-02,1.100686303595689842e-34,-1.100686303595689842e-34,-1.100686303595689842e-34,-1.100686303595689842e-34,-9.713416919112205505e-03,-1.100686303595689842e-34,-1.100686303595689842e-34,-1.100686303595689842e-34,7.722958922386169434e-02,-1.100686303595689842e-34,7.722958922386169434e-02,-1.100686303595689842e-34,-9.713416919112205505e-03,-9.713416919112205505e-03,-1.100686303595689842e-34,1.100686303595689842e-34,7.722958922386169434e-02,-1.100686303595689842e-34,7.722958922386169434e-02,-1.100686303595689842e-34,-9.713416919112205505e-03,7.722958922386169434e-02,-1.100686303595689842e-34,1.100686303595689842e-34,-9.713416919112205505e-03,-1.100686303595689842e-34,1.100686303595689842e-34,1.100686303595689842e-34,-1.100686303595689842e-34,-1.100686303595689842e-34,-1.100686303595689842e-34,-1.100686303595689842e-34,-9.713416919112205505e-03,-1.100686303595689842e-34,-1.100686303595689842e-34,-1.100686303595689842e-34,-1.100686303595689842e-34,-9.713416919112205505e-03,1.100686303595689842e-34,7.722958922386169434e-02,7.722958922386169434e-02,1.100686303595689842e-34,-1.100686303595689842e-34,-1.100686303595689842e-34,-1.100686303595689842e-34,-1.100686303595689842e-34,-9.713416919112205505e-03,-1.100686303595689842e-34,-9.713416919112205505e-03,-9.713416919112205505e-03,-1.100686303595689842e-34,-1.100686303595689842e-34,-1.100686303595689842e-34,-1.100686303595689842e-34,-1.100686303595689842e-34,-1.100686303595689842e-34
1.100686303595689842e-34,1.100686303595689842e-34,1.100686303595689842e-34,1.100686303595689842e-34,-1.100686303595689842e-34,1.100686303595689842e-34,1.100686303595689842e-34,-4.812639750131380429e-35,-1.100686303595689842e-34,-1.100686303595689842e-34,1.100686303595689842e-34,-1.100686303595689842e-34,1.100686303595689842e-34,-1.100686303595689842e-34,1.100686303595689842e-34,-1.100686303595689842e-34,-1.100686303595689842e-34,-1.100686303595689842e-34,1.100686303595689842e-34,1.100686303595689842e-34,1.100686303595689842e-34,1.100686303595689842e-34,-1.100686303595689842e-34,-1.100686303595689842e-34,-1.100686303595689842e-34,-1.100686303595689842e-34,-1.100686303595689842e-34,-1.100686303595689842e-34,-1.100686303595689842e-34,-1.100686303595689842e-34,1.100686303595689842e-34,-1.100686303595689842e-34,1.100686303595689842e-34,-1.100686303595689842e-34,1.100686303595689842e-34,1.100686303595689842e-34,1.100686303595689842e-34,1.100686303595689842e-34,1.100686303595689842e-34,1.100686303595689842e-34,1.100686303595689842e-34,1.100686303595689842e-34,1.100686303595689842e-34,1.100686303595689842e-34,-1.100686303595689842e-34,1.100686303595689842e-34,1.100686303595689842e-34,1.100686303595689842e-34,-1.100686303595689842e-34,-1.100686303595689842e-34,1.100686303595689842e-34,1.100686303595689842e-34,1.100686303595689842e-34,-1.100686303595689842e-34,-1.100686303595689842e-34,1.100686303595689842e-34,-1.100686303595689842e-34,-1.100686303595689842e-34,-1.100686303595689842e-34,1.100686303595689842e-34,1.100686303595689842e-34,1.100686303595689842e-34,-1.100686303595689842e-34,1.100686303595689842e-34
1.100686303595689842e-34,1.100686303595689842e-34,1.100686303595689842e-34,1.100686303595689842e-34,1.100686303595689842e-34,-1.100686303595689842e-34,1.100686303595689842e-34,-1.100686303595689842e-34,1.100686303595689842e-34,-1.100686303595689842e-34,-1.100686303595689842e-34,-1.100686303595689842e-34,1.100686303595689842e-34,1.100686303595689842e-34,-1.100686303595689842e-34,1.100686303595689842e-34,1.100686303595689842e-34,-1.100686303595689842e-34,1.100686303595689842e-34,-1.100686303595689842e-34,1.100686303595689842e-34,1.100686303595689842e-34,1.100686303595689842e-34,1.100686303595689842e-34,-1.100686303595689842e-34,-1.100686303595689842e-34,1.100686303595689842e-34,1.100686303595689842e-34,-1.100686303595689842e-34,1.100686303595689842e-34,-1.100686303595689842e-34,1.100686303595689842e-34,-1.100686303595689842e-34,1.100686303595689842e-34,1.100686303595689842e-34,-1.100686303595689842e-34,1.100686303595689842e-34,1.100686303595689842e-34,-1.100686303595689842e-34,1.100686303595689842e-34,1.100686303595689842e-34,-1.100686303595689842e-34,1.100686303595689842e-34,1.100686303595689842e-34,-1.100686303595689842e-34,-1.100686303595689842e-34,-1.100686303595689842e-34,-1.100686303595689842e-34,1.100686303595689842e-34,-1.100686303595689842e-34,1.100686303595689842e-34,1.100686303595689842e-34,-1.100686303595689842e-34,-1.100686303595689842e-34,1.100686303595689842e-34,-1.100686303595689842e-34,1.100686303595689842e-34,1.100686303595689842e-34,-1.100686303595689842e-34,-1.100686303595689842e-34,1.100686303595689842e-34,-1.100686303595689842e-34,1.100686303595689842e-34,1.100686303595689842e-34
1.100686303595689842e-34,-1.100686303595689842e-34,-1.100686303595689842e-34,1.100686303595689842e-34,1.100686303595689842e-34,1.100686303595689842e-34,-1.100686303595689842e-34,7.722958922386169434e-02,1.100686303595689842e-34,-1.100686303595689842e-34,1.100686303595689842e-34,-1.100686303595689842e-34,-9.713416919112205505e-03,1.100686303595689842e-34,-1.100686303595689842e-34,1.100686303595689842e-34,7.722958922386169434e-02,1.100686303595689842e-34,7.722958922386169434e-02,-1.100686303595689842e-34,-9.713416919112205505e-03,-9.713416919112205505e-03,-1.100686303595689842e-34,-1.100686303595689842e-34,7.722958922386169434e-02,1.100686303595689842e-34,7.722958922386169434e-02,-1.100686303595689842e-34,-9.713416919112205505e-03,7.722958922386169434e-02,1.100686303595689842e-34,-1.100686303595689842e-34,-9.713416919112205505e-03,-1.100686303595689842e-34,1.100686303595689842e-34,1.100686303595689842e-34,-1.100686303595689842e-34,-1.100686303595689842e-34,-1.100686303595689842e-34,-1.100686303595689842e-34,-9.713416919112205505e-03,1.100686303595689842e-34,-1.100686303595689842e-34,-1.100686303595689842e-34,-1.100686303595689842e-34,-9.713416919112205505e-03,-1.100686303595689842e-34,7.722958922386169434e-02,7.722958922386169434e-02,-1.100686303595689842e-34,1.100686303595689842e-34,1.100686303595689842e-34,-1.100686303595689842e-34,1.100686303595689842e-34,-9.714726358652114868e-03,-1.100686303595689842e-34,-9.713416919112205505e-03,-9.713416919112205505e-03,1.100686303595689842e-34,-1.100686303595689842e-34,-1.100686303595689842e-34,1.100686303595689842e-34,-1.100686303595689842e-34,1.100686303595689842e-34
-1.100686303595689842e-34,1.100686303595689842e-34,-1.100686303595689842e-34,1.100686303595689842e-34,1.100686303595689842e-34,1.100686303595689842e-34,-1.100686303595689842e-34,-1.100686303595689842e-34,1.100686303595689842e-34,9.628230863520538301e-35,-1.100686303595689842e-34,-1.100686303595689842e-34,-1.100686303595689842e-34,1.100686303595689842e-34,-1.100686303595689842e-34,-1.100686303595689842e-34,-1.100686303595689842e-34,1.100686303595689842e-34,1.100686303595689842e-34,1.100686303595689842e-34,1.100686303595689842e-34,-1.100686303595689842e-34,-1.100686303595689842e-34,-1.100686303595689842e-34,-1.100686303595689842e-34,-1.100686303595689842e-34,-1.100686303595689842e-34,1.100686303595689842e-34,-1.100686303595689842e-34,-1.100686303595689842e-34,1.100686303595689842e-34,1.100686303595689842e-34,1.100686303595689842e-34,-1.100686303595689842e-34,1.100686303595689842e-34,1.100686303595689842e-34,1.100686303595689842e-34,1.100686303595689842e-34,-1.100686303595689842e-34,1.100686303595689842e-34,-1.100686303595689842e-34,1.100686303595689842e-34,1.100686303595689842e-34,-1.100686303595689842e-34,-1.100686303595689842e-34,1.100686303595689842e-34,1.100686303595689842e-34,-1.100686303595689842e-34,-1.100686303595689842e-34,1.100686303595689842e-34,-2.306107116249574495e-35,1.100686303595689842e-34,1.100686303595689842e-34,-1.100686303595689842e-34,1.100686303595689842e-34,1.100686303595689842e-34,1.100686303595689842e-34,-1.100686303595689842e-34,1.100686303595689842e-34,-1.100686303595689842e-34,-1.100686303595689842e-34,1.100686303595689842e-34,-1.100686303595689842e-34,1.100686303595689842e-34
-1.100686303595689842e-34,-1.100686303595689842e-34,-1.100686303595689842e-34,1.100686303595689842e-34,1.100686303595689842e-34,-1.100686303595689842e-34,-1.100686303595689842e-34,-1.582768373191356659e-02,-1.100686303595689842e-34,-1.100686303595689842e-34,1.100686303595689842e-34,-1.100686303595689842e-34,7.291667163372039795e-02,-1.100686303595689842e-34,-1.100686303595689842e-34,-1.100686303595689842e-34,-1.562500372529029846e-02,-1.100686303595689842e-34,-1.582768373191356659e-02,-1.100686303595689842e-34,7.291667163372039795e-02,7.291667163372039795e-02,-1.100686303595689842e-34,-1.100686303595689842e-34,-1.582768373191356659e-02,1.100686303595689842e-34,-1.562799140810966492e-02,-1.100686303595689842e-34,7.291667163372039795e-02,-1.582768373191356659e-02,1.100686303595689842e-34,-1.100686303595689842e-34,7.291667163372039795e-02,-1.100686303595689842e-34,-1.100686303595689842e-34,-1.100686303595689842e-34,1.100686303595689842e-34,-1.100686303595689842e-34,1.100686303595689842e-34,-1.100686303595689842e-34,7.291667163372039795e-02,-1.100686303595689842e-34,1.100686303595689842e-34,1.100686303595689842e-34,-1.100686303595689842e-34,7.291667163372039795e-02,-1.100686303595689842e-34,-1.562506146728992462e-02,-1.562799140810966492e-02,1.100686303595689842e-34,1.100686303595689842e-34,1.100686303595689842e-34,1.100686303595689842e-34,-1.100686303595689842e-34,7.291667163372039795e-02,-1.100686303595689842e-34,7.291667163372039795e-02,7.291667163372039795e-02,-1.100686303595689842e-34,-1.100686303595689842e-34,-1.100686303595689842e-34,-1.100686303595689842e-34,-1.100686303595689842e-34,1.100686303595689842e-34
-1.100686303595689842e-34,-1.100686303595689842e-34,-1.100686303595689842e-34,-1.100686303595689842e-34,1.100686303595689842e-34,-1.100686303595689842e-34,-1.100686303595689842e-34,-1.424027141183614731e-02,-1.100686303595689842e-34,1.100686303595689842e-34,-1.100686303595689842e-34,-1.100686303595689842e-34,7.291667163372039795e-02,-1.100686303595689842e-34,-1.100686303595689842e-34,-1.100686303595689842e-34,-1.412435062229633331e-02,-1.100686303595689842e-34,-1.418457645922899246e-02,-1.100686303595689842e-34,7.291667163372039795e-02,7.291667163372039795e-02,-1.100686303595689842e-34,-1.100686303595689842e-34,-1.427120435982942581e-02,1.100686303595689842e-34,-1.415675785392522812e-02,-1.100686303595689842e-34,7.291667163372039795e-02,-1.427123416215181351e-02,-1.100686303595689842e-34,-1.100686303595689842e-34,7.291667163372039795e-02,-1.100686303595689842e-34,-1.100686303595689842e-34,-1.100686303595689842e-34,-1.100686303595689842e-34,-1.100686303595689842e-34,1.100686303595689842e-34,-1.100686303595689842e-34,7.291667163372039795e-02,-1.100686303595689842e-34,-1.100686303595689842e-34,-1.100686303595689842e-34,-1.100686303595689842e-34,7.291667163372039795e-02,-1.100686303595689842e-34,-1.417188718914985657e-02,-1.415592338889837265e-02,-1.100686303595689842e-34,1.100686303595689842e-34,-1.100686303595689842e-34,-1.100686303595689842e-34,-1.100686303595689842e-34,7.291667163372039795e-02,1.100686303595689842e-34,7.291667163372039795e-02,7.291667163372039795e-02,1.100686303595689842e-34,-1.100686303595689842e-34,-1.100686303595689842e-34,1.100686303595689842e-34,-1.100686303595689842e-34,-1.100686303595689842e-34
-1.100686303595689842e-34,-1.100686303595689842e-34,1.100686303595689842e-34,-1.100686303595689842e-34,-1.100686303595689842e-34,-1.100686303595689842e-34,1.100686303595689842e-34,7.722958922386169434e-02,-1.100686303595689842e-34,-1.100686303595689842e-34,1.100686303595689842e-34,-1.100686303595689842e-34,-9.713416919112205505e-03,-1.100686303595689842e-34,-1.100686303595689842e-34,-1.100686303595689842e-34,7.722958922386169434e-02,-1.100686303595689842e-34,7.722958922386169434e-02,-1.100686303595689842e-34,-9.713416919112205505e-03,-9.713416919112205505e-03,-1.100686303595689842e-34,-1.100686303595689842e-34,7.722958922386169434e-02,-1.100686303595689842e-34,7.722958922386169434e-02,-1.100686303595689842e-34,-9.713416919112205505e-03,7.722958922386169434e-02,-1.100686303595689842e-34,-1.100686303595689842e-34,-9.713416919112205505e-03,-1.100686303595689842e-34,1.100686303595689842e-34,-1.100686303595689842e-34,-1.100686303595689842e-34,-1.100686303595689842e-34,1.100686303595689842e-34,-1.100686303595689842e-34,-9.713416919112205505e-03,-1.100686303595689842e-34,-1.100686303595689842e-34,-1.100686303595689842e-34,-1.100686303595689842e-34,-9.713416919112205505e-03,1.100686303595689842e-34,7.722958922386169434e-02,7.722958922386169434e-02,1.100686303595689842e-34,-1.100686303595689842e-34,-1.100686303595689842e-34,-1.100686303595689842e-34,-1.100686303595689842e-34,-9.714766405522823334e-03,-1.100686303595689842e-34,-9.713416919112205505e-03,-9.713416919112205505e-03,-1.100686303595689842e-34,-1.100686303595689842e-34,-1.100686303595689842e-34,-1.100686303595689842e-34,-1.100686303595689842e-34,-1.100686303595689842e-34
-1.100686303595689842e-34,-1.100686303595689842e-34,-1.100686303595689842e-34,1.100686303595689842e-34,-1.100686303595689842e-34,-1.100686303595689842e-34,-1.100686303595689842e-34,-1.424038130789995193e-02,1.100686303595689842e-34,1.100686303595689842e-34,-1.100686303595689842e-34,-1.100686303595689842e-34,7.291667163372039795e-02,-1.100686303595689842e-34,-1.100686303595689842e-34,-1.100686303595689842e-34,-1.412455644458532333e-02,-1.100686303595689842e-34,-1.418463885784149170e-02,-1.100686303595689842e-34,7.291667163372039795e-02,7.291667163372039795e-02,-1.100686303595689842e-34,1.100686303595689842e-34,-1.427150797098875046e-02,-1.100686303595689842e-34,-1.415675785392522812e-02,-1.100686303595689842e-34,7.291667163372039795e-02,-1.427135989069938660e-02,1.100686303595689842e-34,-1.100686303595689842e-34,7.291667163372039795e-02,-1.100686303595689842e-34,-1.100686303595689842e-34,-1.100686303595689842e-34,-1.100686303595689842e-34,-1.100686303595689842e-34,-1.100686303595689842e-34,-1.100686303595689842e-34,7.291667163372039795e-02,-1.100686303595689842e-34,-1.100686303595689842e-34,-1.100686303595689842e-34,-1.100686303595689842e-34,7.291667163372039795e-02,-1.100686303595689842e-34,-1.417189836502075195e-02,-1.415592338889837265e-02,-1.100686303595689842e-34,1.100686303595689842e-34,-1.100686303595689842e-34,-1.100686303595689842e-34,-1.100686303595689842e-34,7.291667163372039795e-02,1.100686303595689842e-34,7.291667163372039795e-02,7.291667163372039795e-02,-1.100686303595689842e-34,-1.100686303595689842e-34,-1.100686303595689842e-34,1.100686303595689842e-34,-1.100686303595689842e-34,-1.100686303595689842e-34
-1.100686303595689842e-34,1.100686303595689842e-34,1.100686303595689842e-34,-1.100686303595689842e-34,-1.100686303595689842e-34,-1.100686303595689842e-34,1.100686303595689842e-34,-1.100686303595689842e-34,1.100686303595689842e-34,-1.100686303595689842e-34,1.100686303595689842e-34,1.100686303595689842e-34,1.100686303595689842e-34,1.100686303595689842e-34,1.100686303595689842e-34,1.100686303595689842e-34,1.100686303595689842e-34,-1.100686303595689842e-34,-1.100686303595689842e-34,-1.100686303595689842e-34,-1.100686303595689842e-34,1.100686303595689842e-34,1.100686303595689842e-34,-1.100686303595689842e-34,1.100686303595689842e-34,-1.100686303595689842e-34,-1.100686303595689842e-34,1.100686303595689842e-34,-1.100686303595689842e-34,-1.100686303595689842e-34,1.100686303595689842e-34,1.100686303595689842e-34,1.100686303595689842e-34,1.100686303595689842e-34,1.100686303595689842e-34,-1.100686303595689842e-34,-1.100686303595689842e-34,1.100686303595689842e-34,1.100686303595689842e-34,1.100686303595689842e-34,1.100686303595689842e-34,-1.100686303595689842e-34,1.100686303595689842e-34,1.100686303595689842e-34,-1.100686303595689842e-34,-1.100686303595689842e-34,1.100686303595689842e-34,-1.100686303595689842e-34,1.100686303595689842e-34,-1.100686303595689842e-34,-1.100686303595689842e-34,-1.100686303595689842e-34,-1.100686303595689842e-34,-1.100686303595689842e-34,-1.100686303595689842e-34,1.100686303595689842e-34,1.100686303595689842e-34,-1.100686303595689842e-34,1.100686303595689842e-34,-1.100686303595689842e-34,-1.100686303595689842e-34,-1.100686303595689842e-34,1.100686303595689842e-34,1.100686303595689842e-34
-1.100686303595689842e-34,-1.100686303595689842e-34,-1.100686303595689842e-34,-1.100686303595689842e-34,1.100686303595689842e-34,1.100686303595689842e-34,1.100686303595689842e-34,-1.100686303595689842e-34,1.100686303595689842e-34,-1.100686303595689842e-34,-1.100686303595689842e-34,1.100686303595689842e-34,-1.100686303595689842e-34,-1.100686303595689842e-34,-1.100686303595689842e-34,1.100686303595689842e-34,-1.100686303595689842e-34,-1.100686303595689842e-34,-1.100686303595689842e-34,1.100686303595689842e-34,-1.100686303595689842e-34,-1.100686303595689842e-34,1.100686303595689842e-34,-1.100686303595689842e-34,-1.100686303595689842e-34,1.100686303595689842e-34,-1.100686303595689842e-34,1.100686303595689842e-34,-1.100686303595689842e-34,-1.100686303595689842e-34,1.100686303595689842e-34,1.100686303595689842e-34,-1.100686303595689842e-34,-1.100686303595689842e-34,-1.100686303595689842e-34,-1.100686303595689842e-34,1.100686303595689842e-34,-1.100686303595689842e-34,-1.100686303595689842e-34,-1.100686303595689842e-34,-1.100686303595689842e-34,-1.100686303595689842e-34,-1.100686303595689842e-34,1.100686303595689842e-34,-1.100686303595689842e-34,-1.100686303595689842e-34,1.100686303595689842e-34,-1.100686303595689842e-34,-1.100686303595689842e-34,1.100686303595689842e-34,1.100686303595689842e-34,-1.100686303595689842e-34,-1.100686303595689842e-34,-1.100686303595689842e-34,-1.100686303595689842e-34,1.100686303595689842e-34,-1.100686303595689842e-34,-1.100686303595689842e-34,-1.100686303595689842e-34,-1.100686303595689842e-34,-1.100686303595689842e-34,-1.100686303595689842e-34,-1.100686303595689842e-34,-1.100686303595689842e-34
1.100686303595689842e-34,1.100686303595689842e-34,-1.100686303595689842e-34,-1.100686303595689842e-34,1.100686303595689842e-34,1.100686303595689842e-34,1.100686303595689842e-34,-1.582768373191356659e-02,1.100686303595689842e-34,1.100686303595689842e-34,1.100686303595689842e-34,1.100686303595689842e-34,7.291667163372039795e-02,1.100686303595689842e-34,1.100686303595689842e-34,1.100686303595689842e-34,-1.562500372529029846e-02,1.100686303595689842e-34,-1.582768373191356659e-02,1.100686303595689842e-34,7.291667163372039795e-02,7.291667163372039795e-02,1.100686303595689842e-34,-1.100686303595689842e-34,-1.582768373191356659e-02,-1.100686303595689842e-34,-1.562799140810966492e-02,-1.100686303595689842e-34,7.291667163372039795e-02,-1.582768373191356659e-02,-1.100686303595689842e-34,1.100686303595689842e-34,7.291667163372039795e-02,-1.100686303595689842e-34,1.100686303595689842e-34,1.100686303595689842e-34,1.100686303595689842e-34,-1.100686303595689842e-34,-1.100686303595689842e-34,1.100686303595689842e-34,7.291667163372039795e-02,1.100686303595689842e-34,-1.100686303595689842e-34,-1.100686303595689842e-34,1.100686303595689842e-34,7.291667163372039795e-02,1.100686303595689842e-34,-1.562506146728992462e-02,-1.562799140810966492e-02,-1.100686303595689842e-34,1.100686303595689842e-34,1.100686303595689842e-34,-1.100686303595689842e-34,-1.100686303595689842e-34,7.291667163372039795e-02,1.100686303595689842e-34,7.291667163372039795e-02,7.291667163372039795e-02,1.100686303595689842e-34,1.100686303595689842e-34,-1.100686303595689842e-34,1.100686303595689842e-34,-1.100686303595689842e-34,1.100686303595689842e-34
-1.100686303595689842e-34,-1.100686303595689842e-34,-1.100686303595689842e-34,1.100686303595689842e-34,-1.100686303595689842e-34,-1.100686303595689842e-34,1.100686303595689842e-34,-1.424038130789995193e-02,-1.100686303595689842e-34,1.100686303595689842e-34,-1.100686303595689842e-34,-1.100686303595689842e-34,7.291667163372039795e-02,-1.100686303595689842e-34,-1.100686303595689842e-34,-1.100686303595689842e-34,-1.412455644458532333e-02,-1.100686303595689842e-34,-1.418463885784149170e-02,-1.100686303595689842e-34,7.291667163372039795e-02,7.291667163372039795e-02,-1.100686303595689842e-34,-1.100686303595689842e-34,-1.427150610834360123e-02,-1.100686303595689842e-34,-1.415675785392522812e-02,-1.100686303595689842e-34,7.291667163372039795e-02,-1.427139900624752045e-02,-1.100686303595689842e-34,-1.100686303595689842e-34,7.291667163372039795e-02,-1.100686303595689842e-34,-1.100686303595689842e-34,-1.100686303595689842e-34,1.100686303595689842e-34,-1.100686303595689842e-34,-1.100686303595689842e-34,-1.100686303595689842e-34,7.291667163372039795e-02,-1.100686303595689842e-34,-1.100686303595689842e-34,-1.100686303595689842e-34,-1.100686303595689842e-34,7.291667163372039795e-02,-1.100686303595689842e-34,-1.417189836502075195e-02,-1.415592338889837265e-02,-1.100686303595689842e-34,-1.100686303595689842e-34,-1.100686303595689842e-34,-1.100686303595689842e-34,-1.100686303595689842e-34,7.291667163372039795e-02,1.100686303595689842e-34,7.291667163372039795e-02,7.291667163372039795e-02,-1.100686303595689842e-34,-1.100686303595689842e-34,-1.100686303595689842e-34,-1.100686303595689842e-34,-1.100686303595689842e-34,-1.100686303595689842e-34
-1.100686303595689842e-34,1.100686303595689842e-34,-1.100686303595689842e-34,1.100686303595689842e-34,-1.100686303595689842e-34,-1.100686303595689842e-34,-1.100686303595689842e-34,-1.100686303595689842e-34,1.100686303595689842e-34,-1.100686303595689842e-34,-1.100686303595689842e-34,-1.100686303595689842e-34,1.100686303595689842e-34,1.100686303595689842e-34,1.100686303595689842e-34,1.100686303595689842e-34,-1.100686303595689842e-34,-1.100686303595689842e-34,-1.100686303595689842e-34,1.100686303595689842e-34,1.100686303595689842e-34,1.100686303595689842e-34,1.100686303595689842e-34,1.100686303595689842e-34,-1.100686303595689842e-34,1.100686303595689842e-34,-1.100686303595689842e-34,1.100686303595689842e-34,-1.100686303595689842e-34,-1.100686303595689842e-34,1.100686303595689842e-34,-1.100686303595689842e-34,1.100686303595689842e-34,-1.100686303595689842e-34,-1.100686303595689842e-34,-1.100686303595689842e-34,1.100686303595689842e-34,1.100686303595689842e-34,-1.100686303595689842e-34,-1.100686303595689842e-34,1.100686303595689842e-34,-1.100686303595689842e-34,-1.100686303595689842e-34,-1.100686303595689842e-34,-1.100686303595689842e-34,1.100686303595689842e-34,1.100686303595689842e-34,-1.100686303595689842e-34,-1.100686303595689842e-34,-1.100686303595689842e-34,-1.100686303595689842e-34,1.100686303595689842e-34,-1.100686303595689842e-34,-1.100686303595689842e-34,-1.100686303595689842e-34,-1.100686303595689842e-34,-1.100686303595689842e-34,-1.100686303595689842e-34,-1.100686303595689842e-34,1.100686303595689842e-34,-1.100686303595689842e-34,1.100686303595689842e-34,1.100686303595689842e-34,1.100686303595689842e-34
1.100686303595689842e-34,1.100686303595689842e-34,-1.100686303595689842e-34,-1.100686303595689842e-34,-1.100686303595689842e-34,-1.100686303595689842e-34,1.100686303595689842e-34,7.531034946441650391e-02,-1.100686303595689842e-34,1.100686303595689842e-34,1.100686303595689842e-34,1.100686303595689842e-34,-9.483297355473041534e-03,-1.100686303595689842e-34,-1.100686303595689842e-34,-1.100686303595689842e-34,7.531034946441650391e-02,-1.100686303595689842e-34,7.531034946441650391e-02,-1.100686303595689842e-34,-9.483790025115013123e-03,-9.483762085437774658e-03,1.100686303595689842e-34,1.100686303595689842e-34,7.531034946441650391e-02,-1.100686303595689842e-34,7.531034946441650391e-02,-1.100686303595689842e-34,-9.485019370913505554e-03,7.531034946441650391e-02,-1.100686303595689842e-34,-1.100686303595689842e-34,-9.482209570705890656e-03,-1.100686303595689842e-34,1.100686303595689842e-34,1.100686303595689842e-34,1.100686303595689842e-34,1.100686303595689842e-34,1.100686303595689842e-34,-1.100686303595689842e-34,-9.483790025115013123e-03,1.100686303595689842e-34,-1.100686303595689842e-34,1.100686303595689842e-34,-1.100686303595689842e-34,-9.479962289333343506e-03,1.100686303595689842e-34,7.531034946441650391e-02,7.531034946441650391e-02,-1.100686303595689842e-34,-1.100686303595689842e-34,1.100686303595689842e-34,1.100686303595689842e-34,-1.100686303595689842e-34,-9.483453817665576935e-03,1.100686303595689842e-34,-9.479570202529430389e-03,-9.483453817665576935e-03,-1.100686303595689842e-34,-1.100686303595689842e-34,1.100686303595689842e-34,-1.100686303595689842e-34,-1.100686303595689842e-34,-1.100686303595689842e-34
1.100686303595689842e-34,-1.100686303595689842e-34,-1.100686303595689842e-34,-1.100686303595689842e-34,-1.100686303595689842e-34,1.100686303595689842e-34,1.100686303595689842e-34,1.100686303595689842e-34,-1.100686303595689842e-34,1.100686303595689842e-34,1.100686303595689842e-34,1.100686303595689842e-34,-1.100686303595689842e-34,1.100686303595689842e-34,1.100686303595689842e-34,1.100686303595689842e-34,1.100686303595689842e-34,-1.100686303595689842e-34,1.100686303595689842e-34,1.100686303595689842e-34,-1.100686303595689842e-34,1.100686303595689842e-34,-1.100686303595689842e-34,-1.100686303595689842e-34,1.100686303595689842e-34,1.100686303595689842e-34,1.100686303595689842e-34,1.100686303595689842e-34,1.100686303595689842e-34,1.100686303595689842e-34,-1.100686303595689842e-34,-1.100686303595689842e-34,-1.100686303595689842e-34,-1.100686303595689842e-34,-1.100686303595689842e-34,-1.100686303595689842e-34,-1.100686303595689842e-34,1.100686303595689842e-34,1.100686303595689842e-34,-1.100686303595689842e-34,1.100686303595689842e-34,1.100686303595689842e-34,-1.100686303595689842e-34,-1.100686303595689842e-34,1.100686303595689842e-34,1.100686303595689842e-34,1.100686303595689842e-34,1.100686303595689842e-34,1.100686303595689842e-34,1.100686303595689842e-34,-1.100686303595689842e-34,-1.100686303595689842e-34,1.100686303595689842e-34,1.100686303595689842e-34,1.100686303595689842e-34,-1.100686303595689842e-34,-1.100686303595689842e-34,1.100686303595689842e-34,1.100686303595689842e-34,-1.100686303595689842e-34,-1.100686303595689842e-34,1.100686303595689842e-34,-1.100686303595689842e-34,-1.100686303595689842e-34
-1.100686303595689842e-34,1.100686303595689842e-34,-1.100686303595689842e-34,-1.100686303595689842e-34,-1.100686303595689842e-34,-1.100686303595689842e-34,-1.100686303595689842e-34,-1.582768373191356659e-02,-1.100686303595689842e-34,1.100686303595689842e-34,-1.100686303595689842e-34,-1.100686303595689842e-34,7.291667163372039795e-02,-1.100686303595689842e-34,-1.100686303595689842e-34,-1.100686303595689842e-34,-1.562500372529029846e-02,-1.100686303595689842e-34,-1.582768373191356659e-02,-1.100686303595689842e-34,7.291667163372039795e-02,7.291667163372039795e-02,-1.100686303595689842e-34,-1.100686303595689842e-34,-1.582768373191356659e-02,-1.100686303595689842e-34,-1.562799140810966492e-02,-1.100686303595689842e-34,7.291667163372039795e-02,-1.582768373191356659e-02,-1.100686303595689842e-34,-1.100686303595689842e-34,7.291667163372039795e-02,-1.100686303595689842e-34,-1.100686303595689842e-34,-1.100686303595689842e-34,1.100686303595689842e-34,-1.100686303595689842e-34,1.100686303595689842e-34,-1.100686303595689842e-34,7.291667163372039795e-02,-1.100686303595689842e-34,1.100686303595689842e-34,-1.100686303595689842e-34,-1.100686303595689842e-34,7.291667163372039795e-02,1.100686303595689842e-34,-1.562506146728992462e-02,-1.562799140810966492e-02,-1.100686303595689842e-34,-1.100686303595689842e-34,1.100686303595689842e-34,-1.100686303595689842e-34,-1.100686303595689842e-34,7.291667163372039795e-02,-1.100686303595689842e-34,7.291667163372039795e-02,7.291667163372039795e-02,1.100686303595689842e-34,-1.100686303595689842e-34,-1.100686303595689842e-34,-1.100686303595689842e-34,-1.100686303595689842e-34,-1.100686303595689842e-34
1.100686303595689842e-34,-1.100686303595689842e-34,1.100686303595689842e-34,-1.100686303595689842e-34,1.100686303595689842e-34,-1.100686303595689842e-34,1.100686303595689842e-34,-1.582768373191356659e-02,1.100686303595689842e-34,-1.100686303595689842e-34,-1.100686303595689842e-34,-1.100686303595689842e-34,7.291667163372039795e-02,-1.100686303595689842e-34,-1.100686303595689842e-34,-1.100686303595689842e-34,-1.562500372529029846e-02,1.100686303595689842e-34,-1.582768373191356659e-02,-1.100686303595689842e-34,7.291667163372039795e-02,7.291667163372039795e-02,-1.100686303595689842e-34,1.100686303595689842e-34,-1.582768373191356659e-02,1.100686303595689842e-34,-1.562799140810966492e-02,-1.100686303595689842e-34,7.291667163372039795e-02,-1.582768373191356659e-02,-1.100686303595689842e-34,-1.100686303595689842e-34,7.291667163372039795e-02,-1.100686303595689842e-34,-1.100686303595689842e-34,-1.100686303595689842e-34,1.100686303595689842e-34,-1.100686303595689842e-34,-1.100686303595689842e-34,-1.100686303595689842e-34,7.291667163372039795e-02,-1.100686303595689842e-34,1.100686303595689842e-34,1.100686303595689842e-34,-1.100686303595689842e-34,7.291667163372039795e-02,1.100686303595689842e-34,-1.562507078051567078e-02,-1.562799140810966492e-02,1.100686303595689842e-34,-1.100686303595689842e-34,1.100686303595689842e-34,-1.100686303595689842e-34,-1.100686303595689842e-34,7.291667163372039795e-02,-1.100686303595689842e-34,7.291667163372039795e-02,7.291667163372039795e-02,-1.100686303595689842e-34,-1.100686303595689842e-34,1.100686303595689842e-34,-1.100686303595689842e-34,1.100686303595689842e-34,-1.100686303595689842e-34
-1.100686303595689842e-34,1.100686303595689842e-34,-1.100686303595689842e-34,-1.100686303595689842e-34,1.100686303595689842e-34,-1.100686303595689842e-34,-1.100686303595689842e-34,-1.277684069583351834e-34,1.100686303595689842e-34,-1.100686303595689842e-34,1.100686303595689842e-34,-1.100686303595689842e-34,-1.100532134756514614e-34,-1.100686303595689842e-34,1.100686303595689842e-34,1.100686303595689842e-34,1.043212091474542820e-34,-1.100686303595689842e-34,1.043212091474542820e-34,1.100686303595689842e-34,-1.100532134756514614e-34,-1.100532134756514614e-34,1.100686303595689842e-34,-1.100686303595689842e-34,-1.277684069583351834e-34,-1.100686303595689842e-34,-1.277684069583351834e-34,1.100686303595689842e-34,-1.100532134756514614e-34,1.043212091474542820e-34,-1.100686303595689842e-34,-1.100686303595689842e-34,-1.100532134756514614e-34,-1.100686303595689842e-34,1.100686303595689842e-34,1.100686303595689842e-34,-1.100686303595689842e-34,-1.100686303595689842e-34,-1.100686303595689842e-34,1.100686303595689842e-34,-1.100532134756514614e-34,1.100686303595689842e-34,-1.100686303595689842e-34,-1.100686303595689842e-34,-1.100686303595689842e-34,-1.100532134756514614e-34,1.100686303595689842e-34,-1.277684069583351834e-34,-1.277684069583351834e-34,1.100686303595689842e-34,1.100686303595689842e-34,-1.100686303595689842e-34,-1.100686303595689842e-34,1.100686303595689842e-34,-1.100532134756514614e-34,1.100686303595689842e-34,-1.100532134756514614e-34,-1.100532134756514614e-34,1.100686303595689842e-34,-1.100686303595689842e-34,-1.100686303595689842e-34,1.100686303595689842e-34,-1.100686303595689842e-34,-1.100686303595689842e-34
-1.100686303595689842e-34,-1.100686303595689842e-34,-1.100686303595689842e-34,-1.100686303595689842e-34,-1.100686303595689842e-34,1.100686303595689842e-34,1.100686303595689842e-34,1.100686303595689842e-34,-1.100686303595689842e-34,1.100686303595689842e-34,-1.100686303595689842e-34,1.100686303595689842e-34,1.100686303595689842e-34,-1.100686303595689842e-34,-1.100686303595689842e-34,1.100686303595689842e-34,1.100686303595689842e-34,1.100686303595689842e-34,1.100686303595689842e-34,-1.100686303595689842e-34,1.100686303595689842e-34,1.100686303595689842e-34,-1.100686303595689842e-34,1.100686303595689842e-34,-1.100686303595689842e-34,1.100686303595689842e-34,-1.100686303595689842e-34,-1.100686303595689842e-34,1.100686303595689842e-34,1.100686303595689842e-34,1.100686303595689842e-34,-1.100686303595689842e-34,1.100686303595689842e-34,-1.100686303595689842e-34,-1.100686303595689842e-34,-1.100686303595689842e-34,-1.100686303595689842e-34,1.100686303595689842e-34,1.100686303595689842e-34,1.100686303595689842e-34,-1.100686303595689842e-34,1.100686303595689842e-34,-1.100686303595689842e-34,1.100686303595689842e-34,-1.100686303595689842e-34,1.100686303595689842e-34,-1.100686303595689842e-34,1.100686303595689842e-34,1.100686303595689842e-34,1.100686303595689842e-34,-1.100686303595689842e-34,1.100686303595689842e-34,-1.100686303595689842e-34,1.100686303595689842e-34,-1.100686303595689842e-34,1.100686303595689842e-34,1.100686303595689842e-34,1.100686303595689842e-34,1.100686303595689842e-34,1.100686303595689842e-34,1.100686303595689842e-34,1.100686303595689842e-34,-1.100686303595689842e-34,-1.100686303595689842e-34
1.100686303595689842e-34,1.100686303595689842e-34,-1.100686303595689842e-34,1.100686303595689842e-34,1.100686303595689842e-34,1.100686303595689842e-34,-1.100686303595689842e-34,-1.100686303595689842e-34,1.100686303595689842e-34,-1.100686303595689842e-34,-1.100686303595689842e-34,1.100686303595689842e-34,-1.100686303595689842e-34,-1.100686303595689842e-34,-1.100686303595689842e-34,-1.100686303595689842e-34,-1.100686303595689842e-34,1.100686303595689842e-34,-1.100686303595689842e-34,1.100686303595689842e-34,-1.100686303595689842e-34,-1.100686303595689842e-34,1.100686303595689842e-34,-1.100686303595689842e-34,-1.100686303595689842e-34,-1.100686303595689842e-34,-1.100686303595689842e-34,-1.100686303595689842e-34,-1.100686303595689842e-34,1.100686303595689842e-34,-1.100686303595689842e-34,-1.100686303595689842e-34,-1.100686303595689842e-34,-1.100686303595689842e-34,-1.100686303595689842e-34,1.100686303595689842e-34,1.100686303595689842e-34,1.100686303595689842e-34,1.100686303595689842e-34,-1.100686303595689842e-34,-1.100686303595689842e-34,-1.100686303595689842e-34,-1.100686303595689842e-34,-1.100686303595689842e-34,-1.100686303595689842e-34,-1.100686303595689842e-34,-1.100686303595689842e-34,-1.100686303595689842e-34,-1.100686303595689842e-34,1.100686303595689842e-34,-1.100686303595689842e-34,-1.100686303595689842e-34,1.100686303595689842e-34,1.100686303595689842e-34,-1.100686303595689842e-34,1.100686303595689842e-34,-1.100686303595689842e-34,-1.100686303595689842e-34,-1.100686303595689842e-34,-1.100686303595689842e-34,-1.100686303595689842e-34,-1.100686303595689842e-34,1.100686303595689842e-34,1.100686303595689842e-34
1.100686303595689842e-34,1.100686303595689842e-34,-1.100686303595689842e-34,1.100686303595689842e-34,1.100686303595689842e-34,1.100686303595689842e-34,-1.100686303595689842e-34,-1.100686303595689842e-34,1.100686303595689842e-34,1.100686303595689842e-34,1.100686303595689842e-34,1.100686303595689842e-34,1.100686303595689842e-34,-1.100686303595689842e-34,1.100686303595689842e-34,-1.100686303595689842e-34,-1.100686303595689842e-34,1.100686303595689842e-34,-1.100686303595689842e-34,1.100686303595689842e-34,-1.100686303595689842e-34,-1.100686303595689842e-34,-1.100686303595689842e-34,1.100686303595689842e-34,-1.100686303595689842e-34,1.100686303595689842e-34,-1.100686303595689842e-34,-1.100686303595689842e-34,-1.100686303595689842e-34,-1.100686303595689842e-34,1.100686303595689842e-34,1.100686303595689842e-34,-1.100686303595689842e-34,1.100686303595689842e-34,-1.100686303595689842e-34,1.100686303595689842e-34,-1.100686303595689842e-34,1.100686303595689842e-34,1.100686303595689842e-34,1.100686303595689842e-34,1.100686303595689842e-34,-1.100686303595689842e-34,1.100686303595689842e-34,-1.100686303595689842e-34,1.100686303595689842e-34,1.100686303595689842e-34,-1.100686303595689842e-34,-1.100686303595689842e-34,-1.100686303595689842e-34,1.100686303595689842e-34,1.100686303595689842e-34,1.100686303595689842e-34,-1.100686303595689842e-34,-1.100686303595689842e-34,-1.100686303595689842e-34,-1.100686303595689842e-34,1.100686303595689842e-34,1.100686303595689842e-34,1.100686303595689842e-34,1.100686303595689842e-34,-1.100686303595689842e-34,-1.100686303595689842e-34,1.100686303595689842e-34,1.100686303595689842e-34
1.100686303595689842e-34,1.100686303595689842e-34,1.100686303595689842e-34,-1.100686303595689842e-34,-1.100686303595689842e-34,1.100686303595689842e-34,1.100686303595689842e-34,1.100686303595689842e-34,-1.100686303595689842e-34,1.100686303595689842e-34,-1.100686303595689842e-34,-1.100686303595689842e-34,-1.100686303595689842e-34,-1.100686303595689842e-34,-1.100686303595689842e-34,-1.100686303595689842e-34,1.100686303595689842e-34,-1.100686303595689842e-34,-1.100686303595689842e-34,-1.100686303595689842e-34,-1.100686303595689842e-34,-1.100686303595689842e-34,-1.100686303595689842e-34,-1.100686303595689842e-34,-1.100686303595689842e-34,1.100686303595689842e-34,1.100686303595689842e-34,-1.100686303595689842e-34,-1.100686303595689842e-34,-1.100686303595689842e-34,1.100686303595689842e-34,1.100686303595689842e-34,-1.100686303595689842e-34,-1.100686303595689842e-34,1.100686303595689842e-34,-1.100686303595689842e-34,-1.100686303595689842e-34,1.100686303595689842e-34,-1.100686303595689842e-34,-1.100686303595689842e-34,-1.100686303595689842e-34,-1.100686303595689842e-34,1.100686303595689842e-34,1.100686303595689842e-34,-1.100686303595689842e-34,-1.100686303595689842e-34,-1.100686303595689842e-34,1.100686303595689842e-34,-1.100686303595689842e-34,-1.100686303595689842e-34,-1.100686303595689842e-34,1.100686303595689842e-34,-1.100686303595689842e-34,1.100686303595689842e-34,-1.100686303595689842e-34,-1.100686303595689842e-34,-1.100686303595689842e-34,-1.100686303595689842e-34,-1.100686303595689842e-34,-1.100686303595689842e-34,1.100686303595689842e-34,-1.100686303595689842e-34,-1.100686303595689842e-34,-1.100686303595689842e-34
1.100686303595689842e-34,1.100686303595689842e-34,-1.100686303595689842e-34,1.100686303595689842e-34,1.100686303595689842e-34,1.100686303595689842e-34,-1.100686303595689842e-34,7.531034946441650391e-02,1.100686303595689842e-34,-1.100686303595689842e-34,1.100686303595689842e-34,-1.100686303595689842e-34,-9.478173218667507172e-03,-1.100686303595689842e-34,-1.100686303595689842e-34,-1.100686303595689842e-34,7.531034946441650391e-02,1.100686303595689842e-34,7.531034946441650391e-02,-1.100686303595689842e-34,-9.478173218667507172e-03,-9.478173218667507172e-03,1.100686303595689842e-34,1.100686303595689842e-34,7.531034946441650391e-02,-1.100686303595689842e-34,7.531034946441650391e-02,-1.100686303595689842e-34,-9.479727596044540405e-03,7.531034946441650391e-02,1.100686303595689842e-34,1.100686303595689842e-34,-9.474071674048900604e-03,1.100686303595689842e-34,-1.100686303595689842e-34,-1.100686303595689842e-34,1.100686303595689842e-34,-1.100686303595689842e-34,-1.100686303595689842e-34,-1.100686303595689842e-34,-9.478173218667507172e-03,-1.100686303595689842e-34,-1.100686303595689842e-34,1.100686303595689842e-34,-1.100686303595689842e-34,-9.470028802752494812e-03,-1.100686303595689842e-34,7.531034946441650391e-02,7.531034946441650391e-02,1.100686303595689842e-34,1.100686303595689842e-34,-1.100686303595689842e-34,1.100686303595689842e-34,1.100686303595689842e-34,-9.478173218667507172e-03,-1.100686303595689842e-34,-9.465682320296764374e-03,-9.478173218667507172e-03,-1.100686303595689842e-34,1.100686303595689842e-34,-1.100686303595689842e-34,-1.100686303595689842e-34,1.100686303595689842e-34,-1.100686303595689842e-34
1.100686303595689842e-34,1.100686303595689842e-34,-1.100686303595689842e-34,1.100686303595689842e-34,1.100686303595689842e-34,1.100686303595689842e-34,-1.100686303595689842e-34,-1.100686303595689842e-34,1.100686303595689842e-34,1.100686303595689842e-34,1.100686303595689842e-34,1.100686303595689842e-34,-1.100686303595689842e-34,-1.100686303595689842e-34,1.100686303595689842e-34,-1.100686303595689842e-34,-1.100686303595689842e-34,1.100686303595689842e-34,1.100686303595689842e-34,1.100686303595689842e-34,-1.100686303595689842e-34,-1.100686303595689842e-34,1.100686303595689842e-34,1.100686303595689842e-34,-1.100686303595689842e-34,1.100686303595689842e-34,1.100686303595689842e-34,-1.100686303595689842e-34,-1.100686303595689842e-34,1.100686303595689842e-34,1.100686303595689842e-34,1.100686303595689842e-34,-1.100686303595689842e-34,-1.100686303595689842e-34,1.100686303595689842e-34,1.100686303595689842e-34,1.100686303595689842e-34,-1.100686303595689842e-34,-1.100686303595689842e-34,-1.100686303595689842e-34,-1.100686303595689842e-34,-1.100686303595689842e-34,1.100686303595689842e-34,1.100686303595689842e-34,-1.100686303595689842e-34,1.100686303595689842e-34,-1.100686303595689842e-34,-1.100686303595689842e-34,1.100686303595689842e-34,-1.100686303595689842e-34,-1.100686303595689842e-34,1.100686303595689842e-34,1.100686303595689842e-34,1.100686303595689842e-34,-1.100686303595689842e-34,-1.100686303595689842e-34,1.100686303595689842e-34,-1.100686303595689842e-34,-1.100686303595689842e-34,-1.100686303595689842e-34,1.100686303595689842e-34,-1.100686303595689842e-34,1.100686303595689842e-34,-1.100686303595689842e-34
1.100686303595689842e-34,-1.100686303595689842e-34,-1.100686303595689842e-34,-1.100686303595689842e-34,-1.100686303595689842e-34,-1.100686303595689842e-34,-1.100686303595689842e-34,7.722958922386169434e-02,1.100686303595689842e-34,-1.100686303595689842e-34,-1.100686303595689842e-34,1.100686303595689842e-34,-9.713416919112205505e-03,-1.100686303595689842e-34,-1.100686303595689842e-34,-1.100686303595689842e-34,7.722958922386169434e-02,-1.100686303595689842e-34,7.722958922386169434e-02,-1.100686303595689842e-34,-9.713416919112205505e-03,-9.713416919112205505e-03,-1.100686303595689842e-34,1.100686303595689842e-34,7.722958922386169434e-02,-1.100686303595689842e-34,7.722958922386169434e-02,-1.100686303595689842e-34,-9.713416919112205505e-03,7.722958922386169434e-02,-1.100686303595689842e-34,-1.100686303595689842e-34,-9.713416919112205505e-03,-1.100686303595689842e-34,1.100686303595689842e-34,-1.100686303595689842e-34,-1.100686303595689842e-34,-1.100686303595689842e-34,-1.100686303595689842e-34,-1.100686303595689842e-34,-9.713416919112205505e-03,-1.100686303595689842e-34,-1.100686303595689842e-34,-1.100686303595689842e-34,-1.100686303595689842e-34,-9.713416919112205505e-03,1.100686303595689842e-34,7.722958922386169434e-02,7.722958922386169434e-02,1.100686303595689842e-34,-1.100686303595689842e-34,-1.100686303595689842e-34,-1.100686303595689842e-34,-1.100686303595689842e-34,-9.713416919112205505e-03,-1.100686303595689842e-34,-9.713416919112205505e-03,-9.713416919112205505e-03,-1.100686303595689842e-34,-1.100686303595689842e-34,-1.100686303595689842e-34,-1.100686303595689842e-34,-1.100686303595689842e-34,-1.100686303595689842e-34
-1.100686303595689842e-34,-1.100686303595689842e-34,-1.100686303595689842e-34,-1.100686303595689842e-34,-1.100686303595689842e-34,-1.100686303595689842e-34,-1.100686303595689842e-34,7.531034946441650391e-02,-1.100686303595689842e-34,-1.100686303595689842e-34,-1.100686303595689842e-34,-1.100686303595689842e-34,-9.483297355473041534e-03,-1.100686303595689842e-34,1.100686303595689842e-34,1.100686303595689842e-34,7.531034946441650391e-02,-1.100686303595689842e-34,7.531034946441650391e-02,-1.100686303595689842e-34,-9.483790025115013123e-03,-9.483762085437774658e-03,-1.100686303595689842e-34,-1.100686303595689842e-34,7.531034946441650391e-02,-1.100686303595689842e-34,7.531034946441650391e-02,1.100686303595689842e-34,-9.485019370913505554e-03,7.531034946441650391e-02,-1.100686303595689842e-34,-1.100686303595689842e-34,-9.482209570705890656e-03,-1.100686303595689842e-34,1.100686303595689842e-34,-1.100686303595689842e-34,-1.100686303595689842e-34,1.100686303595689842e-34,-1.100686303595689842e-34,-1.100686303595689842e-34,-9.483790025115013123e-03,1.100686303595689842e-34,-1.100686303595689842e-34,-1.100686303595689842e-34,-1.100686303595689842e-34,-9.479962289333343506e-03,-1.100686303595689842e-34,7.531034946441650391e-02,7.531034946441650391e-02,-1.100686303595689842e-34,-1.100686303595689842e-34,1.100686303595689842e-34,-1.100686303595689842e-34,-1.100686303595689842e-34,-9.483453817665576935e-03,1.100686303595689842e-34,-9.479570202529430389e-03,-9.483453817665576935e-03,1.100686303595689842e-34,-1.100686303595689842e-34,-1.100686303595689842e-34,-1.100686303595689842e-34,-1.100686303595689842e-34,-1.100686303595689842e-34
-1.100686303595689842e-34,-1.100686303595689842e-34,1.100686303595689842e-34,-1.100686303595689842e-34,-1.100686303595689842e-34,-1.100686303595689842e-34,-1.100686303595689842e-34,7.722958922386169434e-02,-1.100686303595689842e-34,-1.100686303595689842e-34,1.100686303595689842e-34,-1.100686303595689842e-34,-9.713416919112205505e-03,-1.100686303595689842e-34,-1.100686303595689842e-34,-1.100686303595689842e-34,7.722958922386169434e-02,-1.100686303595689842e-34,7.722958922386169434e-02,-1.100686303595689842e-34,-9.713416919112205505e-03,-9.713416919112205505e-03,-1.100686303595689842e-34,-1.100686303595689842e-34,7.722958922386169434e-02,-1.100686303595689842e-34,7.722958922386169434e-02,-1.100686303595689842e-34,-9.713416919112205505e-03,7.722958922386169434e-02,-1.100686303595689842e-34,1.100686303595689842e-34,-9.713416919112205505e-03,-1.100686303595689842e-34,-1.100686303595689842e-34,-1.100686303595689842e-34,-1.100686303595689842e-34,-1.100686303595689842e-34,1.100686303595689842e-34,-1.100686303595689842e-34,-9.713416919112205505e-03,1.100686303595689842e-34,-1.100686303595689842e-34,-1.100686303595689842e-34,-1.100686303595689842e-34,-9.713416919112205505e-03,-1.100686303595689842e-34,7.722958922386169434e-02,7.722958922386169434e-02,-1.100686303595689842e-34,1.100686303595689842e-34,-1.100686303595689842e-34,-1.100686303595689842e-34,-1.100686303595689842e-34,-9.715808555483818054e-03,-1.100686303595689842e-34,-9.713416919112205505e-03,-9.713416919112205505e-03,-1.100686303595689842e-34,-1.100686303595689842e-34,-1.100686303595689842e-34,-1.100686303595689842e-34,-1.100686303595689842e-34,-1.100686303595689842e-34
1.100686303595689842e-34,-1.100686303595689842e-34,-1.100686303595689842e-34,-1.100686303595689842e-34,-1.100686303595689842e-34,-1.100686303595689842e-34,1.100686303595689842e-34,7.722958922386169434e-02,-1.100686303595689842e-34,-1.100686303595689842e-34,-1.100686303595689842e-34,1.100686303595689842e-34,-9.713416919112205505e-03,-1.100686303595689842e-34,-1.100686303595689842e-34,-1.100686303595689842e-34,7.722958922386169434e-02,-1.100686303595689842e-34,7.722958922386169434e-02,-1.100686303595689842e-34,-9.713416919112205505e-03,-9.713416919112205505e-03,-1.100686303595689842e-34,1.100686303595689842e-34,7.722958922386169434e-02,-1.100686303595689842e-34,7.722958922386169434e-02,-1.100686303595689842e-34,-9.713416919112205505e-03,7.722958922386169434e-02,-1.100686303595689842e-34,1.100686303595689842e-34,-9.713416919112205505e-03,-1.100686303595689842e-34,-1.100686303595689842e-34,-1.100686303595689842e-34,-1.100686303595689842e-34,-1.100686303595689842e-34,-1.100686303595689842e-34,-1.100686303595689842e-34,-9.713416919112205505e-03,-1.100686303595689842e-34,-1.100686303595689842e-34,-1.100686303595689842e-34,-1.100686303595689842e-34,-9.713416919112205505e-03,-1.100686303595689842e-34,7.722958922386169434e-02,7.722958922386169434e-02,-1.100686303595689842e-34,-1.100686303595689842e-34,-1.100686303595689842e-34,-1.100686303595689842e-34,-1.100686303595689842e-34,-9.713416919112205505e-03,-1.100686303595689842e-34,-9.713416919112205505e-03,-9.713416919112205505e-03,-1.100686303595689842e-34,-1.100686303595689842e-34,1.100686303595689842e-34,-1.100686303595689842e-34,-1.100686303595689842e-34,-1.100686303595689842e-34
-1.100686303595689842e-34,-1.100686303595689842e-34,-1.100686303595689842e-34,-1.100686303595689842e-34,-1.100686303595689842e-34,-1.100686303595689842e-34,-1.100686303595689842e-34,-1.100686303595689842e-34,-1.100686303595689842e-34,-1.100686303595689842e-34,1.100686303595689842e-34,-1.100686303595689842e-34,-1.100686303595689842e-34,1.100686303595689842e-34,1.100686303595689842e-34,-1.100686303595689842e-34,-1.100686303595689842e-34,1.100686303595689842e-34,1.100686303595689842e-34,1.100686303595689842e-34,-1.100686303595689842e-34,-1.100686303595689842e-34,-1.100686303595689842e-34,-1.100686303595689842e-34,-1.100686303595689842e-34,-1.100686303595689842e-34,-1.100686303595689842e-34,-1.100686303595689842e-34,1.100686303595689842e-34,-1.100686303595689842e-34,-1.100686303595689842e-34,-1.100686303595689842e-34,1.100686303595689842e-34,-1.100686303595689842e-34,1.100686303595689842e-34,1.100686303595689842e-34,1.100686303595689842e-34,-1.100686303595689842e-34,1.100686303595689842e-34,-1.100686303595689842e-34,1.100686303595689842e-34,-1.100686303595689842e-34,1.100686303595689842e-34,-1.100686303595689842e-34,1.100686303595689842e-34,1.100686303595689842e-34,1.100686303595689842e-34,-1.100686303595689842e-34,1.100686303595689842e-34,1.100686303595689842e-34,-1.100686303595689842e-34,1.100686303595689842e-34,1.100686303595689842e-34,-1.100686303595689842e-34,1.100686303595689842e-34,1.100686303595689842e-34,1.100686303595689842e-34,-1.100686303595689842e-34,-1.100686303595689842e-34,1.100686303595689842e-34,-1.100686303595689842e-34,1.100686303595689842e-34,-1.100686303595689842e-34,1.100686303595689842e-34
-1.100686303595689842e-34,-1.100686303595689842e-34,1.100686303595689842e-34,1.100686303595689842e-34,1.100686303595689842e-34,-1.100686303595689842e-34,1.100686303595689842e-34,-1.100686303595689842e-34,-1.100686303595689842e-34,1.100686303595689842e-34,-1.100686303595689842e-34,-1.100686303595689842e-34,1.100686303595689842e-34,-1.100686303595689842e-34,1.100686303595689842e-34,-1.100686303595689842e-34,-1.100686303595689842e-34,-1.100686303595689842e-34,1.100686303595689842e-34,1.100686303595689842e-34,1.100686303595689842e-34,1.100686303595689842e-34,1.100686303595689842e-34,-1.100686303595689842e-34,-1.100686303595689842e-34,-1.100686303595689842e-34,-1.100686303595689842e-34,1.100686303595689842e-34,-1.100686303595689842e-34,-1.100686303595689842e-34,1.100686303595689842e-34,1.100686303595689842e-34,-1.100686303595689842e-34,-1.100686303595689842e-34,1.100686303595689842e-34,1.100686303595689842e-34,-1.100686303595689842e-34,-1.100686303595689842e-34,-1.100686303595689842e-34,1.100686303595689842e-34,1.100686303595689842e-34,-1.100686303595689842e-34,-1.100686303595689842e-34,-1.100686303595689842e-34,-1.100686303595689842e-34,-1.100686303595689842e-34,-1.100686303595689842e-34,-1.100686303595689842e-34,1.100686303595689842e-34,-1.100686303595689842e-34,-1.100686303595689842e-34,1.100686303595689842e-34,-1.100686303595689842e-34,1.100686303595689842e-34,1.100686303595689842e-34,-1.100686303595689842e-34,1.100686303595689842e-34,-1.100686303595689842e-34,-1.100686303595689842e-34,-1.100686303595689842e-34,-1.100686303595689842e-34,1.100686303595689842e-34,-1.100686303595689842e-34,-1.100686303595689842e-34
-1.100686303595689842e-34,-1.100686303595689842e-34,1.100686303595689842e-34,1.100686303595689842e-34,-1.100686303595689842e-34,-1.100686303595689842e-34,-1.100686303595689842e-34,7.531034946441650391e-02,-1.100686303595689842e-34,1.100686303595689842e-34,-1.100686303595689842e-34,-1.100686303595689842e-34,-9.478173218667507172e-03,1.100686303595689842e-34,-1.100686303595689842e-34,-1.100686303595689842e-34,7.531034946441650391e-02,1.100686303595689842e-34,7.531034946441650391e-02,1.100686303595689842e-34,-9.478173218667507172e-03,-9.478173218667507172e-03,1.100686303595689842e-34,1.100686303595689842e-34,7.531034946441650391e-02,-1.100686303595689842e-34,7.531034946441650391e-02,1.100686303595689842e-34,-9.478989057242870331e-03,7.531034946441650391e-02,1.100686303595689842e-34,1.100686303595689842e-34,-9.472020901739597321e-03,-1.100686303595689842e-34,1.100686303595689842e-34,-1.100686303595689842e-34,-1.100686303595689842e-34,1.100686303595689842e-34,1.100686303595689842e-34,-1.100686303595689842e-34,-9.478173218667507172e-03,-1.100686303595689842e-34,1.100686303595689842e-34,1.100686303595689842e-34,-1.100686303595689842e-34,-9.467685595154762268e-03,-1.100686303595689842e-34,7.531034946441650391e-02,7.531034946441650391e-02,1.100686303595689842e-34,1.100686303595689842e-34,1.100686303595689842e-34,1.100686303595689842e-34,1.100686303595689842e-34,-9.478173218667507172e-03,-1.100686303595689842e-34,-9.463563561439514160e-03,-9.478173218667507172e-03,1.100686303595689842e-34,-1.100686303595689842e-34,1.100686303595689842e-34,1.100686303595689842e-34,1.100686303595689842e-34,-1.100686303595689842e-34
-1.100686303595689842e-34,-1.100686303595689842e-34,-1.100686303595689842e-34,1.100686303595689842e-34,-1.100686303595689842e-34,1.100686303595689842e-34,-1.100686303595689842e-34,-1.100686303595689842e-34,-1.100686303595689842e-34,-1.100686303595689842e-34,1.100686303595689842e-34,-1.100686303595689842e-34,-1.100686303595689842e-34,-1.100686303595689842e-34,-1.100686303595689842e-34,-1.100686303595689842e-34,-1.100686303595689842e-34,1.100686303595689842e-34,-1.100686303595689842e-34,-1.100686303595689842e-34,-1.100686303595689842e-34,-1.100686303595689842e-34,-1.100686303595689842e-34,1.100686303595689842e-34,-1.100686303595689842e-34,-1.100686303595689842e-34,-1.100686303595689842e-34,-1.100686303595689842e-34,-1.100686303595689842e-34,1.100686303595689842e-34,1.100686303595689842e-34,1.100686303595689842e-34,-1.100686303595689842e-34,-1.100686303595689842e-34,1.100686303595689842e-34,1.100686303595689842e-34,-1.100686303595689842e-34,-1.100686303595689842e-34,1.100686303595689842e-34,-1.100686303595689842e-34,-1.100686303595689842e-34,1.100686303595689842e-34,-1.100686303595689842e-34,-1.100686303595689842e-34,-1.100686303595689842e-34,1.100686303595689842e-34,1.100686303595689842e-34,-1.100686303595689842e-34,-1.100686303595689842e-34,1.100686303595689842e-34,-1.100686303595689842e-34,-1.100686303595689842e-34,1.100686303595689842e-34,-1.100686303595689842e-34,1.100686303595689842e-34,-1.100686303595689842e-34,-1.100686303595689842e-34,-1.100686303595689842e-34,-1.100686303595689842e-34,1.100686303595689842e-34,-1.100686303595689842e-34,1.100686303595689842e-34,-1.100686303595689842e-34,1.100686303595689842e-34
1.100686303595689842e-34,1.100686303595689842e-34,1.100686303595689842e-34,1.100686303595689842e-34,-1.100686303595689842e-34,1.100686303595689842e-34,-1.100686303595689842e-34,-1.634426741040097119e-32,-1.100686303595689842e-34,1.100686303595689842e-34,-1.100686303595689842e-34,1.100686303595689842e-34,0.000000000000000000e+00,1.100686303595689842e-34,-1.100686303595689842e-34,-1.100686303595689842e-34,-1.634909722281491226e-32,-1.100686303595689842e-34,-0.000000000000000000e+00,-1.100686303595689842e-34,0.000000000000000000e+00,0.000000000000000000e+00,-1.100686303595689842e-34,-1.100686303595689842e-34,-1.633675306276333972e-32,-1.100686303595689842e-34,-0.000000000000000000e+00,-1.100686303595689842e-34,0.000000000000000000e+00,-1.633675306276333972e-32,-1.100686303595689842e-34,1.100686303595689842e-34,0.000000000000000000e+00,1.100686303595689842e-34,-1.100686303595689842e-34,-1.100686303595689842e-34,1.100686303595689842e-34,-1.100686303595689842e-34,-1.100686303595689842e-34,1.100686303595689842e-34,0.000000000000000000e+00,-1.100686303595689842e-34,1.100686303595689842e-34,-1.100686303595689842e-34,1.100686303595689842e-34,0.000000000000000000e+00,-1.100686303595689842e-34,-1.634987011035057792e-32,-1.634909722281491226e-32,1.100686303595689842e-34,1.100686303595689842e-34,1.100686303595689842e-34,1.100686303595689842e-34,1.100686303595689842e-34,0.000000000000000000e+00,-1.100686303595689842e-34,0.000000000000000000e+00,0.000000000000000000e+00,-1.100686303595689842e-34,-1.100686303595689842e-34,-1.100686303595689842e-34,-1.100686303595689842e-34,-1.100686303595689842e-34,1.100686303595689842e-34
-1.100686303595689842e-34,-1.100686303595689842e-34,-1.100686303595689842e-34,1.100686303595689842e-34,1.100686303595689842e-34,-1.100686303595689842e-34,1.100686303595689842e-34,7.722958922386169434e-02,-1.100686303595689842e-34,-1.100686303595689842e-34,-1.100686303595689842e-34,1.100686303595689842e-34,-9.713416919112205505e-03,-1.100686303595689842e-34,-1.100686303595689842e-34,-1.100686303595689842e-34,7.722958922386169434e-02,-1.100686303595689842e-34,7.722958922386169434e-02,-1.100686303595689842e-34,-9.713416919112205505e-03,-9.713416919112205505e-03,-1.100686303595689842e-34,1.100686303595689842e-34,7.722958922386169434e-02,-1.100686303595689842e-34,7.722958922386169434e-02,-1.100686303595689842e-34,-9.713416919112205505e-03,7.722958922386169434e-02,-1.100686303595689842e-34,-1.100686303595689842e-34,-9.713416919112205505e-03,-1.100686303595689842e-34,-1.100686303595689842e-34,-1.100686303595689842e-34,1.100686303595689842e-34,1.100686303595689842e-34,1.100686303595689842e-34,-1.100686303595689842e-34,-9.713416919112205505e-03,-1.100686303595689842e-34,-1.100686303595689842e-34,-1.100686303595689842e-34,-1.100686303595689842e-34,-9.713416919112205505e-03,1.100686303595689842e-34,7.722958922386169434e-02,7.722958922386169434e-02,-1.100686303595689842e-34,-1.100686303595689842e-34,-1.100686303595689842e-34,-1.100686303595689842e-34,-1.100686303595689842e-34,-9.716002270579338074e-03,-1.100686303595689842e-34,-9.713416919112205505e-03,-9.713416919112205505e-03,-1.100686303595689842e-34,-1.100686303595689842e-34,-1.100686303595689842e-34,1.100686303595689842e-34,-1.100686303595689842e-34,-1.100686303595689842e-34
1.100686303595689842e-34,-1.100686303595689842e-34,-1.100686303595689842e-34,-1.100686303595689842e-34,-1.100686303595689842e-34,1.100686303595689842e-34,1.100686303595689842e-34,-1.582768373191356659e-02,1.100686303595689842e-34,1.100686303595689842e-34,-1.100686303595689842e-34,1.100686303595689842e-34,7.291667163372039795e-02,-1.100686303595689842e-34,-1.100686303595689842e-34,-1.100686303595689842e-34,-1.562500372529029846e-02,1.100686303595689842e-34,-1.582768373191356659e-02,-1.100686303595689842e-34,7.291667163372039795e-02,7.291667163372039795e-02,-1.100686303595689842e-34,-1.100686303595689842e-34,-1.582768373191356659e-02,-1.100686303595689842e-34,-1.562799140810966492e-02,-1.100686303595689842e-34,7.291667163372039795e-02,-1.582768373191356659e-02,-1.100686303595689842e-34,-1.100686303595689842e-34,7.291667163372039795e-02,-1.100686303595689842e-34,1.100686303595689842e-34,1.100686303595689842e-34,-1.100686303595689842e-34,-1.100686303595689842e-34,-1.100686303595689842e-34,-1.100686303595689842e-34,7.291667163372039795e-02,-1.100686303595689842e-34,-1.100686303595689842e-34,-1.100686303595689842e-34,-1.100686303595689842e-34,7.291667163372039795e-02,-1.100686303595689842e-34,-1.562506146728992462e-02,-1.562799140810966492e-02,1.100686303595689842e-34,-1.100686303595689842e-34,-1.100686303595689842e-34,1.100686303595689842e-34,-1.100686303595689842e-34,7.291667163372039795e-02,-1.100686303595689842e-34,7.291667163372039795e-02,7.291667163372039795e-02,-1.100686303595689842e-34,-1.100686303595689842e-34,1.100686303595689842e-34,-1.100686303595689842e-34,-1.100686303595689842e-34,1.100686303595689842e-34
-1.100686303595689842e-34,1.100686303595689842e-34,-1.100686303595689842e-34,1.100686303595689842e-34,-1.100686303595689842e-34,-1.100686303595689842e-34,1.100686303595689842e-34,-1.582768373191356659e-02,-1.100686303595689842e-34,1.100686303595689842e-34,-1.100686303595689842e-34,-1.100686303595689842e-34,7.291667163372039795e-02,-1.100686303595689842e-34,-1.100686303595689842e-34,-1.100686303595689842e-34,-1.562500372529029846e-02,-1.100686303595689842e-34,-1.582768373191356659e-02,-1.100686303595689842e-34,7.291667163372039795e-02,7.291667163372039795e-02,-1.100686303595689842e-34,-1.100686303595689842e-34,-1.582768373191356659e-02,-1.100686303595689842e-34,-1.562799140810966492e-02,-1.100686303595689842e-34,7.291667163372039795e-02,-1.582768373191356659e-02,-1.100686303595689842e-34,-1.100686303595689842e-34,7.291667163372039795e-02,-1.100686303595689842e-34,-1.100686303595689842e-34,-1.100686303595689842e-34,-1.100686303595689842e-34,-1.100686303595689842e-34,1.100686303595689842e-34,-1.100686303595689842e-34,7.291667163372039795e-02,1.100686303595689842e-34,1.100686303595689842e-34,-1.100686303595689842e-34,-1.100686303595689842e-34,7.291667163372039795e-02,-1.100686303595689842e-34,-1.562507078051567078e-02,-1.562799140810966492e-02,-1.100686303595689842e-34,-1.100686303595689842e-34,1.100686303595689842e-34,-1.100686303595689842e-34,-1.100686303595689842e-34,7.291667163372039795e-02,-1.100686303595689842e-34,7.291667163372039795e-02,7.291667163372039795e-02,1.100686303595689842e-34,-1.100686303595689842e-34,-1.100686303595689842e-34,-1.100686303595689842e-34,-1.100686303595689842e-34,-1.100686303595689842e-34
-1.100686303595689842e-34,-1.100686303595689842e-34,1.100686303595689842e-34,-1.100686303595689842e-34,-1.100686303595689842e-34,-1.100686303595689842e-34,-1.100686303595689842e-34,-1.100686303595689842e-34,-1.100686303595689842e-34,-1.100686303595689842e-34,-1.100686303595689842e-34,1.100686303595689842e-34,-1.100686303595689842e-34,-1.100686303595689842e-34,-1.100686303595689842e-34,1.100686303595689842e-34,-1.100686303595689842e-34,-1.100686303595689842e-34,-1.100686303595689842e-34,-1.100686303595689842e-34,-1.100686303595689842e-34,-1.100686303595689842e-34,-1.100686303595689842e-34,-1.100686303595689842e-34,-1.100686303595689842e-34,-1.100686303595689842e-34,-1.100686303595689842e-34,1.100686303595689842e-34,-1.100686303595689842e-34,-1.100686303595689842e-34,-1.100686303595689842e-34,1.100686303595689842e-34,-1.100686303595689842e-34,-1.100686303595689842e-34,6.335486367931293034e-35,-1.100686303595689842e-34,-1.100686303595689842e-34,-1.100686303595689842e-34,1.100686303595689842e-34,1.100686303595689842e-34,-1.100686303595689842e-34,1.100686303595689842e-34,-1.100686303595689842e-34,1.100686303595689842e-34,-1.100686303595689842e-34,-1.100686303595689842e-34,-1.100686303595689842e-34,-1.100686303595689842e-34,-1.100686303595689842e-34,-1.100686303595689842e-34,-1.100686303595689842e-34,-1.100686303595689842e-34,-1.100686303595689842e-34,1.100686303595689842e-34,-1.100686303595689842e-34,1.100686303595689842e-34,-1.100686303595689842e-34,-1.100686303595689842e-34,1.100686303595689842e-34,1.100686303595689842e-34,-1.100686303595689842e-34,-1.100686303595689842e-34,1.100686303595689842e-34,-1.100686303595689842e-34
1.100686303595689842e-34,1.100686303595689842e-34,1.100686303595689842e-34,-1.100686303595689842e-34,-1.100686303595689842e-34,-1.100686303595689842e-34,-1.100686303595689842e-34,-1.582768373191356659e-02,1.100686303595689842e-34,-1.100686303595689842e-34,1.100686303595689842e-34,-1.100686303595689842e-34,7.291667163372039795e-02,-1.100686303595689842e-34,-1.100686303595689842e-34,-1.100686303595689842e-34,-1.562500372529029846e-02,-1.100686303595689842e-34,-1.582768373191356659e-02,-1.100686303595689842e-34,7.291667163372039795e-02,7.291667163372039795e-02,-1.100686303595689842e-34,-1.100686303595689842e-34,-1.582768373191356659e-02,-1.100686303595689842e-34,-1.562799140810966492e-02,-1.100686303595689842e-34,7.291667163372039795e-02,-1.582768373191356659e-02,1.100686303595689842e-34,-1.100686303595689842e-34,7.291667163372039795e-02,-1.100686303595689842e-34,-1.100686303595689842e-34,-1.100686303595689842e-34,-1.100686303595689842e-34,-1.100686303595689842e-34,1.100686303595689842e-34,-1.100686303595689842e-34,7.291667163372039795e-02,1.100686303595689842e-34,1.100686303595689842e-34,-1.100686303595689842e-34,-1.100686303595689842e-34,7.291667163372039795e-02,-1.100686303595689842e-34,-1.562507636845111847e-02,-1.562799140810966492e-02,-1.100686303595689842e-34,2.557875994375223111e-35,-1.100686303595689842e-34,-1.100686303595689842e-34,-1.100686303595689842e-34,7.291667163372039795e-02,-1.100686303595689842e-34,7.291667163372039795e-02,7.291667163372039795e-02,-1.100686303595689842e-34,-1.100686303595689842e-34,1.100686303595689842e-34,-1.100686303595689842e-34,-1.100686303595689842e-34,1.100686303595689842e-34
-1.100686303595689842e-34,-1.100686303595689842e-34,-1.100686303595689842e-34,1.100686303595689842e-34,-1.100686303595689842e-34,-1.100686303595689842e-34,1.100686303595689842e-34,-1.100686303595689842e-34,-1.100686303595689842e-34,-1.100686303595689842e-34,-1.100686303595689842e-34,-1.100686303595689842e-34,-1.251461476804769221e-34,-1.100686303595689842e-34,1.100686303595689842e-34,-1.100686303595689842e-34,-1.100686303595689842e-34,-1.100686303595689842e-34,-1.100686303595689842e-34,1.100686303595689842e-34,1.083335823306560562e-34,1.083335823306560562e-34,-1.100686303595689842e-34,-1.100686303595689842e-34,-1.100686303595689842e-34,1.100686303595689842e-34,-1.100686303595689842e-34,-1.100686303595689842e-34,1.083335823306560562e-34,-1.100686303595689842e-34,-1.100686303595689842e-34,-1.100686303595689842e-34,1.083335823306560562e-34,-1.100686303595689842e-34,-1.100686303595689842e-34,-1.100686303595689842e-34,-1.100686303595689842e-34,-1.100686303595689842e-34,-1.100686303595689842e-34,-1.100686303595689842e-34,1.083335823306560562e-34,1.100686303595689842e-34,-1.100686303595689842e-34,-1.100686303595689842e-34,-1.100686303595689842e-34,1.083335823306560562e-34,-1.100686303595689842e-34,-1.100686303595689842e-34,-1.100686303595689842e-34,-1.100686303595689842e-34,-1.100686303595689842e-34,1.100686303595689842e-34,-1.100686303595689842e-34,1.100686303595689842e-34,-1.251461476804769221e-34,-1.100686303595689842e-34,1.083335823306560562e-34,1.083335823306560562e-34,1.100686303595689842e-34,-1.100686303595689842e-34,-1.100686303595689842e-34,1.100686303595689842e-34,-1.100686303595689842e-34,-1.100686303595689842e-34
-1.100686303595689842e-34,-1.100686303595689842e-34,-1.100686303595689842e-34,-1.100686303595689842e-34,-1.100686303595689842e-34,-1.100686303595689842e-34,-1.100686303595689842e-34,7.722958922386169434e-02,-1.100686303595689842e-34,-1.100686303595689842e-34,-1.100686303595689842e-34,1.100686303595689842e-34,-9.713416919112205505e-03,-1.100686303595689842e-34,-1.100686303595689842e-34,1.100686303595689842e-34,7.722958922386169434e-02,-1.100686303595689842e-34,7.722958922386169434e-02,-1.100686303595689842e-34,-9.713416919112205505e-03,-9.713416919112205505e-03,-1.100686303595689842e-34,-1.100686303595689842e-34,7.722958922386169434e-02,-1.100686303595689842e-34,7.722958922386169434e-02,-1.100686303595689842e-34,-9.713416919112205505e-03,7.722958922386169434e-02,-1.100686303595689842e-34,-1.100686303595689842e-34,-9.713416919112205505e-03,-1.100686303595689842e-34,-1.100686303595689842e-34,1.100686303595689842e-34,-1.100686303595689842e-34,-1.100686303595689842e-34,1.100686303595689842e-34,-1.100686303595689842e-34,-9.713416919112205505e-03,-1.100686303595689842e-34,-1.100686303595689842e-34,1.100686303595689842e-34,-1.100686303595689842e-34,-9.713416919112205505e-03,-1.100686303595689842e-34,7.722958922386169434e-02,7.722958922386169434e-02,-1.100686303595689842e-34,-1.100686303595689842e-34,1.100686303595689842e-34,-1.100686303595689842e-34,-1.100686303595689842e-34,-9.713416919112205505e-03,-1.100686303595689842e-34,-9.713416919112205505e-03,-9.713416919112205505e-03,1.100686303595689842e-34,-1.100686303595689842e-34,1.100686303595689842e-34,-1.100686303595689842e-34,-1.100686303595689842e-34,-1.100686303595689842e-34
-1.100686303595689842e-34,1.100686303595689842e-34,-1.100686303595689842e-34,1.100686303595689842e-34,1.100686303595689842e-34,-1.100686303595689842e-34,-1.100686303595689842e-34,-1.100686303595689842e-34,-1.100686303595689842e-34,1.100686303595689842e-34,-1.100686303595689842e-34,1.100686303595689842e-34,1.100686303595689842e-34,-1.100686303595689842e-34,-1.100686303595689842e-34,1.100686303595689842e-34,-1.100686303595689842e-34,-1.100686303595689842e-34,-1.100686303595689842e-34,-1.100686303595689842e-34,1.100686303595689842e-34,1.100686303595689842e-34,1.100686303595689842e-34,1.100686303595689842e-34,-1.100686303595689842e-34,-1.100686303595689842e-34,-1.100686303595689842e-34,1.100686303595689842e-34,-1.100686303595689842e-34,-1.100686303595689842e-34,-1.100686303595689842e-34,-1.100686303595689842e-34,1.100686303595689842e-34,1.100686303595689842e-34,1.100686303595689842e-34,1.100686303595689842e-34,1.100686303595689842e-34,-1.100686303595689842e-34,-1.100686303595689842e-34,1.100686303595689842e-34,1.100686303595689842e-34,-1.100686303595689842e-34,1.100686303595689842e-34,1.100686303595689842e-34,1.100686303595689842e-34,1.100686303595689842e-34,-1.100686303595689842e-34,-1.100686303595689842e-34,-1.100686303595689842e-34,1.100686303595689842e-34,1.100686303595689842e-34,1.100686303595689842e-34,-1.100686303595689842e-34,1.100686303595689842e-34,1.100686303595689842e-34,1.100686303595689842e-34,-1.100686303595689842e-34,-1.100686303595689842e-34,-1.100686303595689842e-34,-1.100686303595689842e-34,-1.100686303595689842e-34,1.100686303595689842e-34,-1.100686303595689842e-34,-1.100686303595689842e-34
-1.100686303595689842e-34,-1.100686303595689842e-34,-1.100686303595689842e-34,-1.100686303595689842e-34,-1.100686303595689842e-34,-1.100686303595689842e-34,-1.100686303595689842e-34,-1.424038130789995193e-02,-1.100686303595689842e-34,-1.100686303595689842e-34,-1.100686303595689842e-34,-1.100686303595689842e-34,7.291667163372039795e-02,-1.100686303595689842e-34,-1.100686303595689842e-34,-1.100686303595689842e-34,-1.412455644458532333e-02,1.100686303595689842e-34,-1.418472733348608017e-02,-1.100686303595689842e-34,7.291667163372039795e-02,7.291667163372039795e-02,-1.100686303595689842e-34,1.100686303595689842e-34,-1.427150424569845200e-02,-1.100686303595689842e-34,-1.415675785392522812e-02,-1.100686303595689842e-34,7.291667163372039795e-02,-1.427139714360237122e-02,-1.100686303595689842e-34,-1.100686303595689842e-34,7.291667163372039795e-02,-1.100686303595689842e-34,-1.100686303595689842e-34,1.100686303595689842e-34,-1.100686303595689842e-34,-1.100686303595689842e-34,-1.100686303595689842e-34,-1.100686303595689842e-34,7.291667163372039795e-02,1.100686303595689842e-34,-1.100686303595689842e-34,1.100686303595689842e-34,-1.100686303595689842e-34,7.291667163372039795e-02,1.100686303595689842e-34,-1.417188718914985657e-02,-1.415592338889837265e-02,-1.100686303595689842e-34,1.100686303595689842e-34,1.100686303595689842e-34,-1.100686303595689842e-34,-1.100686303595689842e-34,7.291667163372039795e-02,1.100686303595689842e-34,7.291667163372039795e-02,7.291667163372039795e-02,-1.100686303595689842e-34,-1.100686303595689842e-34,-1.100686303595689842e-34,1.100686303595689842e-34,-1.100686303595689842e-34,-1.100686303595689842e-34
-1.100686303595689842e-34,1.100686303595689842e-34,-1.100686303595689842e-34,-1.100686303595689842e-34,-1.100686303595689842e-34,-1.100686303595689842e-34,1.100686303595689842e-34,-1.582768373191356659e-02,-1.100686303595689842e-34,-1.100686303595689842e-34,-1.100686303595689842e-34,-1.100686303595689842e-34,7.291667163372039795e-02,-1.100686303595689842e-34,-1.100686303595689842e-34,-1.100686303595689842e-34,-1.562500372529029846e-02,-1.100686303595689842e-34,-1.582768373191356659e-02,-1.100686303595689842e-34,7.291667163372039795e-02,7.291667163372039795e-02,-1.100686303595689842e-34,-1.100686303595689842e-34,-1.582768373191356659e-02,-1.100686303595689842e-34,-1.562799140810966492e-02,-1.100686303595689842e-34,7.291667163372039795e-02,-1.582768373191356659e-02,-1.100686303595689842e-34,-1.100686303595689842e-34,7.291667163372039795e-02,-1.100686303595689842e-34,-1.100686303595689842e-34,1.100686303595689842e-34,-1.100686303595689842e-34,-1.100686303595689842e-34,-1.100686303595689842e-34,-1.100686303595689842e-34,7.291667163372039795e-02,-1.100686303595689842e-34,1.100686303595689842e-34,-1.100686303595689842e-34,-1.100686303595689842e-34,7.291667163372039795e-02,1.100686303595689842e-34,-1.562507636845111847e-02,-1.562799140810966492e-02,-1.100686303595689842e-34,-1.100686303595689842e-34,-1.100686303595689842e-34,-1.100686303595689842e-34,-1.100686303595689842e-34,7.291667163372039795e-02,-1.100686303595689842e-34,7.291667163372039795e-02,7.291667163372039795e-02,-1.100686303595689842e-34,-1.100686303595689842e-34,-1.100686303595689842e-34,-1.100686303595689842e-34,-1.100686303595689842e-34,-1.100686303595689842e-34
1.100686303595689842e-34,1.100686303595689842e-34,1.100686303595689842e-34,-1.100686303595689842e-34,-1.100686303595689842e-34,-1.100686303595689842e-34,1.100686303595689842e-34,-1.100686303595689842e-34,1.100686303595689842e-34,1.100686303595689842e-34,1.100686303595689842e-34,-1.100686303595689842e-34,1.100686303595689842e-34,-1.100686303595689842e-34,-1.100686303595689842e-34,-1.100686303595689842e-34,1.100686303595689842e-34,-1.100686303595689842e-34,-1.100686303595689842e-34,-1.100686303595689842e-34,-1.100686303595689842e-34,1.100686303595689842e-34,-1.100686303595689842e-34,1.100686303595689842e-34,-1.100686303595689842e-34,1.100686303595689842e-34,1.100686303595689842e-34,-1.100686303595689842e-34,1.100686303595689842e-34,1.100686303595689842e-34,1.100686303595689842e-34,-1.100686303595689842e-34,-1.100686303595689842e-34,1.100686303595689842e-34,1.100686303595689842e-34,1.100686303595689842e-34,1.100686303595689842e-34,-1.100686303595689842e-34,1.100686303595689842e-34,1.100686303595689842e-34,1.100686303595689842e-34,-1.100686303595689842e-34,1.100686303595689842e-34,-1.100686303595689842e-34,-1.100686303595689842e-34,-1.100686303595689842e-34,1.100686303595689842e-34,-1.100686303595689842e-34,-1.100686303595689842e-34,1.100686303595689842e-34,1.100686303595689842e-34,1.100686303595689842e-34,1.100686303595689842e-34,-1.100686303595689842e-34,-1.100686303595689842e-34,-1.100686303595689842e-34,1.100686303595689842e-34,-1.100686303595689842e-34,-1.100686303595689842e-34,1.100686303595689842e-34,-1.100686303595689842e-34,1.100686303595689842e-34,-1.100686303595689842e-34,-1.100686303595689842e-34
-1.100686303595689842e-34,1.100686303595689842e-34,-1.100686303595689842e-34,1.100686303595689842e-34,-1.100686303595689842e-34,-1.100686303595689842e-34,1.100686303595689842e-34,-1.753100977279268946e-32,-1.100686303595689842e-34,-1.100686303595689842e-34,1.100686303595689842e-34,1.100686303595689842e-34,1.575474964662390136e-32,-1.100686303595689842e-34,1.100686303595689842e-34,-1.100686303595689842e-34,-0.000000000000000000e+00,-1.100686303595689842e-34,-1.753177237475278542e-32,-1.100686303595689842e-34,1.574767757873576678e-32,1.574668281664138342e-32,1.100686303595689842e-34,-1.100686303595689842e-34,-0.000000000000000000e+00,-1.100686303595689842e-34,-0.000000000000000000e+00,-1.100686303595689842e-34,1.574767757873576678e-32,-0.000000000000000000e+00,-1.100686303595689842e-34,-1.100686303595689842e-34,1.582236702041907640e-32,-1.100686303595689842e-34,1.100686303595689842e-34,-1.100686303595689842e-34,-1.100686303595689842e-34,-1.100686303595689842e-34,-1.100686303595689842e-34,-1.100686303595689842e-34,1.574859446432940816e-32,1.100686303595689842e-34,-1.100686303595689842e-34,-1.100686303595689842e-34,-1.100686303595689842e-34,1.582457988853449935e-32,1.100686303595689842e-34,-1.753140209403227640e-32,-0.000000000000000000e+00,1.100686303595689842e-34,-1.100686303595689842e-34,1.100686303595689842e-34,1.100686303595689842e-34,1.100686303595689842e-34,1.575389300511573962e-32,1.100686303595689842e-34,1.575556367646184580e-32,1.574767757873576678e-32,-1.100686303595689842e-34,1.100686303595689842e-34,1.100686303595689842e-34,-1.100686303595689842e-34,1.100686303595689842e-34,-1.100686303595689842e-34
1.100686303595689842e-34,-1.100686303595689842e-34,1.100686303595689842e-34,-1.100686303595689842e-34,1.100686303595689842e-34,-1.100686303595689842e-34,-1.100686303595689842e-34,1.100686303595689842e-34,-1.100686303595689842e-34,1.100686303595689842e-34,-5.416679116532802812e-35,-1.100686303595689842e-34,-1.100686303595689842e-34,-1.100686303595689842e-34,1.100686303595689842e-34,-1.100686303595689842e-34,-1.100686303595689842e-34,1.100686303595689842e-34,-1.100686303595689842e-34,-1.100686303595689842e-34,-1.100686303595689842e-34,-1.100686303595689842e-34,1.100686303595689842e-34,-1.100686303595689842e-34,-1.100686303595689842e-34,-1.100686303595689842e-34,1.100686303595689842e-34,-1.100686303595689842e-34,-1.100686303595689842e-34,1.100686303595689842e-34,-1.100686303595689842e-34,-1.100686303595689842e-34,-1.100686303595689842e-34,-1.100686303595689842e-34,1.100686303595689842e-34,1.100686303595689842e-34,1.100686303595689842e-34,-1.100686303595689842e-34,1.100686303595689842e-34,-1.100686303595689842e-34,-1.100686303595689842e-34,1.100686303595689842e-34,-1.100686303595689842e-34,-1.100686303595689842e-34,1.100686303595689842e-34,-1.100686303595689842e-34,1.023150397750089244e-34,-1.100686303595689842e-34,-1.100686303595689842e-34,-1.100686303595689842e-34,-1.100686303595689842e-34,-1.100686303595689842e-34,1.100686303595689842e-34,1.100686303595689842e-34,-1.100686303595689842e-34,-1.100686303595689842e-34,-1.100686303595689842e-34,-1.100686303595689842e-34,-1.100686303595689842e-34,-1.100686303595689842e-34,1.100686303595689842e-34,1.100686303595689842e-34,-1.100686303595689842e-34,1.100686303595689842e-34
-1.100686303595689842e-34,-1.100686303595689842e-34,1.100686303595689842e-34,-1.100686303595689842e-34,1.100686303595689842e-34,1.100686303595689842e-34,1.100686303595689842e-34,1.100686303595689842e-34,1.100686303595689842e-34,1.100686303595689842e-34,1.100686303595689842e-34,-1.100686303595689842e-34,-1.100686303595689842e-34,-1.100686303595689842e-34,1.100686303595689842e-34,1.100686303595689842e-34,-1.100686303595689842e-34,1.100686303595689842e-34,1.100686303595689842e-34,1.100686303595689842e-34,1.100686303595689842e-34,1.100686303595689842e-34,-1.100686303595689842e-34,1.100686303595689842e-34,-1.100686303595689842e-34,1.100686303595689842e-34,-1.100686303595689842e-34,1.100686303595689842e-34,1.100686303595689842e-34,1.100686303595689842e-34,-1.100686303595689842e-34,-1.100686303595689842e-34,1.100686303595689842e-34,1.100686303595689842e-34,1.100686303595689842e-34,1.100686303595689842e-34,1.100686303595689842e-34,1.100686303595689842e-34,1.100686303595689842e-34,1.100686303595689842e-34,1.100686303595689842e-34,1.100686303595689842e-34,-1.100686303595689842e-34,-1.100686303595689842e-34,-1.100686303595689842e-34,-1.100686303595689842e-34,-1.100686303595689842e-34,-1.100686303595689842e-34,1.100686303595689842e-34,1.100686303595689842e-34,1.100686303595689842e-34,1.100686303595689842e-34,1.100686303595689842e-34,1.100686303595689842e-34,-1.100686303595689842e-34,1.100686303595689842e-34,-1.100686303595689842e-34,-1.100686303595689842e-34,-1.100686303595689842e-34,1.100686303595689842e-34,-1.100686303595689842e-34,-1.100686303595689842e-34,-1.100686303595689842e-34,-1.100686303595689842e-34
-1.100686303595689842e-34,-1.100686303595689842e-34,-1.100686303595689842e-34,-1.100686303595689842e-34,1.100686303595689842e-34,-1.100686303595689842e-34,-1.100686303595689842e-34,-1.424038130789995193e-02,-1.100686303595689842e-34,1.100686303595689842e-34,-1.100686303595689842e-34,-1.100686303595689842e-34,7.291667163372039795e-02,-1.100686303595689842e-34,-1.100686303595689842e-34,-1.100686303595689842e-34,-1.412455644458532333e-02,-1.100686303595689842e-34,-1.418471150100231171e-02,-1.100686303595689842e-34,7.291667163372039795e-02,7.291667163372039795e-02,-1.100686303595689842e-34,-1.100686303595689842e-34,-1.427150703966617584e-02,-1.100686303595689842e-34,-1.415675785392522812e-02,-1.100686303595689842e-34,7.291667163372039795e-02,-1.427135989069938660e-02,1.100686303595689842e-34,-1.100686303595689842e-34,7.291667163372039795e-02,-1.100686303595689842e-34,-1.100686303595689842e-34,1.100686303595689842e-34,1.100686303595689842e-34,-1.100686303595689842e-34,1.100686303595689842e-34,-1.100686303595689842e-34,7.291667163372039795e-02,-1.100686303595689842e-34,-1.100686303595689842e-34,1.100686303595689842e-34,-1.100686303595689842e-34,7.291667163372039795e-02,-1.100686303595689842e-34,-1.417189836502075195e-02,-1.415592338889837265e-02,-1.100686303595689842e-34,1.100686303595689842e-34,-1.100686303595689842e-34,-1.100686303595689842e-34,-1.100686303595689842e-34,7.291667163372039795e-02,1.100686303595689842e-34,7.291667163372039795e-02,7.291667163372039795e-02,-1.100686303595689842e-34,-1.100686303595689842e-34,-1.100686303595689842e-34,1.100686303595689842e-34,-1.100686303595689842e-34,-1.100686303595689842e-34
1.100686303595689842e-34,-1.100686303595689842e-34,1.100686303595689842e-34,-1.100686303595689842e-34,1.100686303595689842e-34,-1.100686303595689842e-34,-1.100686303595689842e-34,-1.100686303595689842e-34,-1.100686303595689842e-34,-1.100686303595689842e-34,1.100686303595689842e-34,-1.100686303595689842e-34,1.100686303595689842e-34,1.100686303595689842e-34,-1.100686303595689842e-34,1.100686303595689842e-34,-1.100686303595689842e-34,-1.100686303595689842e-34,1.100686303595689842e-34,1.100686303595689842e-34,-1.100686303595689842e-34,-1.100686303595689842e-34,-1.100686303595689842e-34,-1.100686303595689842e-34,-1.100686303595689842e-34,-1.100686303595689842e-34,1.100686303595689842e-34,-1.100686303595689842e-34,-1.100686303595689842e-34,1.100686303595689842e-34,-1.100686303595689842e-34,1.100686303595689842e-34,1.100686303595689842e-34,1.100686303595689842e-34,-1.100686303595689842e-34,-1.100686303595689842e-34,1.100686303595689842e-34,1.100686303595689842e-34,-1.100686303595689842e-34,1.100686303595689842e-34,1.100686303595689842e-34,1.100686303595689842e-34,1.100686303595689842e-34,1.100686303595689842e-34,1.100686303595689842e-34,1.100686303595689842e-34,-1.100686303595689842e-34,1.100686303595689842e-34,-1.100686303595689842e-34,1.100686303595689842e-34,-1.100686303595689842e-34,-1.100686303595689842e-34,1.100686303595689842e-34,-1.100686303595689842e-34,-1.100686303595689842e-34,1.100686303595689842e-34,-1.100686303595689842e-34,-1.100686303595689842e-34,-1.100686303595689842e-34,1.100686303595689842e-34,-1.100686303595689842e-34,1.100686303595689842e-34,-1.100686303595689842e-34,-1.100686303595689842e-34
-1.100686303595689842e-34,-1.100686303595689842e-34,1.100686303595689842e-34,-1.100686303595689842e-34,-1.100686303595689842e-34,-1.100686303595689842e-34,-1.100686303595689842e-34,-1.582768373191356659e-02,-1.100686303595689842e-34,-1.100686303595689842e-34,1.100686303595689842e-34,1.100686303595689842e-34,7.291667163372039795e-02,-1.100686303595689842e-34,-1.100686303595689842e-34,-1.100686303595689842e-34,-1.562500372529029846e-02,-1.100686303595689842e-34,-1.582768373191356659e-02,-1.100686303595689842e-34,7.291667163372039795e-02,7.291667163372039795e-02,-1.100686303595689842e-34,-1.100686303595689842e-34,-1.582768373191356659e-02,1.100686303595689842e-34,-1.562799140810966492e-02,-1.100686303595689842e-34,7.291667163372039795e-02,-1.582768373191356659e-02,-1.100686303595689842e-34,-1.100686303595689842e-34,7.291667163372039795e-02,-1.100686303595689842e-34,-1.100686303595689842e-34,-1.100686303595689842e-34,-1.100686303595689842e-34,-1.100686303595689842e-34,1.100686303595689842e-34,-1.100686303595689842e-34,7.291667163372039795e-02,1.100686303595689842e-34,-1.100686303595689842e-34,-1.100686303595689842e-34,-1.100686303595689842e-34,7.291667163372039795e-02,1.100686303595689842e-34,-1.562507636845111847e-02,-1.562799140810966492e-02,1.100686303595689842e-34,-1.100686303595689842e-34,-1.100686303595689842e-34,1.100686303595689842e-34,1.100686303595689842e-34,7.291667163372039795e-02,-1.100686303595689842e-34,7.291667163372039795e-02,7.291667163372039795e-02,-1.100686303595689842e-34,1.100686303595689842e-34,1.100686303595689842e-34,1.100686303595689842e-34,1.100686303595689842e-34,-1.100686303595689842e-34
1.100686303595689842e-34,-1.100686303595689842e-34,-1.100686303595689842e-34,1.100686303595689842e-34,-1.100686303595689842e-34,-1.100686303595689842e-34,-1.100686303595689842e-34,-1.100686303595689842e-34,-1.100686303595689842e-34,1.100686303595689842e-34,1.100686303595689842e-34,-1.100686303595689842e-34,1.100686303595689842e-34,1.100686303595689842e-34,-1.100686303595689842e-34,1.100686303595689842e-34,-1.100686303595689842e-34,1.100686303595689842e-34,-1.100686303595689842e-34,-1.100686303595689842e-34,1.100686303595689842e-34,1.100686303595689842e-34,-1.100686303595689842e-34,-1.100686303595689842e-34,-1.100686303595689842e-34,-1.100686303595689842e-34,-1.100686303595689842e-34,-1.100686303595689842e-34,1.100686303595689842e-34,-1.100686303595689842e-34,-1.100686303595689842e-34,1.100686303595689842e-34,1.100686303595689842e-34,1.100686303595689842e-34,-1.100686303595689842e-34,1.100686303595689842e-34,-1.100686303595689842e-34,1.100686303595689842e-34,-1.100686303595689842e-34,1.100686303595689842e-34,1.100686303595689842e-34,1.100686303595689842e-34,-1.100686303595689842e-34,-1.100686303595689842e-34,1.100686303595689842e-34,1.100686303595689842e-34,-1.100686303595689842e-34,-1.100686303595689842e-34,-1.100686303595689842e-34,-1.100686303595689842e-34,1.100686303595689842e-34,1.100686303595689842e-34,-1.100686303595689842e-34,-1.100686303595689842e-34,1.100686303595689842e-34,-1.100686303595689842e-34,1.100686303595689842e-34,-1.100686303595689842e-34,1.100686303595689842e-34,1.100686303595689842e-34,-1.100686303595689842e-34,-1.100686303595689842e-34,1.100686303595689842e-34,-1.100686303595689842e-34
