-1.181895434856414795e-01,-1.181895434856414795e-01,1.100686303595689842e-34,1.858013272285461426e-01,-1.181895434856414795e-01,1.100686303595689842e-34,1.858013272285461426e-01,-1.181895434856414795e-01,1.100686303595689842e-34,-1.181895434856414795e-01,-1.181895434856414795e-01,1.100686303595689842e-34,-1.181895434856414795e-01,-1.100686303595689842e-34,-1.181895434856414795e-01,-1.100686303595689842e-34,-1.181895434856414795e-01,-1.181895434856414795e-01,1.100686303595689842e-34,1.100686303595689842e-34,-1.181895434856414795e-01,-1.181895434856414795e-01,-1.100686303595689842e-34,1.100686303595689842e-34,-1.181895434856414795e-01,1.858013272285461426e-01,-1.181895434856414795e-01,-1.181895434856414795e-01,-1.181895434856414795e-01,-1.181895434856414795e-01,-1.100686303595689842e-34,1.858013272285461426e-01,1.100686303595689842e-34,1.858013272285461426e-01,-1.100686303595689842e-34,-1.181895434856414795e-01,1.100686303595689842e-34,-1.100686303595689842e-34,-1.100686303595689842e-34,-1.181895434856414795e-01,-1.181895434856414795e-01,1.100686303595689842e-34,-1.100686303595689842e-34,1.858013272285461426e-01,-1.181895434856414795e-01,1.858013272285461426e-01,-1.181895434856414795e-01,-1.181895434856414795e-01,1.858013272285461426e-01,-1.100686303595689842e-34,1.858013272285461426e-01,1.100686303595689842e-34,-1.100686303595689842e-34,-1.181895434856414795e-01,1.858013272285461426e-01,1.858013272285461426e-01,-1.100686303595689842e-34,1.100686303595689842e-34,1.100686303595689842e-34,1.858013272285461426e-01,-1.100686303595689842e-34,1.100686303595689842e-34,-1.100686303595689842e-34,1.100686303595689842e-34
-8.757045865058898926e-02,-8.757045865058898926e-02,-1.100686303595689842e-34,1.369047611951828003e-01,-8.757045865058898926e-02,-1.100686303595689842e-34,1.369047611951828003e-01,-8.757045865058898926e-02,1.100686303595689842e-34,-8.757045865058898926e-02,-8.757045865058898926e-02,1.100686303595689842e-34,-8.757045865058898926e-02,1.100686303595689842e-34,-8.757045865058898926e-02,-1.100686303595689842e-34,-8.757045865058898926e-02,-8.757045865058898926e-02,-1.100686303595689842e-34,1.100686303595689842e-34,-8.757045865058898926e-02,-8.757045865058898926e-02,1.100686303595689842e-34,1.100686303595689842e-34,-8.757045865058898926e-02,1.369047611951828003e-01,-8.757045865058898926e-02,-8.757045865058898926e-02,-8.757045865058898926e-02,-8.757045865058898926e-02,-1.100686303595689842e-34,1.369047611951828003e-01,-1.100686303595689842e-34,1.369047611951828003e-01,1.100686303595689842e-34,-8.757045865058898926e-02,-1.100686303595689842e-34,-1.100686303595689842e-34,-1.100686303595689842e-34,-8.757045865058898926e-02,-8.757045865058898926e-02,1.100686303595689842e-34,-1.100686303595689842e-34,1.369047611951828003e-01,-8.757045865058898926e-02,1.369047611951828003e-01,-8.757045865058898926e-02,-8.757045865058898926e-02,1.369047611951828003e-01,-1.100686303595689842e-34,1.369047611951828003e-01,-1.100686303595689842e-34,1.100686303595689842e-34,-8.757045865058898926e-02,1.369047611951828003e-01,1.369047611951828003e-01,1.100686303595689842e-34,-1.100686303595689842e-34,-1.100686303595689842e-34,1.369047611951828003e-01,-1.100686303595689842e-34,-1.100686303595689842e-34,1.100686303595689842e-34,-1.100686303595689842e-34
-6.250162422657012939e-02,-6.250162422657012939e-02,1.100686303595689842e-34,9.577663987874984741e-02,-6.250162422657012939e-02,1.100686303595689842e-34,9.577663987874984741e-02,-6.250162422657012939e-02,-1.100686303595689842e-34,-6.250162422657012939e-02,-6.250162422657012939e-02,-1.100686303595689842e-34,-6.250162422657012939e-02,-1.100686303595689842e-34,-6.250162422657012939e-02,1.100686303595689842e-34,-6.250162422657012939e-02,-6.250162422657012939e-02,1.100686303595689842e-34,-1.100686303595689842e-34,-6.250162422657012939e-02,-6.250162422657012939e-02,1.100686303595689842e-34,-1.100686303595689842e-34,-6.250162422657012939e-02,9.577663987874984741e-02,-6.250162422657012939e-02,-6.250162422657012939e-02,-6.250162422657012939e-02,-6.250162422657012939e-02,1.100686303595689842e-34,9.577663987874984741e-02,-1.100686303595689842e-34,9.577663987874984741e-02,1.100686303595689842e-34,-6.250162422657012939e-02,1.100686303595689842e-34,1.100686303595689842e-34,1.100686303595689842e-34,-6.250162422657012939e-02,-6.250162422657012939e-02,1.100686303595689842e-34,1.100686303595689842e-34,9.577663987874984741e-02,-6.250162422657012939e-02,9.577663987874984741e-02,-6.250162422657012939e-02,-6.250162422657012939e-02,9.577663987874984741e-02,1.100686303595689842e-34,9.577663987874984741e-02,-1.100686303595689842e-34,1.100686303595689842e-34,-6.250162422657012939e-02,9.577663987874984741e-02,9.577663987874984741e-02,1.100686303595689842e-34,-1.100686303595689842e-34,1.100686303595689842e-34,9.577663987874984741e-02,1.100686303595689842e-34,1.100686303595689842e-34,1.100686303595689842e-34,-1.100686303595689842e-34
-2.901720628142356873e-02,-2.901720628142356873e-02,-1.100686303595689842e-34,6.028294563293457031e-02,-2.901720628142356873e-02,-1.100686303595689842e-34,6.028294563293457031e-02,-2.901720628142356873e-02,-1.100686303595689842e-34,-2.901720628142356873e-02,-2.901720628142356873e-02,-1.100686303595689842e-34,-2.901720628142356873e-02,1.100686303595689842e-34,-2.901720628142356873e-02,1.100686303595689842e-34,-2.901720628142356873e-02,-2.901720628142356873e-02,-1.100686303595689842e-34,-1.100686303595689842e-34,-2.901720628142356873e-02,-2.901720628142356873e-02,-1.100686303595689842e-34,-1.100686303595689842e-34,-2.901720628142356873e-02,6.028294563293457031e-02,-2.901720628142356873e-02,-2.901720628142356873e-02,-2.901720628142356873e-02,-2.901720628142356873e-02,1.100686303595689842e-34,6.028294563293457031e-02,1.100686303595689842e-34,6.028294563293457031e-02,-1.100686303595689842e-34,-2.901720628142356873e-02,-1.100686303595689842e-34,1.100686303595689842e-34,1.100686303595689842e-34,-2.901720628142356873e-02,-2.901720628142356873e-02,1.100686303595689842e-34,1.100686303595689842e-34,6.028294563293457031e-02,-2.901720628142356873e-02,6.028294563293457031e-02,-2.901720628142356873e-02,-2.901720628142356873e-02,6.028294563293457031e-02,1.100686303595689842e-34,6.028294563293457031e-02,1.100686303595689842e-34,-1.100686303595689842e-34,-2.901720628142356873e-02,6.028294563293457031e-02,6.028294563293457031e-02,-1.100686303595689842e-34,1.100686303595689842e-34,-1.100686303595689842e-34,6.028294563293457031e-02,1.100686303595689842e-34,-1.100686303595689842e-34,-1.100686303595689842e-34,1.100686303595689842e-34
