Layer 1 weights:
Weights: [[-0.42404985  0.07642969 -0.13037664 -0.02596794  0.05519545  0.02461876
   0.31473795  0.44533575 -0.02264949 -0.02690429  0.24325924  0.3202239
   0.13774104 -0.08356994 -0.48419005 -0.12689918  0.15054764 -0.05438183
   0.08833274  0.0455125   0.11190505  0.16411547  0.11835112  0.2533055
   0.29547453 -0.63827354 -0.04061064  0.3272061   0.22579363 -0.08963498]
 [-0.3341094   0.25220522  0.2992184   0.41926196  0.09731416  0.21117255
   0.47338417 -0.1307459   0.1953582   0.27744383 -0.05444774 -0.3806156
   0.26102474 -0.0718652  -0.02729156  0.03787848 -0.19287427  0.07153236
   0.14934167  0.10138749 -0.25269273  0.3250625  -0.4407823  -0.3560882
  -0.08073447 -0.03713057 -0.07418144 -0.36271232  0.43977243 -0.24303043]]
Biases: [ 0.         -0.0222328  -0.06449378  0.01612531 -0.00167539 -0.0140764
 -0.05179661  0.1783841  -0.423403    0.0821472  -0.43201265  0.3295997
 -0.10839465  0.          0.48054656  0.19150704  0.3658773   0.14021833
 -0.14056693  0.01111976 -0.00584515  0.1482311   0.08273366  0.11230519
  0.05795362  0.04229517  0.          0.19431311  0.06302924  0.        ]

Layer 2 weights:
Weights: [[ 9.04785991e-02  3.45949054e-01 -2.94386506e-01  3.09786439e-01
  -3.02332610e-01  3.42771769e-01  2.67774820e-01 -2.15522617e-01
   2.51939952e-01 -2.86204249e-01 -2.05362648e-01  2.07923353e-01
  -1.06158182e-01 -2.46865511e-01 -3.34865630e-01  3.25275362e-01
  -3.28357428e-01 -3.61666679e-02 -3.03737164e-01 -1.75694689e-01]
 [ 3.13241452e-01 -3.47832330e-02  1.58927813e-01  2.17540398e-01
   2.03395933e-01 -2.73186505e-01  2.13586807e-01 -8.29092576e-04
   2.73300886e-01 -3.58971477e-01  9.04704854e-02  1.19237117e-01
  -5.95727609e-03  3.46473813e-01 -1.19026981e-01 -2.52186954e-01
  -2.26143107e-01 -3.50995243e-01  1.69056088e-01  1.00406513e-01]
 [ 1.83179617e-01 -2.94487625e-01  1.60947710e-01  1.47476166e-01
  -5.49768172e-02 -1.22408554e-01  1.41070992e-01  1.07474871e-01
   8.22805762e-02 -4.05341715e-01  2.54722804e-01  2.92901278e-01
   2.77592824e-03  1.75650001e-01  2.82739252e-01 -5.11414744e-02
   2.01470554e-01  3.26310605e-01  2.97550648e-01 -2.17504218e-01]
 [ 9.77019519e-02 -2.42719129e-01  9.04416814e-02 -2.18992576e-01
  -3.50779951e-01 -1.53124407e-01  3.94411832e-02 -3.56596202e-01
  -2.14958265e-02 -3.30071002e-01  4.00843322e-01 -1.30477846e-01
   7.51521811e-02 -1.09864004e-01  3.04757029e-01  1.72159478e-01
   2.95631558e-01 -3.12451512e-01 -3.32268327e-01  3.81234109e-01]
 [-1.29352123e-01  2.03976691e-01 -2.50113755e-01  2.08361015e-01
   2.30773985e-01  3.07819605e-01  3.68595153e-01 -5.73718250e-02
  -2.16119364e-01 -5.55027090e-02 -1.18428625e-01  1.22610971e-01
  -8.91543701e-02 -1.91311032e-01 -3.20322186e-01 -3.28974575e-01
  -3.39327335e-01  2.70596985e-02 -2.78064832e-02  5.27533256e-02]
 [ 6.42628819e-02  2.30009019e-01  5.87040596e-02  2.52876967e-01
   5.20457029e-02  2.52022535e-01  1.57611623e-01 -7.73831010e-02
  -1.64713085e-01  2.18047172e-01  2.11983770e-02  2.88947463e-01
   8.77922773e-02  6.09385110e-02 -3.02451819e-01 -1.02934770e-01
  -2.69442379e-01  1.25703290e-01  2.30176449e-02 -3.54139023e-02]
 [ 2.13439509e-01 -1.65179759e-01  3.52394253e-01  4.12970893e-02
  -2.99116820e-02 -2.37495854e-01  3.86011600e-01 -2.47702181e-01
   2.83499062e-01 -2.86006108e-02 -2.63457466e-02  3.94477770e-02
  -1.07558571e-01  2.46289939e-01 -2.93109447e-01 -2.90830821e-01
  -3.39156151e-01 -2.89580554e-01  8.99134874e-02  2.02184200e-01]
 [-1.75219357e-01  1.41109169e-01 -6.02600351e-02  2.80544192e-01
  -4.03157294e-01  2.91196227e-01 -1.61685258e-01 -1.56375200e-01
   1.91629797e-01 -2.00018436e-01 -4.48298417e-02 -2.13941604e-01
   2.56940573e-01  8.25527385e-02  7.25490153e-02  8.77046734e-02
  -1.30027366e+00  2.67303973e-01 -3.27292085e-01 -2.08347157e-01]
 [ 2.15893477e-01 -1.89081311e-01  1.01277821e-01 -2.78619200e-01
  -1.28998205e-01  3.05543035e-01  1.57367229e-01 -1.77505240e-01
  -2.84181058e-01  1.24902828e-02 -2.24069625e-01 -2.83713698e-01
   4.22086604e-02  6.21437654e-02  4.74357866e-02 -3.62100005e-01
  -2.95171253e-02  2.09896311e-01 -9.62687582e-02  1.10088535e-01]
 [-3.52401249e-02  2.07607448e-01  3.12408656e-01  3.20085377e-01
  -4.93911095e-02 -3.06238621e-01  1.77855253e-01 -1.42672196e-01
  -1.63999736e-01  1.95721567e-01  2.45413899e-01 -2.94557959e-01
  -2.02954546e-01  1.31208628e-01  2.07357928e-01 -1.06187336e-01
  -4.85643521e-02 -2.92584747e-01 -3.25257778e-02  2.65653223e-01]
 [-9.32637379e-02 -2.96458602e-01  2.20595792e-01 -5.04951835e-01
   7.42857531e-02  3.72226648e-02 -8.51112306e-02  6.31375611e-02
   2.83756822e-01 -5.63131869e-02 -3.98091793e-01  2.63953596e-01
  -2.92797476e-01  2.23472118e-02  3.09702754e-01 -2.80167997e-01
  -7.24827230e-01 -8.89756903e-02  2.31093824e-01 -4.11659211e-01]
 [-2.63050169e-01 -9.93300825e-02  2.12517962e-01  2.92344332e-01
  -3.18173289e-01 -1.02446884e-01  3.12151074e-01 -1.00753672e-01
   2.29172736e-01  1.79665044e-01  1.44475102e-01 -2.99378157e-01
   1.83849409e-01  8.20802599e-02 -2.71609575e-01 -1.71712339e-01
   3.56822252e-01  2.83408821e-01  2.80693173e-03 -3.24872792e-01]
 [ 3.30376387e-01  1.90800160e-01  2.64077365e-01  1.13721251e-01
   1.48780704e-01 -4.45893174e-03  8.66480768e-02  2.63422966e-01
  -3.81084055e-01 -4.11736846e-01  4.52389941e-02 -1.52437955e-01
   5.89334778e-02 -7.74185061e-02 -9.08456892e-02  3.72514017e-02
   3.00319135e-01  1.31295174e-01  2.30849572e-02 -9.63315815e-02]
 [ 2.63179839e-02 -1.05633229e-01  1.45503432e-01  3.23143303e-01
   6.81050420e-02  4.34099734e-02 -3.24184030e-01 -3.21759999e-01
  -1.52060062e-01  3.81585956e-02  7.33427703e-02  4.56286669e-02
  -1.87720716e-01 -9.16950703e-02  3.44576657e-01 -2.09445834e-01
  -2.44202316e-02  1.29319161e-01  3.03619564e-01  2.06798553e-01]
 [-5.13788648e-02 -1.42422885e-01 -1.00539677e-01 -4.34809506e-01
   4.30984199e-01  2.92837709e-01  1.83695126e-02  2.50836641e-01
  -2.51260579e-01  3.24655235e-01 -1.38008535e-01  2.13655680e-01
  -4.62734967e-01 -4.41118807e-01 -3.52929026e-01 -1.99357092e-01
   4.94434774e-01 -2.42302835e-01  9.59857777e-02 -2.62239993e-01]
 [-3.06022197e-01 -2.61981815e-01 -2.68972248e-01  8.86737369e-03
   3.54388542e-02  2.34303609e-01  3.40518683e-01 -1.51997209e-02
  -1.31479636e-01  3.08697708e-02 -4.69805598e-02 -1.12503566e-01
  -2.12636590e-01  1.37393221e-01  3.30707282e-01 -2.87349373e-01
  -3.97568718e-02 -7.00126141e-02 -3.55785757e-01  1.11775726e-01]
 [-2.23771363e-01  2.43864834e-01 -8.83164406e-02  1.53899923e-01
  -9.16053832e-01  4.12892967e-01 -1.27523899e-01 -3.48767519e-01
   2.21433640e-01 -1.03594080e-01  2.79301614e-01  1.45273149e-01
   3.09765965e-01 -1.97633371e-01 -3.34268808e-03  2.29315922e-01
  -4.43005323e-01 -2.62546152e-01 -2.61569619e-01 -1.05136953e-01]
 [-3.26991528e-01 -7.55648836e-02  2.64015406e-01  2.94370502e-01
  -1.31062493e-01  2.57122159e-01  1.48711383e-01 -1.42257929e-01
   1.24203749e-01  3.18738312e-01  5.74631840e-02 -2.75178522e-01
   9.57422182e-02  3.43642458e-02 -2.74707496e-01 -3.82699281e-01
  -1.50302751e-02  3.23007703e-01 -3.50101590e-01 -2.57251590e-01]
 [ 3.22901726e-01 -3.46493721e-03 -9.28518549e-02  1.65158451e-01
  -6.71657622e-02 -2.21305132e-01 -1.06432661e-01  7.04600513e-02
   3.10172260e-01 -9.51558203e-02  5.03551625e-02 -1.84011217e-02
   2.56622970e-01 -2.76435614e-01 -2.36543134e-01  1.19154215e-01
  -2.06766367e-01  3.15515208e-03 -3.48696470e-01 -3.11441603e-03]
 [ 1.57508209e-01 -2.34245867e-01 -3.51746306e-02 -1.12870805e-01
   3.23566645e-02  1.28043070e-01  2.91140586e-01  1.89147815e-01
   1.35358199e-01 -3.13660681e-01  3.95507842e-01  2.80508250e-01
   2.55169719e-01  9.58342999e-02 -2.52845824e-01 -3.34661812e-01
   1.14943825e-01  7.57203028e-02 -1.79355636e-01  3.88182282e-01]
 [ 1.53939068e-01  2.81004250e-01 -3.27965021e-01  1.02184549e-01
  -2.27423012e-01  1.96470678e-01 -2.44055092e-01  2.19024360e-01
   3.06102335e-02 -3.10989588e-01 -2.42747530e-01 -1.70227170e-01
  -8.98373872e-02 -2.51944900e-01  3.45782936e-02 -1.44788921e-02
   4.57283556e-02 -2.22362280e-01 -1.73242405e-01  7.51031935e-02]
 [-2.99622059e-01 -7.15691373e-02  2.18888447e-01 -4.88261729e-02
   2.46521994e-01  8.50299001e-02  2.58002784e-02 -2.31335804e-01
  -2.79263645e-01 -3.58151734e-01  2.10458949e-01  1.60531588e-02
  -6.97408020e-02  2.70967692e-01 -2.98437119e-01  1.36957839e-01
   2.85146117e-01  1.20424049e-03  2.36876801e-01 -2.25398809e-01]
 [-8.28126073e-02  1.82040036e-01  2.71308631e-01 -2.25484207e-01
  -2.07610682e-01  3.33508641e-01  3.76718014e-01  1.61049813e-01
  -3.66157830e-01 -2.08395109e-01  9.11011100e-02  4.77337465e-02
   3.18337321e-01  3.83607507e-01  1.67486191e-01  2.46218532e-01
  -6.26014024e-02 -2.21175522e-01  2.93683290e-01  3.57438594e-01]
 [ 7.47630656e-01  3.53123397e-02 -6.16677403e-01 -6.73661470e-01
  -8.64343941e-02  4.22369689e-01 -2.41712883e-01  2.34226868e-01
  -2.48332337e-01  2.79508710e-01 -6.32917583e-01  6.21434927e-01
  -2.76522785e-01 -5.24889886e-01 -7.41549730e-02  3.58736753e-01
  -3.12476866e-02 -2.31085077e-01 -2.92289436e-01 -2.24336684e-01]
 [ 2.73579478e-01  2.34806791e-01  3.21896851e-01 -1.22779896e-02
  -3.19135219e-01 -1.43418133e-01  2.19578445e-01 -2.21360818e-01
   8.82903486e-02  2.50567049e-01  6.67477250e-02 -3.55354428e-01
  -2.35291757e-02 -3.08044314e-01 -3.23206663e-01  2.50085771e-01
  -8.51985395e-01 -2.41919652e-01 -2.39636362e-01  2.37142578e-01]
 [-2.54730254e-01  1.19281031e-01  1.07925057e-01  1.85206328e-02
   5.92467010e-01 -1.09607048e-01  2.63722062e-01  3.22489142e-01
  -3.30249041e-01 -2.61181176e-01  4.50019449e-01 -2.71152347e-01
  -3.24239373e-01  4.05092984e-01 -1.12579335e-02 -7.65519619e-01
   9.67347324e-02 -6.48450572e-04 -2.46210769e-01  1.87874302e-01]
 [ 9.90030169e-02 -1.84852257e-01  2.22948432e-01 -3.65387499e-02
  -1.11240968e-01 -5.45563102e-02  2.79754817e-01 -2.31747866e-01
  -2.47701824e-01  1.88733578e-01 -3.40100825e-02  8.20417106e-02
   1.79350257e-01  2.31077969e-01 -5.76713681e-03 -2.63245106e-01
  -2.85920858e-01  1.95571780e-01  2.26429701e-01 -2.57351995e-03]
 [ 1.67051092e-01 -3.18119347e-01  3.63482147e-01  4.85895537e-02
  -2.24405810e-01  2.97937598e-02  5.31524181e-01 -1.49311811e-01
  -3.66389334e-01 -2.58703619e-01 -7.38901719e-02 -3.88363510e-01
   1.65822208e-01  2.43737623e-01  2.07814574e-01 -3.22445296e-02
   1.57124266e-01 -4.51268554e-02 -1.52682707e-01 -1.92871243e-01]
 [ 9.46075656e-04 -3.32911611e-01  1.01926588e-01  6.60522729e-02
  -1.63389251e-01 -3.47755045e-01 -4.25553741e-03 -1.08031556e-01
  -2.56636798e-01  8.43760669e-02  2.74672240e-01  2.75879860e-01
  -7.37568662e-02  3.94699574e-01  5.71418665e-02  2.77752187e-02
   1.41787156e-01  2.77457118e-01 -1.29272919e-02  1.85907185e-01]
 [ 2.34983861e-01 -6.51167631e-02  1.14672363e-01 -3.46032798e-01
   2.39402056e-01  1.19249195e-01  5.36170900e-02  2.87407637e-01
  -1.01124525e-01 -2.03212500e-02  1.68060184e-01  7.14084208e-02
   2.73903191e-01  1.72739923e-02 -3.28648865e-01 -2.34844595e-01
   2.18480766e-01  1.13598615e-01  1.55638218e-01  2.56395578e-01]]
Biases: [-0.6339793  -0.02623669  0.03677553  0.2513662  -0.1588914   0.09641667
 -0.08752789 -0.02070184 -0.03628596  0.0122539   0.05791349 -0.10081808
  0.18732345  0.07599661 -0.00781517  0.00514551  0.3906314  -0.01242428
 -0.01003956  0.16548738]

Layer 3 weights:
Weights: [[ 2.60483593e-01 -2.26986215e-01 -2.75045037e-01 -4.27821904e-01
  -6.58651829e-01  4.98912036e-02 -5.11381686e-01  2.61911452e-01
   3.21700007e-01  1.37936711e-01]
 [-5.38845435e-02  3.48231345e-01  5.90078831e-02 -2.07422435e-01
   2.51809984e-01 -3.20387602e-01  3.74097854e-01 -2.60770947e-01
   3.89247984e-01  3.03928882e-01]
 [ 3.38703066e-01  4.79003131e-01 -1.14210427e-01  2.44023442e-01
  -4.17491674e-01 -1.55403554e-01  4.34035480e-01  3.85655425e-02
   3.46294194e-01  3.75947773e-01]
 [ 4.59464431e-01 -9.94675085e-02 -2.06442028e-01  1.14328571e-01
   4.88011926e-01 -3.69884312e-01  5.06089807e-01  2.24998727e-01
   4.70268756e-01 -1.13861531e-01]
 [-9.37887207e-02  5.29980808e-02  2.69375533e-01 -2.19017565e-02
   3.18088114e-01  3.19429398e-01  3.93755466e-01  1.24269962e-01
  -3.59491587e-01  1.79811746e-01]
 [-3.65768701e-01 -4.31469560e-01  2.73828149e-01  1.38375998e-01
  -3.61847043e-01 -2.80183434e-01  1.02824166e-01  2.79229671e-01
  -3.45213190e-02  1.83658764e-01]
 [ 3.18991393e-01  2.42010519e-01 -2.62334704e-01  1.08697661e-03
  -2.85523087e-01 -9.80958045e-02  3.27103585e-02  3.40196460e-01
   1.67669326e-01 -3.88359100e-01]
 [-9.40405056e-02  3.89910489e-01  1.31532550e-03 -1.00936711e-01
  -4.99737561e-02  4.06521499e-01 -1.00031450e-01 -7.32675567e-02
   3.15366298e-01  2.38949448e-01]
 [ 3.88879716e-01 -6.26590475e-03 -9.90924239e-02  1.82239950e-01
  -4.11242992e-01 -3.94608587e-01 -3.65226686e-01  2.47962311e-01
   3.11569363e-01 -4.12253618e-01]
 [-4.64774460e-01 -2.30079427e-01 -4.42548394e-02 -1.98444426e-02
  -2.23277509e-01 -3.08735073e-02  2.71420856e-03 -8.38855132e-02
   1.22456945e-01 -1.43126339e-01]
 [ 4.75834846e-01  4.37990367e-01 -1.42554551e-01 -2.20471919e-01
   1.54041156e-01 -1.85996234e-01 -3.57131451e-01 -2.55995035e-01
   4.02541220e-01 -2.45834097e-01]
 [-3.17069113e-01 -2.67250687e-01  2.70771265e-01 -3.61543566e-01
  -1.74024880e-01 -3.79520029e-01 -4.79968071e-01 -4.28237826e-01
   8.96353200e-02 -3.47411372e-02]
 [-1.29429206e-01  3.29079866e-01  1.80861115e-01 -3.89086366e-01
   2.26316780e-01  3.18826139e-02  1.97196275e-01  2.24714175e-01
  -2.81905174e-01  2.90096343e-01]
 [-3.46444286e-02  4.77026999e-01 -8.57288018e-02 -2.88762510e-01
   1.50263757e-01  2.10478485e-01 -1.97644070e-01  1.97383445e-02
   3.45063508e-01 -1.23306997e-01]
 [-3.17162931e-01 -1.68521151e-01 -1.60368830e-01 -3.23955148e-01
   4.23903763e-01 -4.46199179e-01  4.26129520e-01 -2.81693846e-01
   3.16707730e-01  3.31662059e-01]
 [ 3.51196080e-01  3.63277681e-02 -7.45196342e-02  2.34498978e-01
   5.17744645e-02  1.58308089e-01 -3.12799007e-01  1.66941687e-01
  -4.22434568e-01 -1.44110665e-01]
 [-1.70086965e-01 -4.51666027e-01 -2.76614308e-01 -2.26647928e-01
  -1.43974471e+00 -1.42905742e-01 -1.12256968e+00 -5.63411713e-02
  -1.78989127e-01  2.26216763e-01]
 [-2.07633063e-01 -3.89113873e-01  6.83096498e-02  1.99483335e-01
   4.51579869e-01  1.20279491e-02 -3.41671884e-01  3.01873177e-01
  -2.89471895e-02 -2.05593243e-01]
 [-5.82577623e-02 -9.47618708e-02 -7.05885291e-02 -4.41044748e-01
   1.98203325e-03  3.31528246e-01  1.27946734e-02  3.51757675e-01
  -3.98733735e-01  4.24563617e-01]
 [ 1.28408372e-01  1.37438267e-01  4.16970909e-01  3.00855130e-01
   4.42543566e-01 -3.69663239e-02 -4.04004842e-01 -3.20721954e-01
   3.23557884e-01  3.90601009e-01]]
Biases: [ 0.07600556  0.07737854 -0.00793832 -0.04418707  0.5578034   0.
  0.61572367 -0.10549091  0.07380299 -0.07767686]

Layer 4 weights:
Weights: [[ 0.77292883]
 [ 0.37172556]
 [-0.707651  ]
 [-0.5051496 ]
 [ 1.074019  ]
 [ 0.5783555 ]
 [ 0.6104578 ]
 [-0.31892467]
 [ 0.11905734]
 [ 0.00124296]]
Biases: [0.0800382]

