Layer 1 weights:
Weights: [[ 4.33026016e-01 -5.92100620e-03  1.64436191e-01 -2.50170887e-01
  -3.60857666e-01 -6.42456114e-02 -1.20150127e-01 -1.41014308e-01
  -4.40151058e-02 -2.43612856e-01  5.06234050e-01  7.98389077e-01
  -3.46351415e-01  4.31935221e-01  1.29974574e-01  1.92562088e-01
  -2.85455823e-01 -1.02237165e-02 -2.16190755e-01  1.94946632e-01
  -8.83910656e-02 -2.85095364e-01 -7.50350282e-02 -2.33024567e-01
  -1.18783832e-01  5.67078412e-01 -9.88558531e-02 -3.05589110e-01
  -1.50910676e-01 -3.16122591e-01]
 [-5.80660701e-01 -1.64630651e-01 -9.88810286e-02  3.00456852e-01
  -1.76603988e-01 -2.17640251e-01  1.81527153e-01 -4.14455175e-01
  -3.91778708e-01  1.43609971e-01 -2.17918232e-01 -2.34390020e-01
  -1.93549156e-01 -2.39354968e-01  4.03322458e-01  2.80338824e-01
   3.06162357e-01 -3.35696936e-01 -3.86067003e-01 -3.45876485e-01
   9.86765623e-02 -3.82148236e-01  6.95568919e-02 -2.52232254e-01
  -2.18747765e-01  2.05908760e-01  1.07758269e-01 -2.68588185e-01
   1.28619567e-01  1.67249158e-01]
 [ 1.95367384e+00 -3.53163004e-01 -5.60405970e-01 -7.05818012e-02
   1.26197547e-01  7.60260597e-02 -6.73508406e-01 -3.22067112e-01
   2.94382781e-01 -1.29972130e-01  5.38172901e-01  1.68805802e+00
   6.95053339e-02  9.87714946e-01  1.11836113e-01  1.35016000e+00
  -3.88005227e-02 -3.15451622e-03  3.56163710e-01 -1.31969258e-01
  -2.37999216e-01  4.02201772e-01  3.04282475e+00  1.16294175e-01
  -1.20365322e-02 -2.81835198e+00 -4.84460518e-02  3.98809284e-01
  -6.91446587e-02  2.98022270e-01]
 [-8.75216961e-01  3.85417789e-01 -7.14546144e-01 -4.88531649e-01
   1.51075393e-01 -8.84650871e-02  1.19830132e-01  5.83687127e-02
   1.60691231e-01 -1.60527885e-01 -3.08959752e-01 -1.02288485e+00
  -3.00032139e-01 -1.11997509e+00 -3.70052028e+00 -4.53318167e+00
  -1.79280937e-01  1.01833433e-01 -7.53094107e-02 -3.70913744e-01
  -4.54081476e-01  4.08591986e-01 -3.01348734e+00  3.35076064e-01
   2.96280175e-01 -2.58587575e+00 -3.65724087e-01  3.02274615e-01
   2.92250395e-01 -3.89421076e-01]]
Biases: [ 0.01096439  0.         -0.0639616  -0.13997798  0.         -0.02597286
 -0.1404412   0.         -0.06417493  0.         -0.00384877 -0.00092347
  0.         -0.00060936  0.00491987  0.00014626 -0.10312668  0.
 -0.01237456 -0.01576843 -0.04214315 -0.01204551  0.00172331  0.
  0.         -0.00124672 -0.0550007  -0.01889358 -0.04188378 -0.02339484]

Layer 2 weights:
Weights: [[ 7.34714195e-02 -3.74632835e-01  2.17524648e-01 -1.02104604e-01
  -1.06313005e-02  1.21480249e-01 -1.71608821e-01  8.53605047e-02
  -2.65830010e-03  2.91595832e-02  1.15877092e-01 -4.18962032e-01
  -5.07583246e-02  3.04157376e-01 -3.87937218e-01  8.51767778e-01
  -3.50219011e-01  3.92880999e-02 -1.89560854e+00 -3.14403385e-01]
 [ 1.40084743e-01 -1.56906813e-01 -2.12697849e-01 -1.57514676e-01
  -2.00987980e-01 -9.42244828e-02  2.54167914e-01  3.11301112e-01
  -2.41677657e-01 -3.06553483e-01 -9.72614288e-02 -1.62214905e-01
  -1.81995451e-01  2.32499957e-01  1.42673552e-02  2.43137538e-01
   1.38897181e-01  1.69761717e-01 -8.86702836e-02  6.15561903e-02]
 [-1.49952427e-01 -2.03090027e-01 -6.80742860e-02  2.59892531e-02
   2.16730256e-02  9.95449647e-02 -3.19004893e-01 -6.41987771e-02
  -3.56610157e-02  1.33705838e-02  3.12390178e-01  4.12013717e-02
  -2.93040186e-01  9.63932052e-02 -1.15500197e-01 -2.03635648e-01
  -3.81816700e-02 -8.40749964e-02  2.84947067e-01  1.56507716e-01]
 [ 3.42783332e-03  3.07082962e-02  1.05846025e-01  5.77014275e-02
   1.40935838e-01 -9.06710401e-02  1.00677758e-01  1.89638913e-01
  -2.10147187e-01 -1.80590466e-01  1.88340247e-01 -1.02458857e-01
   1.19962722e-01 -6.84725270e-02 -9.39108729e-02  2.24723574e-02
  -2.33554363e-01  7.00694174e-02  1.38842955e-01 -3.36160421e-01]
 [ 6.28422201e-02 -3.06656063e-01  3.13031077e-01  1.41911566e-01
   2.47464180e-01  1.08239800e-01 -2.12478399e-01 -1.33391201e-01
  -2.58425295e-01  1.91101313e-01 -4.00395095e-02 -1.28980860e-01
  -3.14926624e-01 -9.50924456e-02  3.35403085e-02 -3.32313746e-01
  -2.90260106e-01 -3.87765467e-02 -5.33181429e-03  2.29626298e-01]
 [ 2.96119750e-01  1.01101995e-01 -8.21264461e-02 -1.04858547e-01
  -1.75552711e-01 -2.76028365e-01  1.80726960e-01 -6.55826926e-03
   2.98787594e-01 -2.86621571e-01  1.89255893e-01  2.60722935e-01
   1.66906312e-01  4.75826859e-02  3.03197265e-01 -2.50735790e-01
   7.11006820e-02 -8.58346373e-02 -1.65420502e-01 -4.63135839e-02]
 [-2.06483945e-01 -3.00404150e-02 -2.01169789e-01 -1.74925968e-01
   7.53156543e-02 -3.76796663e-01  3.30909431e-01 -4.60186787e-02
   2.05297247e-02 -2.28948981e-01 -2.74632514e-01  2.11989224e-01
  -5.41629672e-01 -4.19008806e-02  6.25259802e-02 -7.79067278e-02
  -3.16170394e-01 -5.34130298e-02  1.22081101e-01  4.41256166e-02]
 [-3.10579360e-01 -2.88140833e-01  3.52753699e-02  3.43331575e-01
  -3.31343055e-01  1.87544465e-01  2.47680843e-01  9.11768973e-02
  -2.29372561e-01 -1.69734120e-01 -1.86396286e-01  9.42657888e-02
   1.17041796e-01 -2.55979776e-01  2.96955645e-01  9.64259505e-02
   6.63301349e-03 -5.98078370e-02  3.06031585e-01 -2.91907459e-01]
 [ 3.09525490e-01  3.45307499e-01 -1.65191934e-01 -1.99191555e-01
   7.43389577e-02  2.21572280e-01 -1.88186362e-01 -1.47035494e-01
   8.70396793e-02 -2.23651886e-01  1.73628867e-01  2.72688061e-01
  -1.65904179e-01 -1.62486464e-01 -3.22169155e-01  8.27762708e-02
   1.71409249e-01 -1.43131092e-01  8.03769082e-02  3.36615801e-01]
 [-1.60309374e-01  1.54115021e-01 -2.19467297e-01  1.35708869e-01
   2.02691138e-01  1.89803720e-01 -5.38255572e-02  1.08680129e-03
  -2.09645793e-01  1.77748561e-01  3.02970767e-01 -1.68019459e-01
  -2.16106355e-01 -2.11245984e-01  2.47342885e-01 -1.92305446e-03
   2.61543989e-01 -2.93470740e-01 -1.88301399e-01  3.33412945e-01]
 [-3.17276791e-02 -4.53545637e-02 -7.97323406e-01 -5.81723690e-01
   1.00133911e-01  1.50170520e-01 -1.00927718e-01 -3.25359523e-01
  -3.14196259e-01 -1.07863352e-01 -3.41888934e-01 -5.13914526e-02
  -1.20548636e-01 -3.33776742e-01  5.76911531e-02 -6.49691641e-01
  -3.34105939e-01 -2.07911700e-01  1.63563997e-01 -2.81432539e-01]
 [-2.69692719e-01  1.47382706e-01  1.33604214e-01  4.01646823e-01
   1.23944628e+00  1.22033226e+00  5.30234277e-01  1.95959240e-01
  -3.20388407e-01  6.96790777e-03 -4.84576002e-02  4.68765423e-02
   2.87954181e-01 -3.41703534e-01  4.98028509e-02  2.45367900e-01
  -6.71243519e-02 -7.35007226e-01 -1.38473272e-01 -2.87618395e-02]
 [-3.16902995e-01 -1.87328562e-01 -2.85562932e-01  2.58454621e-01
  -3.43787402e-01 -2.93869793e-01  3.00266445e-01  3.35968733e-02
   1.69755042e-01  9.67876017e-02 -4.67768312e-03  3.23765397e-01
  -6.15613163e-02  2.61801958e-01 -1.31216004e-01  4.01422381e-03
  -1.67249545e-01 -3.40705633e-01 -1.86127529e-01  2.40354478e-01]
 [ 2.77012378e-01 -1.97418079e-01  7.07098186e-01 -2.87270248e-01
   4.49829429e-01  2.45188221e-01  1.19021498e-01 -2.40358397e-01
  -3.08934487e-02  9.58450884e-02 -2.61768490e-01 -1.69019416e-01
  -3.69564623e-01 -1.49358749e-01 -1.28166094e-01  2.05246449e-01
   2.68066645e-01  1.89852849e-01  2.07141325e-01 -2.01982215e-01]
 [-3.23172718e-01 -1.48035914e-01  2.13612032e+00  8.68903816e-01
  -8.70329961e-02  2.89499700e-01 -8.27000141e-02  3.08733523e-01
   3.48053277e-02 -1.69849128e-01 -1.20812524e-02 -1.10787213e-01
  -1.38847321e-01 -8.21650550e-02  2.71913975e-01 -2.09078465e+01
   9.31609422e-02  1.57352090e-01  3.58580589e+00 -1.32791862e-01]
 [-3.12902063e-01 -6.02392852e-02  4.36525121e-02 -5.79613924e-01
   1.22653022e-01 -1.80718884e-01  1.22316174e-01  8.51900410e-03
   2.19836190e-01  8.12684819e-02 -3.18842739e-01  1.37757193e-02
   2.47738272e-01 -9.10815299e-02  2.21392855e-01 -4.54769659e+00
   2.64303297e-01 -8.83478999e-01 -5.27449560e+00 -3.09490766e-02]
 [-6.57552704e-02  4.08580564e-02 -5.55854887e-02  7.12333098e-02
   3.26808900e-01 -3.98018509e-01  2.47955620e-01  3.20982844e-01
  -1.72274217e-01 -1.53336897e-01  6.48880601e-02  2.50241190e-01
  -1.47482827e-01 -1.31473050e-01 -3.55489135e-01 -7.90686160e-02
   1.37045041e-01  2.33603895e-01  1.94445461e-01 -1.58764526e-01]
 [ 2.47923970e-01 -3.32961500e-01  1.10693961e-01 -1.69378489e-01
   1.12126917e-01  9.85158980e-02  1.72350705e-01  1.78617179e-01
   6.59107864e-02  1.52021080e-01  2.03255117e-01  4.31519747e-03
   1.27862424e-01  2.36432493e-01 -2.73052990e-01  1.95647240e-01
   1.95583701e-02 -3.25274229e-01 -2.24819183e-01  3.37029457e-01]
 [ 1.59705579e-02 -1.62850365e-01  2.73204565e-01 -1.94958284e-01
  -5.34883551e-02  1.13222733e-01 -3.62597331e-02 -1.47378251e-01
   1.20108962e-01 -2.26332232e-01  1.63317561e-01 -1.36850357e-01
   7.21377209e-02  8.71950388e-02  2.51291633e-01  7.59686530e-02
   5.13196588e-02 -2.54608661e-01  3.34306806e-01 -2.99507678e-01]
 [ 6.84902370e-02  1.37389481e-01  1.20467663e-01 -2.00987488e-01
  -3.20963532e-01  1.46384820e-01 -2.42104545e-01 -1.46301851e-01
  -6.20832145e-02 -6.50227070e-04 -1.53759450e-01 -2.54900783e-01
  -3.44895601e-01  9.26069617e-02  2.28008509e-01  1.24339104e-01
  -3.13837498e-01  2.60943055e-01 -3.16829741e-01 -2.73303330e-01]
 [-1.81628913e-01 -3.44242960e-01  2.06801116e-01  1.22579761e-01
   6.04836009e-02  2.17708215e-01  1.67478845e-01 -2.86466211e-01
  -3.43259364e-01  2.37824306e-01 -1.30339801e-01 -2.13710070e-01
  -2.71093994e-02 -2.15239868e-01 -1.45553112e-01 -4.44990443e-03
  -2.28486449e-01  8.52745920e-02  2.19086096e-01  5.58029823e-02]
 [-1.37571931e-01  6.52237833e-02 -6.30495846e-02 -2.09050775e-02
  -5.99423572e-02  8.90750214e-02  1.73711538e-01  8.19260180e-02
   2.15141892e-01  2.74362624e-01 -1.92179382e-02 -1.32492095e-01
   6.40018880e-02 -1.66606009e-02  2.08758593e-01 -2.38682255e-01
   2.81684399e-02 -2.42161736e-01 -2.27860153e-01 -2.77345806e-01]
 [ 2.84648705e-02 -1.42415911e-01 -4.70695436e-01 -7.24547029e-01
   2.26968110e-01 -7.87035897e-02 -1.68714300e-01  5.82635636e-03
   2.29936182e-01 -1.56629458e-01 -2.05815762e-01  6.41033888e-01
   1.08545490e-01  2.75785983e-01  6.01030290e-02  3.82394028e+00
  -2.73002148e-01 -1.32527187e-01 -6.20881271e+00  1.87645182e-01]
 [-1.66566193e-01  3.27345014e-01 -1.75645471e-01 -1.32581890e-01
  -3.46375465e-01  5.15730381e-02  2.68768966e-02  3.09984326e-01
   3.39132845e-01  9.47764516e-02  3.29052508e-02  6.32626712e-02
   1.73607767e-01  1.12463146e-01  3.38991463e-01  1.00363702e-01
  -3.30534428e-01  7.23147690e-02  1.62410319e-01  2.36100078e-01]
 [ 2.84949303e-01 -3.01722020e-01  1.47445142e-01  5.42455912e-02
   1.84500575e-01  2.54046202e-01  3.12661886e-01 -3.13429177e-01
  -3.46781611e-02  6.75850511e-02 -2.57730961e-01  8.50377083e-02
   7.89594352e-02 -3.02458078e-01 -2.77214736e-01  3.38438749e-01
  -2.70276636e-01 -5.63909709e-02 -2.89321542e-01 -2.23600388e-01]
 [-1.38868600e-01 -1.41894966e-01  1.25579655e+00  9.18377843e-03
   2.25122005e-01  7.04323947e-01 -3.13185185e-01 -1.84149951e-01
   9.19394642e-02 -3.04913998e-01  2.56121933e-01  2.63398588e-01
   5.19024804e-02  2.96514601e-01 -3.21582705e-01 -1.13191999e-01
   7.06134317e-03  1.24758840e-01  5.64290285e-01  6.71516359e-02]
 [-2.00500041e-01  1.41701505e-01  1.28989276e-02 -9.15751010e-02
  -1.17640592e-01  4.48387451e-02  8.56549889e-02  3.10433097e-02
   7.96803385e-02 -1.90406978e-01  1.01861499e-01  1.36409327e-01
   7.38865063e-02  2.80283019e-02 -1.56884775e-01 -1.17639333e-01
   9.99569371e-02 -1.39385030e-01 -1.73187226e-01 -2.70476669e-01]
 [ 2.90392876e-01  1.18789166e-01  3.15156013e-01 -3.28421831e-01
   1.84846058e-01 -8.50845203e-02 -2.40818784e-01 -8.76791179e-02
  -1.27062693e-01 -4.61215489e-02  1.92080498e-01  2.75668055e-01
  -2.82433033e-01 -3.83979082e-03 -1.88442469e-01 -2.49098182e-01
   1.83632970e-03 -7.02968761e-02  2.38337070e-01  1.66680515e-01]
 [-2.71603495e-01 -2.81500369e-01 -2.19550263e-02  6.12396635e-02
   7.43490085e-02 -1.23910038e-02  3.27445298e-01  4.89028096e-02
   6.18280396e-02 -1.43051296e-01  2.63806581e-01 -2.81568438e-01
   1.64529830e-01  2.18122959e-01 -8.32985714e-02  6.51127426e-03
   4.32296880e-02  9.66208354e-02 -2.05149010e-01 -1.36994794e-01]
 [-2.02362463e-01  2.21371174e-01  5.09218425e-02 -1.24720499e-01
  -2.45306537e-01  3.20558816e-01 -1.15755899e-02 -3.13720942e-01
   1.03288651e-01 -3.40956360e-01 -1.34589180e-01  1.93235308e-01
  -2.67655224e-01  2.68730760e-01  9.83537734e-02  1.66584432e-01
  -7.31112063e-02  1.57122239e-01  3.81695889e-02  5.19656837e-02]]
Biases: [-0.00873161 -0.1314036  -0.01200426 -0.29830655  0.00058067 -0.0035115
  0.00047737 -0.04349849 -0.00770777 -0.06949601 -0.0329536  -0.17524262
 -0.2294986  -0.03077276 -0.11277083 -0.01514426 -0.12092228 -0.00410266
 -0.01390713 -0.01078549]

Layer 3 weights:
Weights: [[-9.61360633e-02 -1.11246733e-02  3.27338427e-01  1.58928484e-02
   1.35230124e-01  1.16804242e-01 -4.63829339e-02  6.70153499e-02
  -5.23383319e-02 -2.84756213e-01]
 [-2.64216840e-01  1.70002237e-01  1.91449866e-01 -3.70128274e-01
   1.24501280e-01  1.27565950e-01 -8.92475247e-02  3.08709800e-01
   1.58747077e-01  1.56552255e-01]
 [-1.07294515e-01 -7.64150694e-02 -8.52540359e-02  1.72716305e-01
  -3.78850200e-05 -3.90312523e-01  2.98512399e-01  8.55652764e-02
   2.53335178e-01  1.28080770e-01]
 [-1.33336291e-01 -1.56109884e-01 -2.05802187e-01 -4.83615324e-02
  -2.29824111e-01  2.97193199e-01  2.70648241e-01  2.90251642e-01
  -1.15586936e-01 -7.20394254e-02]
 [-4.11462598e-02  6.27345264e-01  1.71922714e-01 -1.59080535e-01
   3.60799849e-01  4.36197132e-01  1.10117279e-01 -1.52650595e-01
  -3.25544626e-01 -3.49055380e-02]
 [ 2.02583194e-01  6.30005002e-01 -2.40293607e-01 -1.56753689e-01
  -2.68334717e-01  4.49002862e-01 -5.06732106e-01  1.22203395e-01
  -3.42665464e-01  8.42368323e-03]
 [-3.54380339e-01  1.99359760e-01 -8.30882251e-01  6.23654187e-01
  -3.19334835e-01  2.60314513e-02 -2.69981474e-01 -7.56128967e-01
  -2.84817278e-01  6.05574071e-01]
 [ 1.25294313e-01  3.70610245e-02  8.09536651e-02 -3.73936385e-01
   2.31314152e-01  1.85664698e-01 -2.69431889e-01  3.68429124e-01
  -5.95242381e-02  2.22832471e-01]
 [-1.25312619e-02 -3.10310066e-01 -1.35836452e-01 -2.25701928e-03
   1.87690333e-01 -3.58225197e-01 -3.36978942e-01  3.08247089e-01
  -3.01214486e-01 -1.05451286e-01]
 [-1.83957756e-01  1.84094816e-01 -3.16769391e-01  2.17809796e-01
   9.54233781e-02  3.12796056e-01 -3.99434179e-01 -4.09934223e-01
   3.24806213e-01 -3.33480909e-02]
 [-3.74496013e-01  5.36450325e-03  4.50944573e-01 -3.23478788e-01
  -2.10097828e-03  2.48644263e-01  1.96606159e-01 -1.22914165e-01
  -2.51754254e-01  2.24786028e-01]
 [-2.28069842e-01 -4.36414517e-02  1.72288740e+00  1.33155465e-01
   5.43140620e-03  7.91904852e-02 -5.23343444e-01 -4.68186736e-01
  -1.60382926e-01 -1.80036202e-01]
 [ 4.14507359e-01 -1.53904885e-01 -5.17920375e-01 -4.52285588e-01
   4.30352509e-01 -6.93177655e-02 -3.58387709e-01  1.81928575e-01
  -4.27375704e-01 -3.97645622e-01]
 [ 3.16406973e-02 -1.59984604e-01 -3.21792543e-01 -4.31725323e-01
   3.41830224e-01 -1.95687413e-01 -9.89400744e-02 -6.44976199e-02
   4.10672128e-02  1.27505302e-01]
 [ 2.64089882e-01 -1.40260935e-01  4.09885980e-02  1.63797736e-01
  -3.44847649e-01  3.06402743e-01  3.92877996e-01  4.11849260e-01
   4.18694675e-01  2.26929814e-01]
 [-2.25250110e-01 -5.20249940e-02  2.13001832e-01  1.02115422e-01
   2.11123973e-02 -3.93463552e-01  5.50364256e-02  5.53318523e-02
   3.00490052e-01  2.09565550e-01]
 [-8.81169066e-02 -1.57688498e-01 -4.23867285e-01  2.48328567e-01
   2.02425674e-01  2.66320586e-01 -8.76694918e-03  4.25594270e-01
   1.27087831e-01 -1.04759142e-01]
 [-1.61536217e-01 -1.45381510e-01 -1.09631822e-01  2.17019603e-01
  -1.93204358e-01  2.52383947e-01  8.24924931e-02 -4.32811588e-01
   1.43578187e-01 -1.61521122e-01]
 [-4.60426092e-01  4.01177347e-01 -1.46382964e+00  1.31946099e+00
   5.75887933e-02 -2.48875201e-01  1.43189460e-01  3.02605867e-01
  -6.93837702e-02  2.03735203e-01]
 [ 3.07092160e-01 -3.88310879e-01 -4.11118805e-01  9.88021046e-02
   1.22109368e-01 -3.58928919e-01 -3.09968203e-01 -2.76480913e-01
   6.45970106e-02 -1.07539482e-01]]
Biases: [-0.09471207  0.00052048 -0.14650929  0.05013483 -0.08337131  0.00047907
 -0.15579619 -0.36443508 -0.06822612 -0.2599804 ]

Layer 4 weights:
Weights: [[-0.01940312]
 [ 0.60155547]
 [ 0.00718129]
 [-0.04022871]
 [ 0.00201207]
 [ 0.282339  ]
 [ 0.19455805]
 [-0.24915013]
 [-0.52944523]
 [-0.0184861 ]]
Biases: [0.00538834]

