4.237129539251327515e-02,4.490098059177398682e-01,1.375650763511657715e-01,3.071631537750363350e-03,-5.845068767666816711e-02,2.203569263219833374e-01,-2.102059274911880493e-01,2.009948343038558960e-01,1.867101937532424927e-01,-1.456073224544525146e-01,3.380246460437774658e-02,-1.051642000675201416e-01,6.965550780296325684e-02,2.378813736140727997e-02,-2.058777064085006714e-01,4.252505004405975342e-01,-3.332687616348266602e-01,-4.920409619808197021e-02,-1.784344762563705444e-01,-2.805030643939971924e-01
1.225173100829124451e-01,2.968185544013977051e-01,1.518734693527221680e-01,-3.115085065364837646e-01,-1.899825632572174072e-01,-2.294275723397731781e-02,8.652573078870773315e-02,-2.765310108661651611e-01,-3.664145767688751221e-01,2.806335389614105225e-01,-1.409526765346527100e-01,3.500746563076972961e-02,4.035041630268096924e-01,1.835979670286178589e-01,-1.943052001297473907e-02,1.832943707704544067e-01,-1.345126032829284668e-01,-4.335223883390426636e-02,-3.601305186748504639e-01,1.306611746549606323e-01
1.441189348697662354e-01,2.982458472251892090e-01,3.038782998919487000e-02,2.908886075019836426e-01,-6.880879402160644531e-03,-1.622234880924224854e-01,-5.182554125785827637e-01,1.348953992128372192e-01,-1.170815229415893555e-01,1.509633511304855347e-01,7.006219774484634399e-02,2.102313041687011719e-01,4.613287448883056641e-01,-9.232454933226108551e-03,5.324171781539916992e-01,3.952291011810302734e-01,-3.334542214870452881e-01,1.757548600435256958e-01,-3.071275949478149414e-01,1.338457688689231873e-02
2.944955527782440186e-01,1.939274221658706665e-01,1.560268700122833252e-01,-1.844282299280166626e-01,-3.187867999076843262e-01,4.448166489601135254e-02,-1.091389656066894531e-01,-2.755340039730072021e-01,2.794743776321411133e-01,-3.020013570785522461e-01,2.500811815261840820e-01,1.752519011497497559e-01,-3.392717242240905762e-02,-3.254069387912750244e-01,-1.114289462566375732e-01,1.777052283287048340e-01,-3.094291388988494873e-01,-1.574098169803619385e-01,-3.196625113487243652e-01,-9.297904372215270996e-02
1.542368438094854355e-02,-5.885686278343200684e-01,-4.301573634147644043e-01,3.109096288681030273e-01,-2.178970128297805786e-01,-3.401289880275726318e-01,-3.477714657783508301e-01,1.927567273378372192e-01,-5.123768448829650879e-01,4.190952479839324951e-01,2.593193054199218750e-01,3.260806798934936523e-01,2.579775750637054443e-01,-1.815409213304519653e-01,2.453168630599975586e-01,-5.934238433837890625e-01,1.073364019393920898e-01,-2.525080367922782898e-02,1.088150031864643097e-02,-2.550395131111145020e-01
2.509011626243591309e-01,1.902605295181274414e-01,-2.019740343093872070e-01,2.866283357143402100e-01,-2.419075220823287964e-01,-3.592530488967895508e-01,-5.348887294530868530e-02,3.744516056030988693e-03,9.244447574019432068e-03,-3.052759766578674316e-01,-3.055313527584075928e-01,-8.734995871782302856e-02,2.536144554615020752e-01,1.223195716738700867e-01,5.341411828994750977e-01,-6.456672400236129761e-02,1.292103677988052368e-01,4.669376090168952942e-02,2.693112567067146301e-02,4.131704196333885193e-02
-8.425357937812805176e-02,-4.655832052230834961e-02,-1.450082063674926758e-01,2.610337138175964355e-01,-2.841330170631408691e-01,-2.542214989662170410e-01,1.244750618934631348e-01,2.610761113464832306e-02,-2.160594612360000610e-01,-9.495959430932998657e-02,8.726554363965988159e-02,-1.432423591613769531e-01,-3.605173528194427490e-02,-4.024112597107887268e-02,6.476542353630065918e-02,1.271160691976547241e-01,-3.888645768165588379e-02,1.735719144344329834e-01,-1.282640993595123291e-01,-2.226551324129104614e-01
3.324057161808013916e-01,1.760477870702743530e-01,3.208045661449432373e-01,7.781179249286651611e-02,-3.659518063068389893e-01,-1.910361498594284058e-01,-2.457655966281890869e-01,-1.172076612710952759e-01,2.306908220052719116e-01,-2.752168774604797363e-01,-7.940157502889633179e-02,7.496815919876098633e-02,2.092252299189567566e-02,-3.281336128711700439e-01,2.122930884361267090e-01,3.339415416121482849e-02,-8.598592132329940796e-03,6.194799020886421204e-02,-5.941220745444297791e-02,-1.765735298395156860e-01
-2.207535207271575928e-01,-5.443605184555053711e-01,-1.338711082935333252e-01,-3.311629295349121094e-01,-3.574702739715576172e-01,-2.333983331918716431e-01,1.486091017723083496e-01,-2.767737507820129395e-01,5.275586992502212524e-02,-2.275013029575347900e-01,-1.477876156568527222e-01,-1.691639423370361328e-01,3.027368783950805664e-01,-8.675830811262130737e-02,-3.260295093059539795e-01,-1.630167216062545776e-01,1.765260845422744751e-01,8.035804331302642822e-02,-7.842141389846801758e-02,-2.538176774978637695e-01
2.359660416841506958e-01,-8.467130362987518311e-02,2.788370251655578613e-01,2.547012567520141602e-01,2.769179344177246094e-01,1.510963141918182373e-01,-8.302172273397445679e-02,3.304841220378875732e-01,-1.602029651403427124e-01,8.073666691780090332e-02,-6.609629839658737183e-02,3.318497836589813232e-01,6.115196645259857178e-02,-8.804081007838249207e-03,-2.069162949919700623e-02,1.323778033256530762e-01,9.872081875801086426e-02,3.390180692076683044e-02,-9.190908074378967285e-02,2.306581735610961914e-01
-6.438890099525451660e-02,1.353575587272644043e-01,-8.857768028974533081e-02,1.519640982151031494e-01,-1.690464764833450317e-01,2.739940285682678223e-01,-1.217256858944892883e-01,1.088661253452301025e-01,5.364573001861572266e-02,-2.905947268009185791e-01,8.383930474519729614e-02,-3.276350796222686768e-01,-1.479102969169616699e-01,1.116259619593620300e-01,-2.609481215476989746e-01,-1.936159431934356689e-01,3.337503075599670410e-01,-2.736469507217407227e-01,3.137588500976562500e-01,-1.605840772390365601e-01
2.389098703861236572e-01,-5.339880585670471191e-01,1.666193902492523193e-01,-2.834280431270599365e-01,-9.184035658836364746e-02,-2.356495857238769531e-01,6.000427901744842529e-02,5.667228251695632935e-02,-6.997820138931274414e-01,1.994834840297698975e-01,-1.584948450326919556e-01,-1.508669275790452957e-02,1.794774532318115234e-01,2.124576419591903687e-01,-1.414877325296401978e-01,-6.242859959602355957e-01,-8.694875985383987427e-02,2.040127515792846680e-01,-1.322053968906402588e-01,-1.399342715740203857e-01
-3.861304521560668945e-01,2.268652766942977905e-01,5.805788934230804443e-02,-2.381152659654617310e-01,1.760705113410949707e-01,-2.264578789472579956e-01,2.895646169781684875e-02,-2.174857556819915771e-01,1.755280233919620514e-02,-3.050304651260375977e-01,-5.258982777595520020e-01,-9.197431802749633789e-02,1.130006834864616394e-01,-2.652594745159149170e-01,1.216317936778068542e-01,2.801372408866882324e-01,-1.756483465433120728e-01,-6.799671053886413574e-02,-1.706519424915313721e-01,-3.257838785648345947e-01
-2.885549366474151611e-01,5.553065985441207886e-02,-2.787789404392242432e-01,-9.799280017614364624e-02,-2.988698892295360565e-02,-3.349760174751281738e-02,3.398981690406799316e-01,-1.330377012491226196e-01,1.131110414862632751e-01,-2.822879552841186523e-01,2.824585139751434326e-01,-7.824582606554031372e-02,-3.320459425449371338e-01,-5.844714120030403137e-02,1.485427170991897583e-01,-1.487053781747817993e-01,-1.770648360252380371e-01,2.033839374780654907e-01,-1.308161467313766479e-01,3.355994820594787598e-01
-2.829393446445465088e-01,2.699629962444305420e-01,-2.047246545553207397e-01,1.658413857221603394e-01,7.164196670055389404e-02,-2.277094423770904541e-01,-1.595711559057235718e-01,-3.584704995155334473e-01,1.459212414920330048e-02,5.644964799284934998e-02,-3.010487556457519531e-01,6.724107265472412109e-02,3.023668825626373291e-01,3.396475315093994141e-01,-8.929572254419326782e-02,3.541541472077369690e-02,-2.949211895465850830e-01,-3.721170127391815186e-01,-2.332065105438232422e-01,1.466634683310985565e-02
1.466143727302551270e-01,3.445827662944793701e-01,-1.704090684652328491e-01,2.607411146163940430e-01,1.906850039958953857e-01,2.881435751914978027e-01,1.260427087545394897e-01,-3.035605847835540771e-01,6.902060005813837051e-03,-2.442467212677001953e-01,2.316358685493469238e-01,-4.763770103454589844e-02,2.361069321632385254e-01,-3.013435006141662598e-02,2.845796942710876465e-01,-3.149431645870208740e-01,-2.022948116064071655e-01,-1.652636192739009857e-02,-3.074691593647003174e-01,-2.379007041454315186e-01
1.178607940673828125e-01,-1.837376058101654053e-01,6.007426977157592773e-02,1.439578682184219360e-01,3.981549758464097977e-03,-2.873026132583618164e-01,1.475217044353485107e-01,-1.383756250143051147e-01,1.319611519575119019e-01,2.447369843721389771e-01,1.669678688049316406e-01,1.640080362558364868e-01,-2.265546172857284546e-01,-2.512681782245635986e-01,-1.721765249967575073e-01,-8.996140211820602417e-02,-1.407063454389572144e-01,2.263215184211730957e-01,2.001682370901107788e-01,-2.622918188571929932e-01
-1.803663372993469238e-02,1.910064369440078735e-01,-3.702368214726448059e-02,1.054703667759895325e-01,-1.170133724808692932e-01,2.122209221124649048e-01,-5.796169042587280273e-01,-2.693077921867370605e-01,1.239932775497436523e-01,-1.008314732462167740e-02,-3.288451135158538818e-01,3.082969188690185547e-01,-9.851573407649993896e-02,-1.700514853000640869e-01,-9.580150991678237915e-02,1.138789877295494080e-01,2.376785129308700562e-01,1.235082522034645081e-01,1.146981418132781982e-01,1.556923389434814453e-01
1.724162697792053223e-01,8.855122327804565430e-02,1.331210434436798096e-01,1.255918145179748535e-01,2.091987282037734985e-01,-2.816326022148132324e-01,1.017022207379341125e-01,4.764692112803459167e-02,-1.072462052106857300e-01,-4.022793769836425781e-01,-1.103676930069923401e-01,-3.266221284866333008e-01,1.752537339925765991e-01,-1.704585552215576172e-02,1.900006830692291260e-01,-7.500229775905609131e-02,-2.436101734638214111e-01,-4.768380522727966309e-02,8.454077877104282379e-03,4.885304719209671021e-02
6.552390754222869873e-02,-8.225612342357635498e-02,-1.753597259521484375e-01,-1.859773099422454834e-01,-1.400226056575775146e-01,-3.560074605047702789e-03,1.062416583299636841e-01,-5.279267951846122742e-02,-1.124249249696731567e-01,-1.835061609745025635e-01,-3.624646663665771484e-01,-1.803212016820907593e-01,1.163769885897636414e-01,-4.708984866738319397e-02,-8.499681949615478516e-02,2.963045835494995117e-01,-4.245096445083618164e-01,1.591487824916839600e-01,1.526069641113281250e-01,-2.447774559259414673e-01
1.425065994262695312e-01,2.735953927040100098e-01,-1.923893541097640991e-01,-6.121417135000228882e-02,1.904056519269943237e-01,9.906828403472900391e-03,-2.477351576089859009e-01,-1.289966702461242676e-01,-4.005815833806991577e-03,9.155273437500000000e-04,2.181978225708007812e-01,-1.226527690887451172e-01,3.934125006198883057e-01,-1.463003158569335938e-01,3.245500922203063965e-01,2.386264055967330933e-01,-2.439544200897216797e-01,-6.593021750450134277e-02,1.143870949745178223e-01,2.402263879776000977e-02
1.152688488364219666e-01,-4.923139140009880066e-02,-2.277263849973678589e-01,3.234212994575500488e-01,4.140436649322509766e-03,7.521229982376098633e-02,-1.098951250314712524e-01,7.940120249986648560e-02,-2.221819758415222168e-01,3.124326467514038086e-01,2.521382272243499756e-01,-8.533337712287902832e-02,1.500723063945770264e-01,5.221432447433471680e-02,-2.385564744472503662e-01,-1.169785410165786743e-01,-2.790001034736633301e-01,1.238804236054420471e-01,2.396475672721862793e-01,-6.898695230484008789e-02
4.055707529187202454e-02,2.803877294063568115e-01,2.550005912780761719e-01,2.972242534160614014e-01,-4.084301590919494629e-01,1.466776430606842041e-01,2.638161480426788330e-01,2.605805397033691406e-01,-4.273636266589164734e-02,-2.053135037422180176e-01,4.636184778064489365e-03,-2.132418751716613770e-01,-1.033395528793334961e-01,4.996871948242187500e-01,4.224106669425964355e-02,4.706130176782608032e-02,-5.339318513870239258e-02,-1.154322922229766846e-02,5.042916908860206604e-02,1.729736477136611938e-01
1.962184906005859375e-01,4.080100059509277344e-01,2.553551197052001953e-01,-3.479511439800262451e-01,6.798885017633438110e-02,1.956952512264251709e-01,-4.121509492397308350e-01,2.196307629346847534e-01,-1.106877848505973816e-01,-2.166407555341720581e-01,-5.568617582321166992e-02,-1.858426779508590698e-01,-8.588688820600509644e-02,3.077445551753044128e-02,-2.857146225869655609e-02,2.185706049203872681e-01,-2.201368510723114014e-01,-4.201522469520568848e-01,-4.446877539157867432e-01,-1.621618866920471191e-01
-1.927642971277236938e-01,6.336344871670007706e-03,-2.480056881904602051e-01,-3.757581114768981934e-01,-3.163012564182281494e-01,-3.132224678993225098e-01,4.599436372518539429e-02,2.652148306369781494e-01,-3.451919183135032654e-02,1.589502841234207153e-01,-1.892247349023818970e-01,8.586984127759933472e-02,1.874014288187026978e-01,-2.131573557853698730e-01,-7.149814069271087646e-02,8.866715431213378906e-02,1.554862558841705322e-01,-7.912473380565643311e-02,-3.197658658027648926e-01,-1.431811749935150146e-01
-1.763016879558563232e-01,-2.137711346149444580e-01,1.184764727950096130e-01,-4.073750972747802734e-02,-3.400307595729827881e-01,1.204142272472381592e-01,-5.282353162765502930e-01,3.287765681743621826e-01,1.042884141206741333e-01,2.741556465625762939e-01,3.190423250198364258e-01,-9.913528710603713989e-02,-1.366854459047317505e-01,-1.020962595939636230e-01,-1.778651587665081024e-02,-2.634547948837280273e-01,1.720478385686874390e-01,-9.679812192916870117e-02,9.837955236434936523e-02,-1.281326562166213989e-01
-3.295893073081970215e-01,3.049282431602478027e-01,1.532813720405101776e-02,-5.308774858713150024e-02,6.184430792927742004e-02,2.435947954654693604e-02,1.532511860132217407e-01,-3.657945990562438965e-02,-1.764322966337203979e-01,-4.590286612510681152e-01,-2.607514560222625732e-01,-2.879701256752014160e-01,1.522339433431625366e-01,-2.503160536289215088e-01,-2.055202126502990723e-01,2.975835502147674561e-01,-3.930155038833618164e-01,-2.719244956970214844e-01,-4.382285475730895996e-01,1.663640290498733521e-01
-3.950568288564682007e-02,-4.649660885334014893e-01,-3.089670240879058838e-01,1.340153068304061890e-01,-3.206694424152374268e-01,-9.511768817901611328e-02,1.079500839114189148e-02,-2.123722285032272339e-01,8.627975732088088989e-02,-3.486786484718322754e-01,3.708944842219352722e-02,-2.217079102993011475e-01,3.815921843051910400e-01,2.952744252979755402e-02,1.176113709807395935e-01,-2.311867326498031616e-01,-7.802518457174301147e-02,-3.653293251991271973e-01,-2.808959968388080597e-02,2.016944140195846558e-01
-2.983493804931640625e-01,-3.583639264106750488e-01,-1.896470934152603149e-01,-2.553001046180725098e-02,1.257948279380798340e-01,2.009306475520133972e-02,-9.223657846450805664e-02,-2.877746149897575378e-02,-2.954483032226562500e-01,-1.181197911500930786e-01,5.007227063179016113e-01,-3.377385437488555908e-01,1.904818862676620483e-01,1.199778467416763306e-01,-3.454665541648864746e-01,-2.579214274883270264e-01,-2.527953982353210449e-01,2.281877696514129639e-01,1.691554188728332520e-01,3.130435943603515625e-03
2.195296138525009155e-01,-5.790111422538757324e-01,2.303952816873788834e-03,-2.644535601139068604e-01,2.400252819061279297e-01,-6.009814143180847168e-02,2.117872536182403564e-01,4.082884192466735840e-01,-1.723473668098449707e-01,8.514574170112609863e-02,2.063142210245132446e-01,1.349929273128509521e-01,-6.381767336279153824e-03,-9.125484153628349304e-03,-9.259578771889209747e-03,-4.985208511352539062e-01,-4.079689979553222656e-01,-2.908171713352203369e-01,8.121417462825775146e-02,-8.675134181976318359e-02
